=== Model information ===

Filename:     RS1_petsc_unique_incl_timed_out_filtered_mfree_UF_arya_p38_Jan1_400_Apr11.model
Scheme:weka.classifiers.trees.J48 -C 0.25 -M 2
Relation:RS1_train_petsc_unique_incl_timed_out_filtered_mfree_UF_arya_p38_Jan1_400_Apr11.arff
Attributes:   9
              AbsoluteTrace
              Trace
              ColumnDiagonalDominance
              AbsoluteNonZeroSum
              Dimension
              DiagonalMean
              FrobeniusNorm
              solver
              class

=== Classifier model ===

J48 pruned tree
------------------

FrobeniusNorm <= 117.84
|   Trace <= -0.013274: bad (675.0/31.0)
|   Trace > -0.013274
|   |   Trace <= -0.00162
|   |   |   solver <= 9786219
|   |   |   |   DiagonalMean <= -0.000029: bad (6.0/1.0)
|   |   |   |   DiagonalMean > -0.000029
|   |   |   |   |   solver <= 1788899: bad (2.0)
|   |   |   |   |   solver > 1788899: good (12.0/2.0)
|   |   |   solver > 9786219: good (353.0/44.0)
|   |   Trace > -0.00162
|   |   |   Dimension <= 53
|   |   |   |   Dimension <= 19: good (252.0/19.0)
|   |   |   |   Dimension > 19
|   |   |   |   |   Dimension <= 33: bad (130.0/28.0)
|   |   |   |   |   Dimension > 33
|   |   |   |   |   |   ColumnDiagonalDominance <= 0: good (129.0/28.0)
|   |   |   |   |   |   ColumnDiagonalDominance > 0
|   |   |   |   |   |   |   solver <= 45869639: good (128.0/11.0)
|   |   |   |   |   |   |   solver > 45869639
|   |   |   |   |   |   |   |   solver <= 52198660: bad (20.0/5.0)
|   |   |   |   |   |   |   |   solver > 52198660: good (107.0/11.0)
|   |   |   Dimension > 53
|   |   |   |   ColumnDiagonalDominance <= 0
|   |   |   |   |   FrobeniusNorm <= 0.011933
|   |   |   |   |   |   Dimension <= 15343
|   |   |   |   |   |   |   DiagonalMean <= 0.472298
|   |   |   |   |   |   |   |   solver <= 94479547
|   |   |   |   |   |   |   |   |   DiagonalMean <= 0.220769
|   |   |   |   |   |   |   |   |   |   solver <= 28257540: bad (108.0)
|   |   |   |   |   |   |   |   |   |   solver > 28257540
|   |   |   |   |   |   |   |   |   |   |   solver <= 30523628: good (14.0/4.0)
|   |   |   |   |   |   |   |   |   |   |   solver > 30523628: bad (210.0/31.0)
|   |   |   |   |   |   |   |   |   DiagonalMean > 0.220769
|   |   |   |   |   |   |   |   |   |   solver <= 22938024
|   |   |   |   |   |   |   |   |   |   |   solver <= 20321736: bad (25.0/4.0)
|   |   |   |   |   |   |   |   |   |   |   solver > 20321736: good (7.0)
|   |   |   |   |   |   |   |   |   |   solver > 22938024
|   |   |   |   |   |   |   |   |   |   |   solver <= 56513173: bad (56.0)
|   |   |   |   |   |   |   |   |   |   |   solver > 56513173
|   |   |   |   |   |   |   |   |   |   |   |   solver <= 58743455: good (4.0)
|   |   |   |   |   |   |   |   |   |   |   |   solver > 58743455: bad (32.0/3.0)
|   |   |   |   |   |   |   |   solver > 94479547
|   |   |   |   |   |   |   |   |   Dimension <= 1922
|   |   |   |   |   |   |   |   |   |   Dimension <= 769
|   |   |   |   |   |   |   |   |   |   |   solver <= 95279263: good (3.0)
|   |   |   |   |   |   |   |   |   |   |   solver > 95279263: bad (2.0)
|   |   |   |   |   |   |   |   |   |   Dimension > 769
|   |   |   |   |   |   |   |   |   |   |   AbsoluteTrace <= 415.529: bad (10.0)
|   |   |   |   |   |   |   |   |   |   |   AbsoluteTrace > 415.529
|   |   |   |   |   |   |   |   |   |   |   |   solver <= 95279263: bad (4.0)
|   |   |   |   |   |   |   |   |   |   |   |   solver > 95279263
|   |   |   |   |   |   |   |   |   |   |   |   |   solver <= 95762355: good (3.0)
|   |   |   |   |   |   |   |   |   |   |   |   |   solver > 95762355
|   |   |   |   |   |   |   |   |   |   |   |   |   |   solver <= 96590063: bad (4.0)
|   |   |   |   |   |   |   |   |   |   |   |   |   |   solver > 96590063: good (2.0)
|   |   |   |   |   |   |   |   |   Dimension > 1922
|   |   |   |   |   |   |   |   |   |   solver <= 95279263: good (8.0)
|   |   |   |   |   |   |   |   |   |   solver > 95279263: bad (2.0)
|   |   |   |   |   |   |   DiagonalMean > 0.472298: bad (127.0/4.0)
|   |   |   |   |   |   Dimension > 15343: bad (294.0/9.0)
|   |   |   |   |   FrobeniusNorm > 0.011933
|   |   |   |   |   |   FrobeniusNorm <= 0.076163
|   |   |   |   |   |   |   AbsoluteTrace <= 0.099054
|   |   |   |   |   |   |   |   AbsoluteTrace <= 0.036931: good (140.0/26.0)
|   |   |   |   |   |   |   |   AbsoluteTrace > 0.036931: bad (12.0)
|   |   |   |   |   |   |   AbsoluteTrace > 0.099054: good (391.0/57.0)
|   |   |   |   |   |   FrobeniusNorm > 0.076163
|   |   |   |   |   |   |   solver <= 28187355
|   |   |   |   |   |   |   |   DiagonalMean <= 0.018684: bad (813.0)
|   |   |   |   |   |   |   |   DiagonalMean > 0.018684
|   |   |   |   |   |   |   |   |   AbsoluteTrace <= 800.529
|   |   |   |   |   |   |   |   |   |   Dimension <= 102
|   |   |   |   |   |   |   |   |   |   |   AbsoluteNonZeroSum <= 119.68
|   |   |   |   |   |   |   |   |   |   |   |   AbsoluteTrace <= 18.6585: good (30.0/7.0)
|   |   |   |   |   |   |   |   |   |   |   |   AbsoluteTrace > 18.6585
|   |   |   |   |   |   |   |   |   |   |   |   |   AbsoluteTrace <= 45.3096: bad (34.0/15.0)
|   |   |   |   |   |   |   |   |   |   |   |   |   AbsoluteTrace > 45.3096: good (33.0/9.0)
|   |   |   |   |   |   |   |   |   |   |   AbsoluteNonZeroSum > 119.68: bad (24.0)
|   |   |   |   |   |   |   |   |   |   Dimension > 102
|   |   |   |   |   |   |   |   |   |   |   Trace <= 58.7607: bad (232.0)
|   |   |   |   |   |   |   |   |   |   |   Trace > 58.7607
|   |   |   |   |   |   |   |   |   |   |   |   Dimension <= 4598
|   |   |   |   |   |   |   |   |   |   |   |   |   Dimension <= 1104
|   |   |   |   |   |   |   |   |   |   |   |   |   |   AbsoluteNonZeroSum <= 62.9167: good (32.0/9.0)
|   |   |   |   |   |   |   |   |   |   |   |   |   |   AbsoluteNonZeroSum > 62.9167
|   |   |   |   |   |   |   |   |   |   |   |   |   |   |   DiagonalMean <= 0.480907: bad (103.0/3.0)
|   |   |   |   |   |   |   |   |   |   |   |   |   |   |   DiagonalMean > 0.480907
|   |   |   |   |   |   |   |   |   |   |   |   |   |   |   |   DiagonalMean <= 0.719822
|   |   |   |   |   |   |   |   |   |   |   |   |   |   |   |   |   AbsoluteTrace <= 199.603
|   |   |   |   |   |   |   |   |   |   |   |   |   |   |   |   |   |   solver <= 20321736: bad (79.0/19.0)
|   |   |   |   |   |   |   |   |   |   |   |   |   |   |   |   |   |   solver > 20321736: good (21.0/6.0)
|   |   |   |   |   |   |   |   |   |   |   |   |   |   |   |   |   AbsoluteTrace > 199.603: good (38.0/7.0)
|   |   |   |   |   |   |   |   |   |   |   |   |   |   |   |   DiagonalMean > 0.719822: bad (70.0/3.0)
|   |   |   |   |   |   |   |   |   |   |   |   |   Dimension > 1104: bad (224.0/6.0)
|   |   |   |   |   |   |   |   |   |   |   |   Dimension > 4598: good (33.0/8.0)
|   |   |   |   |   |   |   |   |   AbsoluteTrace > 800.529
|   |   |   |   |   |   |   |   |   |   solver <= 7481378: bad (2.0)
|   |   |   |   |   |   |   |   |   |   solver > 7481378
|   |   |   |   |   |   |   |   |   |   |   solver <= 24483136: good (29.0/2.0)
|   |   |   |   |   |   |   |   |   |   |   solver > 24483136: bad (2.0)
|   |   |   |   |   |   |   solver > 28187355
|   |   |   |   |   |   |   |   solver <= 30523628
|   |   |   |   |   |   |   |   |   DiagonalMean <= 0.025888: good (135.0/2.0)
|   |   |   |   |   |   |   |   |   DiagonalMean > 0.025888
|   |   |   |   |   |   |   |   |   |   DiagonalMean <= 0.75233
|   |   |   |   |   |   |   |   |   |   |   Dimension <= 3432
|   |   |   |   |   |   |   |   |   |   |   |   FrobeniusNorm <= 0.712499: bad (8.0)
|   |   |   |   |   |   |   |   |   |   |   |   FrobeniusNorm > 0.712499
|   |   |   |   |   |   |   |   |   |   |   |   |   AbsoluteTrace <= 80.1029
|   |   |   |   |   |   |   |   |   |   |   |   |   |   AbsoluteNonZeroSum <= 37: good (13.0/2.0)
|   |   |   |   |   |   |   |   |   |   |   |   |   |   AbsoluteNonZeroSum > 37
|   |   |   |   |   |   |   |   |   |   |   |   |   |   |   DiagonalMean <= 0.575006
|   |   |   |   |   |   |   |   |   |   |   |   |   |   |   |   FrobeniusNorm <= 45.6786
|   |   |   |   |   |   |   |   |   |   |   |   |   |   |   |   |   Dimension <= 105
|   |   |   |   |   |   |   |   |   |   |   |   |   |   |   |   |   |   solver <= 30523626: good (5.0/1.0)
|   |   |   |   |   |   |   |   |   |   |   |   |   |   |   |   |   |   solver > 30523626: bad (3.0)
|   |   |   |   |   |   |   |   |   |   |   |   |   |   |   |   |   Dimension > 105: bad (31.0/3.0)
|   |   |   |   |   |   |   |   |   |   |   |   |   |   |   |   FrobeniusNorm > 45.6786: good (3.0)
|   |   |   |   |   |   |   |   |   |   |   |   |   |   |   DiagonalMean > 0.575006: good (5.0)
|   |   |   |   |   |   |   |   |   |   |   |   |   AbsoluteTrace > 80.1029
|   |   |   |   |   |   |   |   |   |   |   |   |   |   AbsoluteNonZeroSum <= 343: good (46.0/1.0)
|   |   |   |   |   |   |   |   |   |   |   |   |   |   AbsoluteNonZeroSum > 343
|   |   |   |   |   |   |   |   |   |   |   |   |   |   |   solver <= 28257540: bad (3.0)
|   |   |   |   |   |   |   |   |   |   |   |   |   |   |   solver > 28257540: good (3.0)
|   |   |   |   |   |   |   |   |   |   |   Dimension > 3432: bad (8.0)
|   |   |   |   |   |   |   |   |   |   DiagonalMean > 0.75233: bad (11.0)
|   |   |   |   |   |   |   |   solver > 30523628
|   |   |   |   |   |   |   |   |   solver <= 94479547
|   |   |   |   |   |   |   |   |   |   solver <= 39942443
|   |   |   |   |   |   |   |   |   |   |   solver <= 36171345
|   |   |   |   |   |   |   |   |   |   |   |   DiagonalMean <= 0.079126
|   |   |   |   |   |   |   |   |   |   |   |   |   Dimension <= 4598: bad (177.0)
|   |   |   |   |   |   |   |   |   |   |   |   |   Dimension > 4598
|   |   |   |   |   |   |   |   |   |   |   |   |   |   DiagonalMean <= 0.018684: bad (19.0)
|   |   |   |   |   |   |   |   |   |   |   |   |   |   DiagonalMean > 0.018684: good (9.0/1.0)
|   |   |   |   |   |   |   |   |   |   |   |   DiagonalMean > 0.079126
|   |   |   |   |   |   |   |   |   |   |   |   |   FrobeniusNorm <= 19.9758
|   |   |   |   |   |   |   |   |   |   |   |   |   |   solver <= 32110532: good (31.0/3.0)
|   |   |   |   |   |   |   |   |   |   |   |   |   |   solver > 32110532
|   |   |   |   |   |   |   |   |   |   |   |   |   |   |   AbsoluteNonZeroSum <= 62.9167
|   |   |   |   |   |   |   |   |   |   |   |   |   |   |   |   Dimension <= 1104: good (7.0/2.0)
|   |   |   |   |   |   |   |   |   |   |   |   |   |   |   |   Dimension > 1104: bad (7.0)
|   |   |   |   |   |   |   |   |   |   |   |   |   |   |   AbsoluteNonZeroSum > 62.9167: good (10.0/2.0)
|   |   |   |   |   |   |   |   |   |   |   |   |   FrobeniusNorm > 19.9758
|   |   |   |   |   |   |   |   |   |   |   |   |   |   DiagonalMean <= 0.50021: bad (41.0)
|   |   |   |   |   |   |   |   |   |   |   |   |   |   DiagonalMean > 0.50021
|   |   |   |   |   |   |   |   |   |   |   |   |   |   |   DiagonalMean <= 0.719822
|   |   |   |   |   |   |   |   |   |   |   |   |   |   |   |   solver <= 32110532: good (17.0/1.0)
|   |   |   |   |   |   |   |   |   |   |   |   |   |   |   |   solver > 32110532
|   |   |   |   |   |   |   |   |   |   |   |   |   |   |   |   |   solver <= 33173731: bad (6.0/1.0)
|   |   |   |   |   |   |   |   |   |   |   |   |   |   |   |   |   solver > 33173731: good (4.0/1.0)
|   |   |   |   |   |   |   |   |   |   |   |   |   |   |   DiagonalMean > 0.719822: bad (17.0)
|   |   |   |   |   |   |   |   |   |   |   solver > 36171345
|   |   |   |   |   |   |   |   |   |   |   |   AbsoluteTrace <= 309.453
|   |   |   |   |   |   |   |   |   |   |   |   |   Dimension <= 1224
|   |   |   |   |   |   |   |   |   |   |   |   |   |   FrobeniusNorm <= 37.6265
|   |   |   |   |   |   |   |   |   |   |   |   |   |   |   AbsoluteTrace <= 1.62368: good (11.0)
|   |   |   |   |   |   |   |   |   |   |   |   |   |   |   AbsoluteTrace > 1.62368
|   |   |   |   |   |   |   |   |   |   |   |   |   |   |   |   FrobeniusNorm <= 34.1526
|   |   |   |   |   |   |   |   |   |   |   |   |   |   |   |   |   DiagonalMean <= 0.786899
|   |   |   |   |   |   |   |   |   |   |   |   |   |   |   |   |   |   AbsoluteTrace <= 58.1275
|   |   |   |   |   |   |   |   |   |   |   |   |   |   |   |   |   |   |   Dimension <= 115: good (12.0/2.0)
|   |   |   |   |   |   |   |   |   |   |   |   |   |   |   |   |   |   |   Dimension > 115
|   |   |   |   |   |   |   |   |   |   |   |   |   |   |   |   |   |   |   |   solver <= 39942441: bad (5.0)
|   |   |   |   |   |   |   |   |   |   |   |   |   |   |   |   |   |   |   |   solver > 39942441: good (4.0/1.0)
|   |   |   |   |   |   |   |   |   |   |   |   |   |   |   |   |   |   AbsoluteTrace > 58.1275: good (15.0)
|   |   |   |   |   |   |   |   |   |   |   |   |   |   |   |   |   DiagonalMean > 0.786899: bad (3.0)
|   |   |   |   |   |   |   |   |   |   |   |   |   |   |   |   FrobeniusNorm > 34.1526: bad (6.0)
|   |   |   |   |   |   |   |   |   |   |   |   |   |   FrobeniusNorm > 37.6265: good (34.0/1.0)
|   |   |   |   |   |   |   |   |   |   |   |   |   Dimension > 1224: good (115.0)
|   |   |   |   |   |   |   |   |   |   |   |   AbsoluteTrace > 309.453
|   |   |   |   |   |   |   |   |   |   |   |   |   Trace <= 494.48: bad (12.0)
|   |   |   |   |   |   |   |   |   |   |   |   |   Trace > 494.48: good (6.0)
|   |   |   |   |   |   |   |   |   |   solver > 39942443
|   |   |   |   |   |   |   |   |   |   |   DiagonalMean <= 0.079126
|   |   |   |   |   |   |   |   |   |   |   |   solver <= 50249253
|   |   |   |   |   |   |   |   |   |   |   |   |   Dimension <= 4598: bad (397.0/1.0)
|   |   |   |   |   |   |   |   |   |   |   |   |   Dimension > 4598
|   |   |   |   |   |   |   |   |   |   |   |   |   |   DiagonalMean <= 0.018684: bad (39.0)
|   |   |   |   |   |   |   |   |   |   |   |   |   |   DiagonalMean > 0.018684
|   |   |   |   |   |   |   |   |   |   |   |   |   |   |   solver <= 47483213: good (10.0)
|   |   |   |   |   |   |   |   |   |   |   |   |   |   |   solver > 47483213
|   |   |   |   |   |   |   |   |   |   |   |   |   |   |   |   solver <= 47942865: bad (2.0)
|   |   |   |   |   |   |   |   |   |   |   |   |   |   |   |   solver > 47942865: good (3.0/1.0)
|   |   |   |   |   |   |   |   |   |   |   |   solver > 50249253
|   |   |   |   |   |   |   |   |   |   |   |   |   solver <= 52068148
|   |   |   |   |   |   |   |   |   |   |   |   |   |   AbsoluteTrace <= 92.4277: good (146.0/6.0)
|   |   |   |   |   |   |   |   |   |   |   |   |   |   AbsoluteTrace > 92.4277
|   |   |   |   |   |   |   |   |   |   |   |   |   |   |   AbsoluteTrace <= 214.208: good (8.0/3.0)
|   |   |   |   |   |   |   |   |   |   |   |   |   |   |   AbsoluteTrace > 214.208: bad (6.0)
|   |   |   |   |   |   |   |   |   |   |   |   |   solver > 52068148
|   |   |   |   |   |   |   |   |   |   |   |   |   |   solver <= 87217530
|   |   |   |   |   |   |   |   |   |   |   |   |   |   |   AbsoluteTrace <= 92.6726: bad (755.0)
|   |   |   |   |   |   |   |   |   |   |   |   |   |   |   AbsoluteTrace > 92.6726
|   |   |   |   |   |   |   |   |   |   |   |   |   |   |   |   AbsoluteTrace <= 93.5898: good (32.0/6.0)
|   |   |   |   |   |   |   |   |   |   |   |   |   |   |   |   AbsoluteTrace > 93.5898: bad (82.0/6.0)
|   |   |   |   |   |   |   |   |   |   |   |   |   |   solver > 87217530
|   |   |   |   |   |   |   |   |   |   |   |   |   |   |   solver <= 87479580
|   |   |   |   |   |   |   |   |   |   |   |   |   |   |   |   AbsoluteTrace <= 93.5898: good (150.0/8.0)
|   |   |   |   |   |   |   |   |   |   |   |   |   |   |   |   AbsoluteTrace > 93.5898
|   |   |   |   |   |   |   |   |   |   |   |   |   |   |   |   |   AbsoluteTrace <= 214.208: good (3.0)
|   |   |   |   |   |   |   |   |   |   |   |   |   |   |   |   |   AbsoluteTrace > 214.208: bad (7.0)
|   |   |   |   |   |   |   |   |   |   |   |   |   |   |   solver > 87479580
|   |   |   |   |   |   |   |   |   |   |   |   |   |   |   |   Trace <= 92.6726: bad (251.0)
|   |   |   |   |   |   |   |   |   |   |   |   |   |   |   |   Trace > 92.6726
|   |   |   |   |   |   |   |   |   |   |   |   |   |   |   |   |   AbsoluteTrace <= 93.5898
|   |   |   |   |   |   |   |   |   |   |   |   |   |   |   |   |   |   solver <= 88987917: bad (3.0/1.0)
|   |   |   |   |   |   |   |   |   |   |   |   |   |   |   |   |   |   solver > 88987917: good (6.0)
|   |   |   |   |   |   |   |   |   |   |   |   |   |   |   |   |   AbsoluteTrace > 93.5898
|   |   |   |   |   |   |   |   |   |   |   |   |   |   |   |   |   |   solver <= 93306185: bad (26.0)
|   |   |   |   |   |   |   |   |   |   |   |   |   |   |   |   |   |   solver > 93306185: good (3.0)
|   |   |   |   |   |   |   |   |   |   |   DiagonalMean > 0.079126
|   |   |   |   |   |   |   |   |   |   |   |   FrobeniusNorm <= 19.9758
|   |   |   |   |   |   |   |   |   |   |   |   |   Dimension <= 1104
|   |   |   |   |   |   |   |   |   |   |   |   |   |   AbsoluteNonZeroSum <= 21.9361: good (134.0/27.0)
|   |   |   |   |   |   |   |   |   |   |   |   |   |   AbsoluteNonZeroSum > 21.9361
|   |   |   |   |   |   |   |   |   |   |   |   |   |   |   AbsoluteNonZeroSum <= 73.044: bad (63.0/20.0)
|   |   |   |   |   |   |   |   |   |   |   |   |   |   |   AbsoluteNonZeroSum > 73.044: good (59.0/12.0)
|   |   |   |   |   |   |   |   |   |   |   |   |   Dimension > 1104
|   |   |   |   |   |   |   |   |   |   |   |   |   |   Dimension <= 2339
|   |   |   |   |   |   |   |   |   |   |   |   |   |   |   solver <= 82456576
|   |   |   |   |   |   |   |   |   |   |   |   |   |   |   |   solver <= 52068148
|   |   |   |   |   |   |   |   |   |   |   |   |   |   |   |   |   solver <= 50249253: bad (17.0)
|   |   |   |   |   |   |   |   |   |   |   |   |   |   |   |   |   solver > 50249253: good (8.0)
|   |   |   |   |   |   |   |   |   |   |   |   |   |   |   |   solver > 52068148: bad (38.0)
|   |   |   |   |   |   |   |   |   |   |   |   |   |   |   solver > 82456576
|   |   |   |   |   |   |   |   |   |   |   |   |   |   |   |   solver <= 87479580: good (8.0)
|   |   |   |   |   |   |   |   |   |   |   |   |   |   |   |   solver > 87479580: bad (7.0)
|   |   |   |   |   |   |   |   |   |   |   |   |   |   Dimension > 2339: good (62.0/18.0)
|   |   |   |   |   |   |   |   |   |   |   |   FrobeniusNorm > 19.9758
|   |   |   |   |   |   |   |   |   |   |   |   |   FrobeniusNorm <= 66.3288
|   |   |   |   |   |   |   |   |   |   |   |   |   |   solver <= 52068148
|   |   |   |   |   |   |   |   |   |   |   |   |   |   |   solver <= 50249253: bad (111.0/5.0)
|   |   |   |   |   |   |   |   |   |   |   |   |   |   |   solver > 50249253
|   |   |   |   |   |   |   |   |   |   |   |   |   |   |   |   DiagonalMean <= 0.50021
|   |   |   |   |   |   |   |   |   |   |   |   |   |   |   |   |   AbsoluteTrace <= 45.3096: good (5.0)
|   |   |   |   |   |   |   |   |   |   |   |   |   |   |   |   |   AbsoluteTrace > 45.3096
|   |   |   |   |   |   |   |   |   |   |   |   |   |   |   |   |   |   AbsoluteTrace <= 68.5035: bad (8.0/1.0)
|   |   |   |   |   |   |   |   |   |   |   |   |   |   |   |   |   |   AbsoluteTrace > 68.5035: good (17.0/2.0)
|   |   |   |   |   |   |   |   |   |   |   |   |   |   |   |   DiagonalMean > 0.50021: bad (7.0)
|   |   |   |   |   |   |   |   |   |   |   |   |   |   solver > 52068148
|   |   |   |   |   |   |   |   |   |   |   |   |   |   |   DiagonalMean <= 0.480907
|   |   |   |   |   |   |   |   |   |   |   |   |   |   |   |   solver <= 87217530
|   |   |   |   |   |   |   |   |   |   |   |   |   |   |   |   |   Dimension <= 343: bad (109.0)
|   |   |   |   |   |   |   |   |   |   |   |   |   |   |   |   |   Dimension > 343
|   |   |   |   |   |   |   |   |   |   |   |   |   |   |   |   |   |   solver <= 58743455
|   |   |   |   |   |   |   |   |   |   |   |   |   |   |   |   |   |   |   solver <= 56513173: bad (16.0)
|   |   |   |   |   |   |   |   |   |   |   |   |   |   |   |   |   |   |   solver > 56513173: good (4.0)
|   |   |   |   |   |   |   |   |   |   |   |   |   |   |   |   |   |   solver > 58743455: bad (24.0)
|   |   |   |   |   |   |   |   |   |   |   |   |   |   |   |   solver > 87217530
|   |   |   |   |   |   |   |   |   |   |   |   |   |   |   |   |   solver <= 87479580
|   |   |   |   |   |   |   |   |   |   |   |   |   |   |   |   |   |   DiagonalMean <= 0.4125: good (18.0/2.0)
|   |   |   |   |   |   |   |   |   |   |   |   |   |   |   |   |   |   DiagonalMean > 0.4125: bad (5.0/1.0)
|   |   |   |   |   |   |   |   |   |   |   |   |   |   |   |   |   solver > 87479580: bad (47.0)
|   |   |   |   |   |   |   |   |   |   |   |   |   |   |   DiagonalMean > 0.480907
|   |   |   |   |   |   |   |   |   |   |   |   |   |   |   |   AbsoluteTrace <= 68.5035: good (40.0/17.0)
|   |   |   |   |   |   |   |   |   |   |   |   |   |   |   |   AbsoluteTrace > 68.5035: bad (81.0/15.0)
|   |   |   |   |   |   |   |   |   |   |   |   |   FrobeniusNorm > 66.3288
|   |   |   |   |   |   |   |   |   |   |   |   |   |   AbsoluteNonZeroSum <= 343: good (59.0/10.0)
|   |   |   |   |   |   |   |   |   |   |   |   |   |   AbsoluteNonZeroSum > 343: bad (125.0/28.0)
|   |   |   |   |   |   |   |   |   solver > 94479547
|   |   |   |   |   |   |   |   |   |   solver <= 94599140
|   |   |   |   |   |   |   |   |   |   |   DiagonalMean <= 0.025888: good (126.0/2.0)
|   |   |   |   |   |   |   |   |   |   |   DiagonalMean > 0.025888
|   |   |   |   |   |   |   |   |   |   |   |   DiagonalMean <= 0.75233
|   |   |   |   |   |   |   |   |   |   |   |   |   Dimension <= 1922
|   |   |   |   |   |   |   |   |   |   |   |   |   |   AbsoluteTrace <= 80.1029
|   |   |   |   |   |   |   |   |   |   |   |   |   |   |   AbsoluteNonZeroSum <= 10.8825: good (8.0)
|   |   |   |   |   |   |   |   |   |   |   |   |   |   |   AbsoluteNonZeroSum > 10.8825
|   |   |   |   |   |   |   |   |   |   |   |   |   |   |   |   AbsoluteTrace <= 59.9643
|   |   |   |   |   |   |   |   |   |   |   |   |   |   |   |   |   AbsoluteNonZeroSum <= 62.9167
|   |   |   |   |   |   |   |   |   |   |   |   |   |   |   |   |   |   solver <= 94599138: good (3.0/1.0)
|   |   |   |   |   |   |   |   |   |   |   |   |   |   |   |   |   |   solver > 94599138: bad (6.0)
|   |   |   |   |   |   |   |   |   |   |   |   |   |   |   |   |   AbsoluteNonZeroSum > 62.9167
|   |   |   |   |   |   |   |   |   |   |   |   |   |   |   |   |   |   solver <= 94599137
|   |   |   |   |   |   |   |   |   |   |   |   |   |   |   |   |   |   |   AbsoluteTrace <= 32.1889: bad (2.0)
|   |   |   |   |   |   |   |   |   |   |   |   |   |   |   |   |   |   |   AbsoluteTrace > 32.1889: good (3.0)
|   |   |   |   |   |   |   |   |   |   |   |   |   |   |   |   |   |   solver > 94599137: good (9.0)
|   |   |   |   |   |   |   |   |   |   |   |   |   |   |   |   AbsoluteTrace > 59.9643: bad (7.0)
|   |   |   |   |   |   |   |   |   |   |   |   |   |   AbsoluteTrace > 80.1029: good (39.0)
|   |   |   |   |   |   |   |   |   |   |   |   |   Dimension > 1922
|   |   |   |   |   |   |   |   |   |   |   |   |   |   AbsoluteTrace <= 760.6: bad (8.0)
|   |   |   |   |   |   |   |   |   |   |   |   |   |   AbsoluteTrace > 760.6: good (4.0)
|   |   |   |   |   |   |   |   |   |   |   |   DiagonalMean > 0.75233: bad (7.0)
|   |   |   |   |   |   |   |   |   |   solver > 94599140
|   |   |   |   |   |   |   |   |   |   |   DiagonalMean <= 0.018684: bad (39.0)
|   |   |   |   |   |   |   |   |   |   |   DiagonalMean > 0.018684
|   |   |   |   |   |   |   |   |   |   |   |   Dimension <= 4598
|   |   |   |   |   |   |   |   |   |   |   |   |   DiagonalMean <= 0.052268: bad (14.0)
|   |   |   |   |   |   |   |   |   |   |   |   |   DiagonalMean > 0.052268
|   |   |   |   |   |   |   |   |   |   |   |   |   |   FrobeniusNorm <= 19.9758
|   |   |   |   |   |   |   |   |   |   |   |   |   |   |   AbsoluteNonZeroSum <= 5.01226: bad (9.0/2.0)
|   |   |   |   |   |   |   |   |   |   |   |   |   |   |   AbsoluteNonZeroSum > 5.01226: good (55.0/13.0)
|   |   |   |   |   |   |   |   |   |   |   |   |   |   FrobeniusNorm > 19.9758
|   |   |   |   |   |   |   |   |   |   |   |   |   |   |   FrobeniusNorm <= 68.8264: bad (53.0/6.0)
|   |   |   |   |   |   |   |   |   |   |   |   |   |   |   FrobeniusNorm > 68.8264
|   |   |   |   |   |   |   |   |   |   |   |   |   |   |   |   AbsoluteTrace <= 272.622: good (9.0/1.0)
|   |   |   |   |   |   |   |   |   |   |   |   |   |   |   |   AbsoluteTrace > 272.622: bad (9.0/1.0)
|   |   |   |   |   |   |   |   |   |   |   |   Dimension > 4598: good (10.0)
|   |   |   |   ColumnDiagonalDominance > 0
|   |   |   |   |   Dimension <= 3797
|   |   |   |   |   |   FrobeniusNorm <= 11.3435
|   |   |   |   |   |   |   AbsoluteTrace <= 18.6585
|   |   |   |   |   |   |   |   solver <= 68908713
|   |   |   |   |   |   |   |   |   solver <= 45869640
|   |   |   |   |   |   |   |   |   |   Dimension <= 332
|   |   |   |   |   |   |   |   |   |   |   solver <= 17734818: good (7.0)
|   |   |   |   |   |   |   |   |   |   |   solver > 17734818
|   |   |   |   |   |   |   |   |   |   |   |   solver <= 22938024: bad (2.0)
|   |   |   |   |   |   |   |   |   |   |   |   solver > 22938024: good (2.0)
|   |   |   |   |   |   |   |   |   |   Dimension > 332
|   |   |   |   |   |   |   |   |   |   |   solver <= 7668975: bad (14.0/2.0)
|   |   |   |   |   |   |   |   |   |   |   solver > 7668975
|   |   |   |   |   |   |   |   |   |   |   |   solver <= 12926479: good (8.0)
|   |   |   |   |   |   |   |   |   |   |   |   solver > 12926479
|   |   |   |   |   |   |   |   |   |   |   |   |   solver <= 17734818
|   |   |   |   |   |   |   |   |   |   |   |   |   |   AbsoluteTrace <= 0.332643: bad (2.0)
|   |   |   |   |   |   |   |   |   |   |   |   |   |   AbsoluteTrace > 0.332643: good (3.0)
|   |   |   |   |   |   |   |   |   |   |   |   |   solver > 17734818
|   |   |   |   |   |   |   |   |   |   |   |   |   |   DiagonalMean <= 0.000168
|   |   |   |   |   |   |   |   |   |   |   |   |   |   |   solver <= 22938024: bad (2.0)
|   |   |   |   |   |   |   |   |   |   |   |   |   |   |   solver > 22938024: good (5.0)
|   |   |   |   |   |   |   |   |   |   |   |   |   |   DiagonalMean > 0.000168: bad (13.0)
|   |   |   |   |   |   |   |   |   solver > 45869640
|   |   |   |   |   |   |   |   |   |   DiagonalMean <= 0.000065
|   |   |   |   |   |   |   |   |   |   |   AbsoluteTrace <= 0.02557: good (8.0)
|   |   |   |   |   |   |   |   |   |   |   AbsoluteTrace > 0.02557: bad (9.0/1.0)
|   |   |   |   |   |   |   |   |   |   DiagonalMean > 0.000065: good (68.0/3.0)
|   |   |   |   |   |   |   |   solver > 68908713
|   |   |   |   |   |   |   |   |   DiagonalMean <= 0.000168: good (24.0/7.0)
|   |   |   |   |   |   |   |   |   DiagonalMean > 0.000168
|   |   |   |   |   |   |   |   |   |   Dimension <= 102: good (9.0/1.0)
|   |   |   |   |   |   |   |   |   |   Dimension > 102
|   |   |   |   |   |   |   |   |   |   |   solver <= 75259914
|   |   |   |   |   |   |   |   |   |   |   |   Dimension <= 769
|   |   |   |   |   |   |   |   |   |   |   |   |   solver <= 74995666
|   |   |   |   |   |   |   |   |   |   |   |   |   |   Dimension <= 332: good (3.0)
|   |   |   |   |   |   |   |   |   |   |   |   |   |   Dimension > 332
|   |   |   |   |   |   |   |   |   |   |   |   |   |   |   solver <= 69323954: bad (2.0)
|   |   |   |   |   |   |   |   |   |   |   |   |   |   |   solver > 69323954
|   |   |   |   |   |   |   |   |   |   |   |   |   |   |   |   solver <= 72490863: good (2.0)
|   |   |   |   |   |   |   |   |   |   |   |   |   |   |   |   solver > 72490863
|   |   |   |   |   |   |   |   |   |   |   |   |   |   |   |   |   solver <= 73388125: bad (2.0)
|   |   |   |   |   |   |   |   |   |   |   |   |   |   |   |   |   solver > 73388125: good (2.0)
|   |   |   |   |   |   |   |   |   |   |   |   |   solver > 74995666: bad (3.0)
|   |   |   |   |   |   |   |   |   |   |   |   Dimension > 769
|   |   |   |   |   |   |   |   |   |   |   |   |   solver <= 74995666: bad (13.0)
|   |   |   |   |   |   |   |   |   |   |   |   |   solver > 74995666: good (2.0)
|   |   |   |   |   |   |   |   |   |   |   solver > 75259914: bad (39.0/1.0)
|   |   |   |   |   |   |   AbsoluteTrace > 18.6585: bad (22.0)
|   |   |   |   |   |   FrobeniusNorm > 11.3435
|   |   |   |   |   |   |   AbsoluteTrace <= 246.522
|   |   |   |   |   |   |   |   AbsoluteTrace <= 103.642: good (276.0/63.0)
|   |   |   |   |   |   |   |   AbsoluteTrace > 103.642
|   |   |   |   |   |   |   |   |   solver <= 60392863
|   |   |   |   |   |   |   |   |   |   solver <= 45869640
|   |   |   |   |   |   |   |   |   |   |   solver <= 17734818: good (3.0/1.0)
|   |   |   |   |   |   |   |   |   |   |   solver > 17734818: bad (3.0)
|   |   |   |   |   |   |   |   |   |   solver > 45869640: good (7.0)
|   |   |   |   |   |   |   |   |   solver > 60392863: bad (8.0)
|   |   |   |   |   |   |   AbsoluteTrace > 246.522: good (140.0/24.0)
|   |   |   |   |   Dimension > 3797
|   |   |   |   |   |   solver <= 47483213
|   |   |   |   |   |   |   solver <= 39942443
|   |   |   |   |   |   |   |   solver <= 36171345: bad (102.0/12.0)
|   |   |   |   |   |   |   |   solver > 36171345: good (7.0)
|   |   |   |   |   |   |   solver > 39942443: bad (31.0)
|   |   |   |   |   |   solver > 47483213
|   |   |   |   |   |   |   solver <= 52068148
|   |   |   |   |   |   |   |   DiagonalMean <= 0.000168
|   |   |   |   |   |   |   |   |   AbsoluteTrace <= 0.013995
|   |   |   |   |   |   |   |   |   |   AbsoluteTrace <= 0.008666
|   |   |   |   |   |   |   |   |   |   |   solver <= 52068146: bad (6.0/1.0)
|   |   |   |   |   |   |   |   |   |   |   solver > 52068146: good (4.0)
|   |   |   |   |   |   |   |   |   |   AbsoluteTrace > 0.008666: good (22.0/3.0)
|   |   |   |   |   |   |   |   |   AbsoluteTrace > 0.013995: bad (3.0)
|   |   |   |   |   |   |   |   DiagonalMean > 0.000168: good (14.0)
|   |   |   |   |   |   |   solver > 52068148
|   |   |   |   |   |   |   |   solver <= 94479547
|   |   |   |   |   |   |   |   |   AbsoluteTrace <= 0.005528: bad (43.0/6.0)
|   |   |   |   |   |   |   |   |   AbsoluteTrace > 0.005528
|   |   |   |   |   |   |   |   |   |   solver <= 68908713: good (4.0)
|   |   |   |   |   |   |   |   |   |   solver > 68908713: bad (54.0/7.0)
|   |   |   |   |   |   |   |   solver > 94479547
|   |   |   |   |   |   |   |   |   solver <= 95279263: good (8.0)
|   |   |   |   |   |   |   |   |   solver > 95279263: bad (6.0)
FrobeniusNorm > 117.84
|   solver <= 87217530
|   |   ColumnDiagonalDominance <= 0
|   |   |   Dimension <= 5308
|   |   |   |   solver <= 18707297
|   |   |   |   |   AbsoluteTrace <= 222.373: bad (2273.0/6.0)
|   |   |   |   |   AbsoluteTrace > 222.373
|   |   |   |   |   |   solver <= 7668973
|   |   |   |   |   |   |   FrobeniusNorm <= 743.296
|   |   |   |   |   |   |   |   Trace <= 494.48: bad (50.0)
|   |   |   |   |   |   |   |   Trace > 494.48
|   |   |   |   |   |   |   |   |   Dimension <= 120: good (3.0)
|   |   |   |   |   |   |   |   |   Dimension > 120
|   |   |   |   |   |   |   |   |   |   AbsoluteTrace <= 559.512: good (2.0)
|   |   |   |   |   |   |   |   |   |   AbsoluteTrace > 559.512: bad (25.0/4.0)
|   |   |   |   |   |   |   FrobeniusNorm > 743.296: bad (654.0/10.0)
|   |   |   |   |   |   solver > 7668973
|   |   |   |   |   |   |   solver <= 17734818
|   |   |   |   |   |   |   |   AbsoluteTrace <= 222.425
|   |   |   |   |   |   |   |   |   solver <= 9786219
|   |   |   |   |   |   |   |   |   |   solver <= 8173694
|   |   |   |   |   |   |   |   |   |   |   solver <= 7668974
|   |   |   |   |   |   |   |   |   |   |   |   AbsoluteNonZeroSum <= 153311: good (4.0)
|   |   |   |   |   |   |   |   |   |   |   |   AbsoluteNonZeroSum > 153311: bad (3.0)
|   |   |   |   |   |   |   |   |   |   |   solver > 7668974: bad (7.0)
|   |   |   |   |   |   |   |   |   |   solver > 8173694: good (12.0/1.0)
|   |   |   |   |   |   |   |   |   solver > 9786219
|   |   |   |   |   |   |   |   |   |   solver <= 16306266
|   |   |   |   |   |   |   |   |   |   |   AbsoluteNonZeroSum <= 43752.8: bad (30.0)
|   |   |   |   |   |   |   |   |   |   |   AbsoluteNonZeroSum > 43752.8
|   |   |   |   |   |   |   |   |   |   |   |   solver <= 11728976: bad (20.0)
|   |   |   |   |   |   |   |   |   |   |   |   solver > 11728976
|   |   |   |   |   |   |   |   |   |   |   |   |   solver <= 12271644: good (3.0)
|   |   |   |   |   |   |   |   |   |   |   |   |   solver > 12271644
|   |   |   |   |   |   |   |   |   |   |   |   |   |   solver <= 12926477: bad (13.0)
|   |   |   |   |   |   |   |   |   |   |   |   |   |   solver > 12926477
|   |   |   |   |   |   |   |   |   |   |   |   |   |   |   solver <= 12926478: good (5.0)
|   |   |   |   |   |   |   |   |   |   |   |   |   |   |   solver > 12926478: bad (10.0)
|   |   |   |   |   |   |   |   |   |   solver > 16306266
|   |   |   |   |   |   |   |   |   |   |   solver <= 16465898: good (5.0)
|   |   |   |   |   |   |   |   |   |   |   solver > 16465898
|   |   |   |   |   |   |   |   |   |   |   |   AbsoluteNonZeroSum <= 1344660: good (4.0)
|   |   |   |   |   |   |   |   |   |   |   |   AbsoluteNonZeroSum > 1344660: bad (3.0)
|   |   |   |   |   |   |   |   AbsoluteTrace > 222.425
|   |   |   |   |   |   |   |   |   DiagonalMean <= 16.4693
|   |   |   |   |   |   |   |   |   |   FrobeniusNorm <= 724.431
|   |   |   |   |   |   |   |   |   |   |   Trace <= 494.48: bad (203.0/8.0)
|   |   |   |   |   |   |   |   |   |   |   Trace > 494.48
|   |   |   |   |   |   |   |   |   |   |   |   DiagonalMean <= 0.638201
|   |   |   |   |   |   |   |   |   |   |   |   |   AbsoluteTrace <= 609.761: bad (3.0)
|   |   |   |   |   |   |   |   |   |   |   |   |   AbsoluteTrace > 609.761: good (30.0/11.0)
|   |   |   |   |   |   |   |   |   |   |   |   DiagonalMean > 0.638201: bad (100.0/17.0)
|   |   |   |   |   |   |   |   |   |   FrobeniusNorm > 724.431
|   |   |   |   |   |   |   |   |   |   |   solver <= 9786219
|   |   |   |   |   |   |   |   |   |   |   |   solver <= 8788782: bad (331.0/17.0)
|   |   |   |   |   |   |   |   |   |   |   |   solver > 8788782
|   |   |   |   |   |   |   |   |   |   |   |   |   AbsoluteTrace <= 58429
|   |   |   |   |   |   |   |   |   |   |   |   |   |   AbsoluteNonZeroSum <= 7612.92: bad (5.0)
|   |   |   |   |   |   |   |   |   |   |   |   |   |   AbsoluteNonZeroSum > 7612.92
|   |   |   |   |   |   |   |   |   |   |   |   |   |   |   Dimension <= 1104
|   |   |   |   |   |   |   |   |   |   |   |   |   |   |   |   AbsoluteTrace <= 2981.82: good (3.0)
|   |   |   |   |   |   |   |   |   |   |   |   |   |   |   |   AbsoluteTrace > 2981.82: bad (5.0/1.0)
|   |   |   |   |   |   |   |   |   |   |   |   |   |   |   Dimension > 1104: good (9.0)
|   |   |   |   |   |   |   |   |   |   |   |   |   AbsoluteTrace > 58429: bad (22.0/5.0)
|   |   |   |   |   |   |   |   |   |   |   solver > 9786219: bad (1286.0/42.0)
|   |   |   |   |   |   |   |   |   DiagonalMean > 16.4693
|   |   |   |   |   |   |   |   |   |   AbsoluteNonZeroSum <= 68535700
|   |   |   |   |   |   |   |   |   |   |   solver <= 16465898
|   |   |   |   |   |   |   |   |   |   |   |   FrobeniusNorm <= 20281.1
|   |   |   |   |   |   |   |   |   |   |   |   |   AbsoluteNonZeroSum <= 2709.74: good (14.0/1.0)
|   |   |   |   |   |   |   |   |   |   |   |   |   AbsoluteNonZeroSum > 2709.74: bad (126.0/2.0)
|   |   |   |   |   |   |   |   |   |   |   |   FrobeniusNorm > 20281.1
|   |   |   |   |   |   |   |   |   |   |   |   |   AbsoluteNonZeroSum <= 122281
|   |   |   |   |   |   |   |   |   |   |   |   |   |   FrobeniusNorm <= 43284.5
|   |   |   |   |   |   |   |   |   |   |   |   |   |   |   solver <= 16306266: good (40.0/3.0)
|   |   |   |   |   |   |   |   |   |   |   |   |   |   |   solver > 16306266: bad (3.0)
|   |   |   |   |   |   |   |   |   |   |   |   |   |   FrobeniusNorm > 43284.5
|   |   |   |   |   |   |   |   |   |   |   |   |   |   |   solver <= 9786219
|   |   |   |   |   |   |   |   |   |   |   |   |   |   |   |   solver <= 7668974: good (2.0)
|   |   |   |   |   |   |   |   |   |   |   |   |   |   |   |   solver > 7668974
|   |   |   |   |   |   |   |   |   |   |   |   |   |   |   |   |   solver <= 8788782: bad (3.0)
|   |   |   |   |   |   |   |   |   |   |   |   |   |   |   |   |   solver > 8788782: good (2.0)
|   |   |   |   |   |   |   |   |   |   |   |   |   |   |   solver > 9786219: bad (21.0/1.0)
|   |   |   |   |   |   |   |   |   |   |   |   |   AbsoluteNonZeroSum > 122281
|   |   |   |   |   |   |   |   |   |   |   |   |   |   FrobeniusNorm <= 64428.5: bad (42.0)
|   |   |   |   |   |   |   |   |   |   |   |   |   |   FrobeniusNorm > 64428.5
|   |   |   |   |   |   |   |   |   |   |   |   |   |   |   AbsoluteNonZeroSum <= 248845: good (12.0/3.0)
|   |   |   |   |   |   |   |   |   |   |   |   |   |   |   AbsoluteNonZeroSum > 248845
|   |   |   |   |   |   |   |   |   |   |   |   |   |   |   |   DiagonalMean <= 1824.97: bad (145.0/19.0)
|   |   |   |   |   |   |   |   |   |   |   |   |   |   |   |   DiagonalMean > 1824.97
|   |   |   |   |   |   |   |   |   |   |   |   |   |   |   |   |   Dimension <= 452
|   |   |   |   |   |   |   |   |   |   |   |   |   |   |   |   |   |   solver <= 11256944: bad (34.0/1.0)
|   |   |   |   |   |   |   |   |   |   |   |   |   |   |   |   |   |   solver > 11256944
|   |   |   |   |   |   |   |   |   |   |   |   |   |   |   |   |   |   |   Dimension <= 14
|   |   |   |   |   |   |   |   |   |   |   |   |   |   |   |   |   |   |   |   solver <= 12926479: good (13.0/1.0)
|   |   |   |   |   |   |   |   |   |   |   |   |   |   |   |   |   |   |   |   solver > 12926479
|   |   |   |   |   |   |   |   |   |   |   |   |   |   |   |   |   |   |   |   |   solver <= 14953989: bad (2.0)
|   |   |   |   |   |   |   |   |   |   |   |   |   |   |   |   |   |   |   |   |   solver > 14953989: good (3.0/1.0)
|   |   |   |   |   |   |   |   |   |   |   |   |   |   |   |   |   |   |   Dimension > 14
|   |   |   |   |   |   |   |   |   |   |   |   |   |   |   |   |   |   |   |   FrobeniusNorm <= 610725
|   |   |   |   |   |   |   |   |   |   |   |   |   |   |   |   |   |   |   |   |   solver <= 12321508: bad (2.0)
|   |   |   |   |   |   |   |   |   |   |   |   |   |   |   |   |   |   |   |   |   solver > 12321508: good (6.0/1.0)
|   |   |   |   |   |   |   |   |   |   |   |   |   |   |   |   |   |   |   |   FrobeniusNorm > 610725: bad (15.0)
|   |   |   |   |   |   |   |   |   |   |   |   |   |   |   |   |   Dimension > 452
|   |   |   |   |   |   |   |   |   |   |   |   |   |   |   |   |   |   FrobeniusNorm <= 5724680
|   |   |   |   |   |   |   |   |   |   |   |   |   |   |   |   |   |   |   solver <= 16306266: good (40.0/14.0)
|   |   |   |   |   |   |   |   |   |   |   |   |   |   |   |   |   |   |   solver > 16306266: bad (3.0)
|   |   |   |   |   |   |   |   |   |   |   |   |   |   |   |   |   |   FrobeniusNorm > 5724680: bad (13.0/4.0)
|   |   |   |   |   |   |   |   |   |   |   solver > 16465898: bad (32.0)
|   |   |   |   |   |   |   |   |   |   AbsoluteNonZeroSum > 68535700
|   |   |   |   |   |   |   |   |   |   |   solver <= 14953989
|   |   |   |   |   |   |   |   |   |   |   |   FrobeniusNorm <= 1.39936E14: bad (413.0/10.0)
|   |   |   |   |   |   |   |   |   |   |   |   FrobeniusNorm > 1.39936E14
|   |   |   |   |   |   |   |   |   |   |   |   |   AbsoluteTrace <= 2.64895E15
|   |   |   |   |   |   |   |   |   |   |   |   |   |   solver <= 12321508
|   |   |   |   |   |   |   |   |   |   |   |   |   |   |   solver <= 8788782: bad (2.0)
|   |   |   |   |   |   |   |   |   |   |   |   |   |   |   solver > 8788782: good (7.0)
|   |   |   |   |   |   |   |   |   |   |   |   |   |   solver > 12321508: bad (5.0)
|   |   |   |   |   |   |   |   |   |   |   |   |   AbsoluteTrace > 2.64895E15: bad (26.0/1.0)
|   |   |   |   |   |   |   |   |   |   |   solver > 14953989
|   |   |   |   |   |   |   |   |   |   |   |   solver <= 16465898
|   |   |   |   |   |   |   |   |   |   |   |   |   solver <= 16306266: bad (30.0/4.0)
|   |   |   |   |   |   |   |   |   |   |   |   |   solver > 16306266
|   |   |   |   |   |   |   |   |   |   |   |   |   |   DiagonalMean <= 80165.3: bad (9.0)
|   |   |   |   |   |   |   |   |   |   |   |   |   |   DiagonalMean > 80165.3: good (24.0/9.0)
|   |   |   |   |   |   |   |   |   |   |   |   solver > 16465898: bad (33.0/1.0)
|   |   |   |   |   |   |   solver > 17734818: bad (216.0)
|   |   |   |   solver > 18707297
|   |   |   |   |   solver <= 52068148
|   |   |   |   |   |   solver <= 50249253
|   |   |   |   |   |   |   solver <= 39942443
|   |   |   |   |   |   |   |   solver <= 36171345
|   |   |   |   |   |   |   |   |   solver <= 28257540
|   |   |   |   |   |   |   |   |   |   AbsoluteTrace <= 121.706: bad (1155.0)
|   |   |   |   |   |   |   |   |   |   AbsoluteTrace > 121.706
|   |   |   |   |   |   |   |   |   |   |   AbsoluteNonZeroSum <= 574.574: bad (263.0)
|   |   |   |   |   |   |   |   |   |   |   AbsoluteNonZeroSum > 574.574
|   |   |   |   |   |   |   |   |   |   |   |   AbsoluteNonZeroSum <= 733.4
|   |   |   |   |   |   |   |   |   |   |   |   |   Dimension <= 541: good (41.0)
|   |   |   |   |   |   |   |   |   |   |   |   |   Dimension > 541: bad (19.0/1.0)
|   |   |   |   |   |   |   |   |   |   |   |   AbsoluteNonZeroSum > 733.4
|   |   |   |   |   |   |   |   |   |   |   |   |   solver <= 22938024
|   |   |   |   |   |   |   |   |   |   |   |   |   |   solver <= 20321736
|   |   |   |   |   |   |   |   |   |   |   |   |   |   |   Dimension <= 1020
|   |   |   |   |   |   |   |   |   |   |   |   |   |   |   |   AbsoluteNonZeroSum <= 63805
|   |   |   |   |   |   |   |   |   |   |   |   |   |   |   |   |   FrobeniusNorm <= 229.725
|   |   |   |   |   |   |   |   |   |   |   |   |   |   |   |   |   |   AbsoluteTrace <= 413.293: bad (7.0)
|   |   |   |   |   |   |   |   |   |   |   |   |   |   |   |   |   |   AbsoluteTrace > 413.293: good (6.0)
|   |   |   |   |   |   |   |   |   |   |   |   |   |   |   |   |   FrobeniusNorm > 229.725: bad (221.0/12.0)
|   |   |   |   |   |   |   |   |   |   |   |   |   |   |   |   AbsoluteNonZeroSum > 63805
|   |   |   |   |   |   |   |   |   |   |   |   |   |   |   |   |   AbsoluteNonZeroSum <= 122281: good (18.0/2.0)
|   |   |   |   |   |   |   |   |   |   |   |   |   |   |   |   |   AbsoluteNonZeroSum > 122281
|   |   |   |   |   |   |   |   |   |   |   |   |   |   |   |   |   |   Dimension <= 700
|   |   |   |   |   |   |   |   |   |   |   |   |   |   |   |   |   |   |   Dimension <= 666: bad (233.0/38.0)
|   |   |   |   |   |   |   |   |   |   |   |   |   |   |   |   |   |   |   Dimension > 666
|   |   |   |   |   |   |   |   |   |   |   |   |   |   |   |   |   |   |   |   AbsoluteTrace <= 1497860: bad (6.0)
|   |   |   |   |   |   |   |   |   |   |   |   |   |   |   |   |   |   |   |   AbsoluteTrace > 1497860: good (14.0/2.0)
|   |   |   |   |   |   |   |   |   |   |   |   |   |   |   |   |   |   Dimension > 700: bad (74.0)
|   |   |   |   |   |   |   |   |   |   |   |   |   |   |   Dimension > 1020
|   |   |   |   |   |   |   |   |   |   |   |   |   |   |   |   AbsoluteNonZeroSum <= 3999.6
|   |   |   |   |   |   |   |   |   |   |   |   |   |   |   |   |   DiagonalMean <= 0.426889: bad (45.0)
|   |   |   |   |   |   |   |   |   |   |   |   |   |   |   |   |   DiagonalMean > 0.426889: good (7.0)
|   |   |   |   |   |   |   |   |   |   |   |   |   |   |   |   AbsoluteNonZeroSum > 3999.6
|   |   |   |   |   |   |   |   |   |   |   |   |   |   |   |   |   Trace <= 11141500: bad (389.0)
|   |   |   |   |   |   |   |   |   |   |   |   |   |   |   |   |   Trace > 11141500
|   |   |   |   |   |   |   |   |   |   |   |   |   |   |   |   |   |   AbsoluteTrace <= 75026200: good (7.0/1.0)
|   |   |   |   |   |   |   |   |   |   |   |   |   |   |   |   |   |   AbsoluteTrace > 75026200: bad (79.0/1.0)
|   |   |   |   |   |   |   |   |   |   |   |   |   |   solver > 20321736
|   |   |   |   |   |   |   |   |   |   |   |   |   |   |   Dimension <= 1015
|   |   |   |   |   |   |   |   |   |   |   |   |   |   |   |   Dimension <= 900
|   |   |   |   |   |   |   |   |   |   |   |   |   |   |   |   |   Trace <= 137.723
|   |   |   |   |   |   |   |   |   |   |   |   |   |   |   |   |   |   FrobeniusNorm <= 13121.4: good (61.0/17.0)
|   |   |   |   |   |   |   |   |   |   |   |   |   |   |   |   |   |   FrobeniusNorm > 13121.4
|   |   |   |   |   |   |   |   |   |   |   |   |   |   |   |   |   |   |   AbsoluteNonZeroSum <= 141458: bad (20.0)
|   |   |   |   |   |   |   |   |   |   |   |   |   |   |   |   |   |   |   AbsoluteNonZeroSum > 141458
|   |   |   |   |   |   |   |   |   |   |   |   |   |   |   |   |   |   |   |   solver <= 22355199
|   |   |   |   |   |   |   |   |   |   |   |   |   |   |   |   |   |   |   |   |   DiagonalMean <= -343.467
|   |   |   |   |   |   |   |   |   |   |   |   |   |   |   |   |   |   |   |   |   |   AbsoluteTrace <= 363739000: bad (35.0)
|   |   |   |   |   |   |   |   |   |   |   |   |   |   |   |   |   |   |   |   |   |   AbsoluteTrace > 363739000
|   |   |   |   |   |   |   |   |   |   |   |   |   |   |   |   |   |   |   |   |   |   |   AbsoluteTrace <= 2.64895E17
|   |   |   |   |   |   |   |   |   |   |   |   |   |   |   |   |   |   |   |   |   |   |   |   solver <= 21591612: bad (2.0)
|   |   |   |   |   |   |   |   |   |   |   |   |   |   |   |   |   |   |   |   |   |   |   |   solver > 21591612: good (5.0)
|   |   |   |   |   |   |   |   |   |   |   |   |   |   |   |   |   |   |   |   |   |   |   AbsoluteTrace > 2.64895E17
|   |   |   |   |   |   |   |   |   |   |   |   |   |   |   |   |   |   |   |   |   |   |   |   solver <= 21591612: good (2.0)
|   |   |   |   |   |   |   |   |   |   |   |   |   |   |   |   |   |   |   |   |   |   |   |   solver > 21591612: bad (7.0)
|   |   |   |   |   |   |   |   |   |   |   |   |   |   |   |   |   |   |   |   |   DiagonalMean > -343.467
|   |   |   |   |   |   |   |   |   |   |   |   |   |   |   |   |   |   |   |   |   |   AbsoluteNonZeroSum <= 4901400: good (6.0)
|   |   |   |   |   |   |   |   |   |   |   |   |   |   |   |   |   |   |   |   |   |   AbsoluteNonZeroSum > 4901400: bad (3.0)
|   |   |   |   |   |   |   |   |   |   |   |   |   |   |   |   |   |   |   |   solver > 22355199
|   |   |   |   |   |   |   |   |   |   |   |   |   |   |   |   |   |   |   |   |   FrobeniusNorm <= 2453890: good (22.0/2.0)
|   |   |   |   |   |   |   |   |   |   |   |   |   |   |   |   |   |   |   |   |   FrobeniusNorm > 2453890
|   |   |   |   |   |   |   |   |   |   |   |   |   |   |   |   |   |   |   |   |   |   DiagonalMean <= -1639680: good (15.0/2.0)
|   |   |   |   |   |   |   |   |   |   |   |   |   |   |   |   |   |   |   |   |   |   DiagonalMean > -1639680: bad (21.0/1.0)
|   |   |   |   |   |   |   |   |   |   |   |   |   |   |   |   |   Trace > 137.723
|   |   |   |   |   |   |   |   |   |   |   |   |   |   |   |   |   |   Dimension <= 37
|   |   |   |   |   |   |   |   |   |   |   |   |   |   |   |   |   |   |   Dimension <= 19
|   |   |   |   |   |   |   |   |   |   |   |   |   |   |   |   |   |   |   |   solver <= 21591613: bad (7.0)
|   |   |   |   |   |   |   |   |   |   |   |   |   |   |   |   |   |   |   |   solver > 21591613
|   |   |   |   |   |   |   |   |   |   |   |   |   |   |   |   |   |   |   |   |   solver <= 21591615: good (8.0)
|   |   |   |   |   |   |   |   |   |   |   |   |   |   |   |   |   |   |   |   |   solver > 21591615
|   |   |   |   |   |   |   |   |   |   |   |   |   |   |   |   |   |   |   |   |   |   Dimension <= 14
|   |   |   |   |   |   |   |   |   |   |   |   |   |   |   |   |   |   |   |   |   |   |   solver <= 22938021: good (2.0)
|   |   |   |   |   |   |   |   |   |   |   |   |   |   |   |   |   |   |   |   |   |   |   solver > 22938021: bad (5.0)
|   |   |   |   |   |   |   |   |   |   |   |   |   |   |   |   |   |   |   |   |   |   Dimension > 14
|   |   |   |   |   |   |   |   |   |   |   |   |   |   |   |   |   |   |   |   |   |   |   solver <= 22938022: bad (3.0)
|   |   |   |   |   |   |   |   |   |   |   |   |   |   |   |   |   |   |   |   |   |   |   solver > 22938022: good (3.0)
|   |   |   |   |   |   |   |   |   |   |   |   |   |   |   |   |   |   |   Dimension > 19: good (7.0/1.0)
|   |   |   |   |   |   |   |   |   |   |   |   |   |   |   |   |   |   Dimension > 37
|   |   |   |   |   |   |   |   |   |   |   |   |   |   |   |   |   |   |   FrobeniusNorm <= 33032100
|   |   |   |   |   |   |   |   |   |   |   |   |   |   |   |   |   |   |   |   DiagonalMean <= 568.873
|   |   |   |   |   |   |   |   |   |   |   |   |   |   |   |   |   |   |   |   |   DiagonalMean <= 3.44775
|   |   |   |   |   |   |   |   |   |   |   |   |   |   |   |   |   |   |   |   |   |   solver <= 22355199: bad (31.0/2.0)
|   |   |   |   |   |   |   |   |   |   |   |   |   |   |   |   |   |   |   |   |   |   solver > 22355199
|   |   |   |   |   |   |   |   |   |   |   |   |   |   |   |   |   |   |   |   |   |   |   AbsoluteTrace <= 760.6: bad (21.0/3.0)
|   |   |   |   |   |   |   |   |   |   |   |   |   |   |   |   |   |   |   |   |   |   |   AbsoluteTrace > 760.6: good (11.0)
|   |   |   |   |   |   |   |   |   |   |   |   |   |   |   |   |   |   |   |   |   DiagonalMean > 3.44775: bad (112.0/10.0)
|   |   |   |   |   |   |   |   |   |   |   |   |   |   |   |   |   |   |   |   DiagonalMean > 568.873
|   |   |   |   |   |   |   |   |   |   |   |   |   |   |   |   |   |   |   |   |   DiagonalMean <= 986.679: good (30.0/5.0)
|   |   |   |   |   |   |   |   |   |   |   |   |   |   |   |   |   |   |   |   |   DiagonalMean > 986.679: bad (60.0/18.0)
|   |   |   |   |   |   |   |   |   |   |   |   |   |   |   |   |   |   |   FrobeniusNorm > 33032100
|   |   |   |   |   |   |   |   |   |   |   |   |   |   |   |   |   |   |   |   DiagonalMean <= 458844000: bad (118.0/1.0)
|   |   |   |   |   |   |   |   |   |   |   |   |   |   |   |   |   |   |   |   DiagonalMean > 458844000
|   |   |   |   |   |   |   |   |   |   |   |   |   |   |   |   |   |   |   |   |   solver <= 21591615
|   |   |   |   |   |   |   |   |   |   |   |   |   |   |   |   |   |   |   |   |   |   AbsoluteTrace <= 33573500000: bad (3.0)
|   |   |   |   |   |   |   |   |   |   |   |   |   |   |   |   |   |   |   |   |   |   AbsoluteTrace > 33573500000
|   |   |   |   |   |   |   |   |   |   |   |   |   |   |   |   |   |   |   |   |   |   |   AbsoluteTrace <= 4.19863E15: good (15.0/2.0)
|   |   |   |   |   |   |   |   |   |   |   |   |   |   |   |   |   |   |   |   |   |   |   AbsoluteTrace > 4.19863E15: bad (4.0/1.0)
|   |   |   |   |   |   |   |   |   |   |   |   |   |   |   |   |   |   |   |   |   solver > 21591615: bad (22.0/3.0)
|   |   |   |   |   |   |   |   |   |   |   |   |   |   |   |   Dimension > 900
|   |   |   |   |   |   |   |   |   |   |   |   |   |   |   |   |   Trace <= -262.484
|   |   |   |   |   |   |   |   |   |   |   |   |   |   |   |   |   |   solver <= 22938021: bad (15.0)
|   |   |   |   |   |   |   |   |   |   |   |   |   |   |   |   |   |   solver > 22938021
|   |   |   |   |   |   |   |   |   |   |   |   |   |   |   |   |   |   |   AbsoluteTrace <= 1385310: bad (3.0)
|   |   |   |   |   |   |   |   |   |   |   |   |   |   |   |   |   |   |   AbsoluteTrace > 1385310: good (4.0/1.0)
|   |   |   |   |   |   |   |   |   |   |   |   |   |   |   |   |   Trace > -262.484
|   |   |   |   |   |   |   |   |   |   |   |   |   |   |   |   |   |   Dimension <= 961
|   |   |   |   |   |   |   |   |   |   |   |   |   |   |   |   |   |   |   solver <= 21591613
|   |   |   |   |   |   |   |   |   |   |   |   |   |   |   |   |   |   |   |   AbsoluteNonZeroSum <= 8534.51: bad (6.0)
|   |   |   |   |   |   |   |   |   |   |   |   |   |   |   |   |   |   |   |   AbsoluteNonZeroSum > 8534.51: good (7.0/1.0)
|   |   |   |   |   |   |   |   |   |   |   |   |   |   |   |   |   |   |   solver > 21591613: good (36.0/8.0)
|   |   |   |   |   |   |   |   |   |   |   |   |   |   |   |   |   |   Dimension > 961: good (7.0)
|   |   |   |   |   |   |   |   |   |   |   |   |   |   |   Dimension > 1015
|   |   |   |   |   |   |   |   |   |   |   |   |   |   |   |   AbsoluteTrace <= 246.522
|   |   |   |   |   |   |   |   |   |   |   |   |   |   |   |   |   AbsoluteTrace <= 214.208: bad (10.0)
|   |   |   |   |   |   |   |   |   |   |   |   |   |   |   |   |   AbsoluteTrace > 214.208
|   |   |   |   |   |   |   |   |   |   |   |   |   |   |   |   |   |   solver <= 22938022
|   |   |   |   |   |   |   |   |   |   |   |   |   |   |   |   |   |   |   solver <= 21591612: good (8.0)
|   |   |   |   |   |   |   |   |   |   |   |   |   |   |   |   |   |   |   solver > 21591612
|   |   |   |   |   |   |   |   |   |   |   |   |   |   |   |   |   |   |   |   solver <= 21591615
|   |   |   |   |   |   |   |   |   |   |   |   |   |   |   |   |   |   |   |   |   solver <= 21591613
|   |   |   |   |   |   |   |   |   |   |   |   |   |   |   |   |   |   |   |   |   |   AbsoluteNonZeroSum <= 1344660: good (4.0)
|   |   |   |   |   |   |   |   |   |   |   |   |   |   |   |   |   |   |   |   |   |   AbsoluteNonZeroSum > 1344660: bad (3.0/1.0)
|   |   |   |   |   |   |   |   |   |   |   |   |   |   |   |   |   |   |   |   |   solver > 21591613: bad (13.0/1.0)
|   |   |   |   |   |   |   |   |   |   |   |   |   |   |   |   |   |   |   |   solver > 21591615: good (13.0/1.0)
|   |   |   |   |   |   |   |   |   |   |   |   |   |   |   |   |   |   solver > 22938022: bad (12.0)
|   |   |   |   |   |   |   |   |   |   |   |   |   |   |   |   AbsoluteTrace > 246.522
|   |   |   |   |   |   |   |   |   |   |   |   |   |   |   |   |   Dimension <= 1220: bad (98.0/1.0)
|   |   |   |   |   |   |   |   |   |   |   |   |   |   |   |   |   Dimension > 1220
|   |   |   |   |   |   |   |   |   |   |   |   |   |   |   |   |   |   Dimension <= 1268
|   |   |   |   |   |   |   |   |   |   |   |   |   |   |   |   |   |   |   AbsoluteTrace <= 867945000
|   |   |   |   |   |   |   |   |   |   |   |   |   |   |   |   |   |   |   |   Trace <= -58218.3
|   |   |   |   |   |   |   |   |   |   |   |   |   |   |   |   |   |   |   |   |   solver <= 21591615: bad (6.0)
|   |   |   |   |   |   |   |   |   |   |   |   |   |   |   |   |   |   |   |   |   solver > 21591615: good (7.0)
|   |   |   |   |   |   |   |   |   |   |   |   |   |   |   |   |   |   |   |   Trace > -58218.3: good (13.0/2.0)
|   |   |   |   |   |   |   |   |   |   |   |   |   |   |   |   |   |   |   AbsoluteTrace > 867945000: bad (7.0/1.0)
|   |   |   |   |   |   |   |   |   |   |   |   |   |   |   |   |   |   Dimension > 1268
|   |   |   |   |   |   |   |   |   |   |   |   |   |   |   |   |   |   |   FrobeniusNorm <= 16606.6
|   |   |   |   |   |   |   |   |   |   |   |   |   |   |   |   |   |   |   |   FrobeniusNorm <= 975.82
|   |   |   |   |   |   |   |   |   |   |   |   |   |   |   |   |   |   |   |   |   DiagonalMean <= 0.220769
|   |   |   |   |   |   |   |   |   |   |   |   |   |   |   |   |   |   |   |   |   |   solver <= 22938022: bad (28.0/3.0)
|   |   |   |   |   |   |   |   |   |   |   |   |   |   |   |   |   |   |   |   |   |   solver > 22938022
|   |   |   |   |   |   |   |   |   |   |   |   |   |   |   |   |   |   |   |   |   |   |   DiagonalMean <= -0.473053: good (4.0)
|   |   |   |   |   |   |   |   |   |   |   |   |   |   |   |   |   |   |   |   |   |   |   DiagonalMean > -0.473053: bad (5.0/1.0)
|   |   |   |   |   |   |   |   |   |   |   |   |   |   |   |   |   |   |   |   |   DiagonalMean > 0.220769
|   |   |   |   |   |   |   |   |   |   |   |   |   |   |   |   |   |   |   |   |   |   AbsoluteTrace <= 1306.49
|   |   |   |   |   |   |   |   |   |   |   |   |   |   |   |   |   |   |   |   |   |   |   solver <= 21591615: good (3.0)
|   |   |   |   |   |   |   |   |   |   |   |   |   |   |   |   |   |   |   |   |   |   |   solver > 21591615: bad (2.0)
|   |   |   |   |   |   |   |   |   |   |   |   |   |   |   |   |   |   |   |   |   |   AbsoluteTrace > 1306.49: good (5.0/1.0)
|   |   |   |   |   |   |   |   |   |   |   |   |   |   |   |   |   |   |   |   FrobeniusNorm > 975.82
|   |   |   |   |   |   |   |   |   |   |   |   |   |   |   |   |   |   |   |   |   solver <= 21591612
|   |   |   |   |   |   |   |   |   |   |   |   |   |   |   |   |   |   |   |   |   |   AbsoluteTrace <= 3609.38
|   |   |   |   |   |   |   |   |   |   |   |   |   |   |   |   |   |   |   |   |   |   |   DiagonalMean <= 0.029063: bad (5.0)
|   |   |   |   |   |   |   |   |   |   |   |   |   |   |   |   |   |   |   |   |   |   |   DiagonalMean > 0.029063: good (4.0)
|   |   |   |   |   |   |   |   |   |   |   |   |   |   |   |   |   |   |   |   |   |   AbsoluteTrace > 3609.38: bad (28.0)
|   |   |   |   |   |   |   |   |   |   |   |   |   |   |   |   |   |   |   |   |   solver > 21591612: bad (273.0/4.0)
|   |   |   |   |   |   |   |   |   |   |   |   |   |   |   |   |   |   |   FrobeniusNorm > 16606.6
|   |   |   |   |   |   |   |   |   |   |   |   |   |   |   |   |   |   |   |   solver <= 21591612
|   |   |   |   |   |   |   |   |   |   |   |   |   |   |   |   |   |   |   |   |   Trace <= -67879.7: bad (7.0)
|   |   |   |   |   |   |   |   |   |   |   |   |   |   |   |   |   |   |   |   |   Trace > -67879.7: good (23.0/10.0)
|   |   |   |   |   |   |   |   |   |   |   |   |   |   |   |   |   |   |   |   solver > 21591612
|   |   |   |   |   |   |   |   |   |   |   |   |   |   |   |   |   |   |   |   |   solver <= 22355199: bad (117.0/11.0)
|   |   |   |   |   |   |   |   |   |   |   |   |   |   |   |   |   |   |   |   |   solver > 22355199
|   |   |   |   |   |   |   |   |   |   |   |   |   |   |   |   |   |   |   |   |   |   Trace <= -67879.7
|   |   |   |   |   |   |   |   |   |   |   |   |   |   |   |   |   |   |   |   |   |   |   FrobeniusNorm <= 596487000
|   |   |   |   |   |   |   |   |   |   |   |   |   |   |   |   |   |   |   |   |   |   |   |   AbsoluteNonZeroSum <= 139302: bad (2.0)
|   |   |   |   |   |   |   |   |   |   |   |   |   |   |   |   |   |   |   |   |   |   |   |   AbsoluteNonZeroSum > 139302: good (15.0)
|   |   |   |   |   |   |   |   |   |   |   |   |   |   |   |   |   |   |   |   |   |   |   FrobeniusNorm > 596487000: bad (9.0)
|   |   |   |   |   |   |   |   |   |   |   |   |   |   |   |   |   |   |   |   |   |   Trace > -67879.7
|   |   |   |   |   |   |   |   |   |   |   |   |   |   |   |   |   |   |   |   |   |   |   solver <= 22938021
|   |   |   |   |   |   |   |   |   |   |   |   |   |   |   |   |   |   |   |   |   |   |   |   AbsoluteNonZeroSum <= 300820: good (9.0/2.0)
|   |   |   |   |   |   |   |   |   |   |   |   |   |   |   |   |   |   |   |   |   |   |   |   AbsoluteNonZeroSum > 300820: bad (18.0/2.0)
|   |   |   |   |   |   |   |   |   |   |   |   |   |   |   |   |   |   |   |   |   |   |   solver > 22938021: bad (76.0/7.0)
|   |   |   |   |   |   |   |   |   |   |   |   |   solver > 22938024: bad (1146.0/69.0)
|   |   |   |   |   |   |   |   |   solver > 28257540
|   |   |   |   |   |   |   |   |   |   solver <= 30523628
|   |   |   |   |   |   |   |   |   |   |   AbsoluteTrace <= 165.75
|   |   |   |   |   |   |   |   |   |   |   |   AbsoluteNonZeroSum <= 979828000: good (405.0/28.0)
|   |   |   |   |   |   |   |   |   |   |   |   AbsoluteNonZeroSum > 979828000
|   |   |   |   |   |   |   |   |   |   |   |   |   AbsoluteTrace <= 121.706
|   |   |   |   |   |   |   |   |   |   |   |   |   |   solver <= 30523626
|   |   |   |   |   |   |   |   |   |   |   |   |   |   |   AbsoluteTrace <= 38.102: good (7.0/3.0)
|   |   |   |   |   |   |   |   |   |   |   |   |   |   |   AbsoluteTrace > 38.102: bad (2.0)
|   |   |   |   |   |   |   |   |   |   |   |   |   |   solver > 30523626: good (10.0/1.0)
|   |   |   |   |   |   |   |   |   |   |   |   |   AbsoluteTrace > 121.706: bad (3.0)
|   |   |   |   |   |   |   |   |   |   |   AbsoluteTrace > 165.75
|   |   |   |   |   |   |   |   |   |   |   |   Trace <= 42933700
|   |   |   |   |   |   |   |   |   |   |   |   |   Dimension <= 4182
|   |   |   |   |   |   |   |   |   |   |   |   |   |   Dimension <= 2624
|   |   |   |   |   |   |   |   |   |   |   |   |   |   |   solver <= 30523627
|   |   |   |   |   |   |   |   |   |   |   |   |   |   |   |   AbsoluteTrace <= 699.349
|   |   |   |   |   |   |   |   |   |   |   |   |   |   |   |   |   solver <= 30523625
|   |   |   |   |   |   |   |   |   |   |   |   |   |   |   |   |   |   DiagonalMean <= 0.323904: bad (27.0/2.0)
|   |   |   |   |   |   |   |   |   |   |   |   |   |   |   |   |   |   DiagonalMean > 0.323904: good (12.0/3.0)
|   |   |   |   |   |   |   |   |   |   |   |   |   |   |   |   |   solver > 30523625
|   |   |   |   |   |   |   |   |   |   |   |   |   |   |   |   |   |   Dimension <= 822
|   |   |   |   |   |   |   |   |   |   |   |   |   |   |   |   |   |   |   DiagonalMean <= 0.96: bad (9.0/2.0)
|   |   |   |   |   |   |   |   |   |   |   |   |   |   |   |   |   |   |   DiagonalMean > 0.96
|   |   |   |   |   |   |   |   |   |   |   |   |   |   |   |   |   |   |   |   AbsoluteTrace <= 222.425: bad (3.0/1.0)
|   |   |   |   |   |   |   |   |   |   |   |   |   |   |   |   |   |   |   |   AbsoluteTrace > 222.425: good (10.0)
|   |   |   |   |   |   |   |   |   |   |   |   |   |   |   |   |   |   Dimension > 822: good (50.0/4.0)
|   |   |   |   |   |   |   |   |   |   |   |   |   |   |   |   AbsoluteTrace > 699.349
|   |   |   |   |   |   |   |   |   |   |   |   |   |   |   |   |   Trace <= 23376500
|   |   |   |   |   |   |   |   |   |   |   |   |   |   |   |   |   |   AbsoluteNonZeroSum <= 8534.51
|   |   |   |   |   |   |   |   |   |   |   |   |   |   |   |   |   |   |   AbsoluteNonZeroSum <= 2245.84
|   |   |   |   |   |   |   |   |   |   |   |   |   |   |   |   |   |   |   |   AbsoluteTrace <= 835.2: bad (3.0)
|   |   |   |   |   |   |   |   |   |   |   |   |   |   |   |   |   |   |   |   AbsoluteTrace > 835.2: good (6.0/2.0)
|   |   |   |   |   |   |   |   |   |   |   |   |   |   |   |   |   |   |   AbsoluteNonZeroSum > 2245.84: bad (45.0/1.0)
|   |   |   |   |   |   |   |   |   |   |   |   |   |   |   |   |   |   AbsoluteNonZeroSum > 8534.51
|   |   |   |   |   |   |   |   |   |   |   |   |   |   |   |   |   |   |   DiagonalMean <= -400.406
|   |   |   |   |   |   |   |   |   |   |   |   |   |   |   |   |   |   |   |   FrobeniusNorm <= 504982000: bad (41.0)
|   |   |   |   |   |   |   |   |   |   |   |   |   |   |   |   |   |   |   |   FrobeniusNorm > 504982000
|   |   |   |   |   |   |   |   |   |   |   |   |   |   |   |   |   |   |   |   |   AbsoluteTrace <= 2.64895E17
|   |   |   |   |   |   |   |   |   |   |   |   |   |   |   |   |   |   |   |   |   |   solver <= 30523626: good (9.0/1.0)
|   |   |   |   |   |   |   |   |   |   |   |   |   |   |   |   |   |   |   |   |   |   solver > 30523626
|   |   |   |   |   |   |   |   |   |   |   |   |   |   |   |   |   |   |   |   |   |   |   AbsoluteTrace <= 293107000: bad (2.0)
|   |   |   |   |   |   |   |   |   |   |   |   |   |   |   |   |   |   |   |   |   |   |   AbsoluteTrace > 293107000: good (3.0/1.0)
|   |   |   |   |   |   |   |   |   |   |   |   |   |   |   |   |   |   |   |   |   AbsoluteTrace > 2.64895E17: bad (5.0)
|   |   |   |   |   |   |   |   |   |   |   |   |   |   |   |   |   |   |   DiagonalMean > -400.406
|   |   |   |   |   |   |   |   |   |   |   |   |   |   |   |   |   |   |   |   solver <= 30523626
|   |   |   |   |   |   |   |   |   |   |   |   |   |   |   |   |   |   |   |   |   FrobeniusNorm <= 5336.38: bad (32.0/2.0)
|   |   |   |   |   |   |   |   |   |   |   |   |   |   |   |   |   |   |   |   |   FrobeniusNorm > 5336.38
|   |   |   |   |   |   |   |   |   |   |   |   |   |   |   |   |   |   |   |   |   |   Trace <= 1968550
|   |   |   |   |   |   |   |   |   |   |   |   |   |   |   |   |   |   |   |   |   |   |   AbsoluteNonZeroSum <= 100250000
|   |   |   |   |   |   |   |   |   |   |   |   |   |   |   |   |   |   |   |   |   |   |   |   Dimension <= 512: good (29.0/11.0)
|   |   |   |   |   |   |   |   |   |   |   |   |   |   |   |   |   |   |   |   |   |   |   |   Dimension > 512
|   |   |   |   |   |   |   |   |   |   |   |   |   |   |   |   |   |   |   |   |   |   |   |   |   solver <= 30523625
|   |   |   |   |   |   |   |   |   |   |   |   |   |   |   |   |   |   |   |   |   |   |   |   |   |   AbsoluteTrace <= 40171.4
|   |   |   |   |   |   |   |   |   |   |   |   |   |   |   |   |   |   |   |   |   |   |   |   |   |   |   Trace <= 12723.3: bad (4.0/1.0)
|   |   |   |   |   |   |   |   |   |   |   |   |   |   |   |   |   |   |   |   |   |   |   |   |   |   |   Trace > 12723.3: good (2.0)
|   |   |   |   |   |   |   |   |   |   |   |   |   |   |   |   |   |   |   |   |   |   |   |   |   |   AbsoluteTrace > 40171.4: bad (10.0)
|   |   |   |   |   |   |   |   |   |   |   |   |   |   |   |   |   |   |   |   |   |   |   |   |   solver > 30523625
|   |   |   |   |   |   |   |   |   |   |   |   |   |   |   |   |   |   |   |   |   |   |   |   |   |   AbsoluteTrace <= 1039050
|   |   |   |   |   |   |   |   |   |   |   |   |   |   |   |   |   |   |   |   |   |   |   |   |   |   |   AbsoluteTrace <= 14570.7: good (3.0/1.0)
|   |   |   |   |   |   |   |   |   |   |   |   |   |   |   |   |   |   |   |   |   |   |   |   |   |   |   AbsoluteTrace > 14570.7: bad (8.0)
|   |   |   |   |   |   |   |   |   |   |   |   |   |   |   |   |   |   |   |   |   |   |   |   |   |   AbsoluteTrace > 1039050: good (2.0)
|   |   |   |   |   |   |   |   |   |   |   |   |   |   |   |   |   |   |   |   |   |   |   AbsoluteNonZeroSum > 100250000: good (6.0)
|   |   |   |   |   |   |   |   |   |   |   |   |   |   |   |   |   |   |   |   |   |   Trace > 1968550: bad (7.0)
|   |   |   |   |   |   |   |   |   |   |   |   |   |   |   |   |   |   |   |   solver > 30523626
|   |   |   |   |   |   |   |   |   |   |   |   |   |   |   |   |   |   |   |   |   AbsoluteTrace <= 7642.78
|   |   |   |   |   |   |   |   |   |   |   |   |   |   |   |   |   |   |   |   |   |   DiagonalMean <= 3.75586: good (14.0)
|   |   |   |   |   |   |   |   |   |   |   |   |   |   |   |   |   |   |   |   |   |   DiagonalMean > 3.75586: bad (4.0/1.0)
|   |   |   |   |   |   |   |   |   |   |   |   |   |   |   |   |   |   |   |   |   AbsoluteTrace > 7642.78: bad (39.0/15.0)
|   |   |   |   |   |   |   |   |   |   |   |   |   |   |   |   |   Trace > 23376500: good (19.0/3.0)
|   |   |   |   |   |   |   |   |   |   |   |   |   |   |   solver > 30523627: bad (144.0/30.0)
|   |   |   |   |   |   |   |   |   |   |   |   |   |   Dimension > 2624
|   |   |   |   |   |   |   |   |   |   |   |   |   |   |   Dimension <= 2880: good (51.0)
|   |   |   |   |   |   |   |   |   |   |   |   |   |   |   Dimension > 2880
|   |   |   |   |   |   |   |   |   |   |   |   |   |   |   |   Dimension <= 4000
|   |   |   |   |   |   |   |   |   |   |   |   |   |   |   |   |   DiagonalMean <= 0.96
|   |   |   |   |   |   |   |   |   |   |   |   |   |   |   |   |   |   DiagonalMean <= 0.314604
|   |   |   |   |   |   |   |   |   |   |   |   |   |   |   |   |   |   |   AbsoluteNonZeroSum <= 5239.94: bad (11.0)
|   |   |   |   |   |   |   |   |   |   |   |   |   |   |   |   |   |   |   AbsoluteNonZeroSum > 5239.94
|   |   |   |   |   |   |   |   |   |   |   |   |   |   |   |   |   |   |   |   Dimension <= 3198: good (6.0)
|   |   |   |   |   |   |   |   |   |   |   |   |   |   |   |   |   |   |   |   Dimension > 3198: bad (14.0/3.0)
|   |   |   |   |   |   |   |   |   |   |   |   |   |   |   |   |   |   DiagonalMean > 0.314604: good (9.0)
|   |   |   |   |   |   |   |   |   |   |   |   |   |   |   |   |   DiagonalMean > 0.96: bad (27.0/1.0)
|   |   |   |   |   |   |   |   |   |   |   |   |   |   |   |   Dimension > 4000
|   |   |   |   |   |   |   |   |   |   |   |   |   |   |   |   |   AbsoluteTrace <= 26451.6: good (15.0)
|   |   |   |   |   |   |   |   |   |   |   |   |   |   |   |   |   AbsoluteTrace > 26451.6: bad (2.0)
|   |   |   |   |   |   |   |   |   |   |   |   |   Dimension > 4182
|   |   |   |   |   |   |   |   |   |   |   |   |   |   Trace <= 11819: bad (43.0)
|   |   |   |   |   |   |   |   |   |   |   |   |   |   Trace > 11819
|   |   |   |   |   |   |   |   |   |   |   |   |   |   |   solver <= 30523626
|   |   |   |   |   |   |   |   |   |   |   |   |   |   |   |   Dimension <= 4598: bad (18.0)
|   |   |   |   |   |   |   |   |   |   |   |   |   |   |   |   Dimension > 4598
|   |   |   |   |   |   |   |   |   |   |   |   |   |   |   |   |   AbsoluteTrace <= 73176.4: good (2.0)
|   |   |   |   |   |   |   |   |   |   |   |   |   |   |   |   |   AbsoluteTrace > 73176.4: bad (2.0)
|   |   |   |   |   |   |   |   |   |   |   |   |   |   |   solver > 30523626
|   |   |   |   |   |   |   |   |   |   |   |   |   |   |   |   solver <= 30523627
|   |   |   |   |   |   |   |   |   |   |   |   |   |   |   |   |   Dimension <= 4720: good (11.0)
|   |   |   |   |   |   |   |   |   |   |   |   |   |   |   |   |   Dimension > 4720: bad (2.0)
|   |   |   |   |   |   |   |   |   |   |   |   |   |   |   |   solver > 30523627: bad (12.0/1.0)
|   |   |   |   |   |   |   |   |   |   |   |   Trace > 42933700
|   |   |   |   |   |   |   |   |   |   |   |   |   AbsoluteNonZeroSum <= 2.63063E14: bad (78.0)
|   |   |   |   |   |   |   |   |   |   |   |   |   AbsoluteNonZeroSum > 2.63063E14
|   |   |   |   |   |   |   |   |   |   |   |   |   |   AbsoluteTrace <= 2.64895E15: good (3.0)
|   |   |   |   |   |   |   |   |   |   |   |   |   |   AbsoluteTrace > 2.64895E15: bad (5.0)
|   |   |   |   |   |   |   |   |   |   solver > 30523628
|   |   |   |   |   |   |   |   |   |   |   DiagonalMean <= 399.925
|   |   |   |   |   |   |   |   |   |   |   |   Dimension <= 240
|   |   |   |   |   |   |   |   |   |   |   |   |   DiagonalMean <= 0.856841
|   |   |   |   |   |   |   |   |   |   |   |   |   |   Trace <= -414902000
|   |   |   |   |   |   |   |   |   |   |   |   |   |   |   AbsoluteTrace <= 2.82645E18
|   |   |   |   |   |   |   |   |   |   |   |   |   |   |   |   solver <= 30870723: good (6.0)
|   |   |   |   |   |   |   |   |   |   |   |   |   |   |   |   solver > 30870723
|   |   |   |   |   |   |   |   |   |   |   |   |   |   |   |   |   AbsoluteTrace <= 33573500000
|   |   |   |   |   |   |   |   |   |   |   |   |   |   |   |   |   |   solver <= 32110531: good (3.0)
|   |   |   |   |   |   |   |   |   |   |   |   |   |   |   |   |   |   solver > 32110531: bad (4.0/1.0)
|   |   |   |   |   |   |   |   |   |   |   |   |   |   |   |   |   AbsoluteTrace > 33573500000: bad (6.0/2.0)
|   |   |   |   |   |   |   |   |   |   |   |   |   |   |   AbsoluteTrace > 2.82645E18: bad (10.0)
|   |   |   |   |   |   |   |   |   |   |   |   |   |   Trace > -414902000: bad (108.0)
|   |   |   |   |   |   |   |   |   |   |   |   |   DiagonalMean > 0.856841
|   |   |   |   |   |   |   |   |   |   |   |   |   |   AbsoluteNonZeroSum <= 1469.1: good (7.0/1.0)
|   |   |   |   |   |   |   |   |   |   |   |   |   |   AbsoluteNonZeroSum > 1469.1
|   |   |   |   |   |   |   |   |   |   |   |   |   |   |   Dimension <= 124: bad (13.0)
|   |   |   |   |   |   |   |   |   |   |   |   |   |   |   Dimension > 124: good (20.0/8.0)
|   |   |   |   |   |   |   |   |   |   |   |   Dimension > 240
|   |   |   |   |   |   |   |   |   |   |   |   |   AbsoluteTrace <= 222.373: bad (575.0)
|   |   |   |   |   |   |   |   |   |   |   |   |   AbsoluteTrace > 222.373
|   |   |   |   |   |   |   |   |   |   |   |   |   |   AbsoluteTrace <= 3841.51
|   |   |   |   |   |   |   |   |   |   |   |   |   |   |   Dimension <= 400: bad (77.0)
|   |   |   |   |   |   |   |   |   |   |   |   |   |   |   Dimension > 400
|   |   |   |   |   |   |   |   |   |   |   |   |   |   |   |   Dimension <= 1015
|   |   |   |   |   |   |   |   |   |   |   |   |   |   |   |   |   Dimension <= 961
|   |   |   |   |   |   |   |   |   |   |   |   |   |   |   |   |   |   AbsoluteNonZeroSum <= 8534.51
|   |   |   |   |   |   |   |   |   |   |   |   |   |   |   |   |   |   |   AbsoluteTrace <= 559.512: good (5.0/1.0)
|   |   |   |   |   |   |   |   |   |   |   |   |   |   |   |   |   |   |   AbsoluteTrace > 559.512: bad (77.0/1.0)
|   |   |   |   |   |   |   |   |   |   |   |   |   |   |   |   |   |   AbsoluteNonZeroSum > 8534.51
|   |   |   |   |   |   |   |   |   |   |   |   |   |   |   |   |   |   |   AbsoluteNonZeroSum <= 8694.05
|   |   |   |   |   |   |   |   |   |   |   |   |   |   |   |   |   |   |   |   solver <= 32110532: good (7.0/1.0)
|   |   |   |   |   |   |   |   |   |   |   |   |   |   |   |   |   |   |   |   solver > 32110532: bad (4.0/1.0)
|   |   |   |   |   |   |   |   |   |   |   |   |   |   |   |   |   |   |   AbsoluteNonZeroSum > 8694.05: bad (17.0/1.0)
|   |   |   |   |   |   |   |   |   |   |   |   |   |   |   |   |   Dimension > 961
|   |   |   |   |   |   |   |   |   |   |   |   |   |   |   |   |   |   AbsoluteTrace <= 835.2: good (5.0)
|   |   |   |   |   |   |   |   |   |   |   |   |   |   |   |   |   |   AbsoluteTrace > 835.2
|   |   |   |   |   |   |   |   |   |   |   |   |   |   |   |   |   |   |   AbsoluteTrace <= 2183.24: bad (3.0)
|   |   |   |   |   |   |   |   |   |   |   |   |   |   |   |   |   |   |   AbsoluteTrace > 2183.24
|   |   |   |   |   |   |   |   |   |   |   |   |   |   |   |   |   |   |   |   solver <= 32110532: good (6.0)
|   |   |   |   |   |   |   |   |   |   |   |   |   |   |   |   |   |   |   |   solver > 32110532: bad (3.0/1.0)
|   |   |   |   |   |   |   |   |   |   |   |   |   |   |   |   Dimension > 1015
|   |   |   |   |   |   |   |   |   |   |   |   |   |   |   |   |   Dimension <= 3432: bad (159.0)
|   |   |   |   |   |   |   |   |   |   |   |   |   |   |   |   |   Dimension > 3432
|   |   |   |   |   |   |   |   |   |   |   |   |   |   |   |   |   |   Dimension <= 3600
|   |   |   |   |   |   |   |   |   |   |   |   |   |   |   |   |   |   |   AbsoluteTrace <= 2146.6: good (6.0/1.0)
|   |   |   |   |   |   |   |   |   |   |   |   |   |   |   |   |   |   |   AbsoluteTrace > 2146.6: bad (2.0)
|   |   |   |   |   |   |   |   |   |   |   |   |   |   |   |   |   |   Dimension > 3600
|   |   |   |   |   |   |   |   |   |   |   |   |   |   |   |   |   |   |   solver <= 32110530: bad (61.0/1.0)
|   |   |   |   |   |   |   |   |   |   |   |   |   |   |   |   |   |   |   solver > 32110530
|   |   |   |   |   |   |   |   |   |   |   |   |   |   |   |   |   |   |   |   solver <= 33173731
|   |   |   |   |   |   |   |   |   |   |   |   |   |   |   |   |   |   |   |   |   solver <= 32110532
|   |   |   |   |   |   |   |   |   |   |   |   |   |   |   |   |   |   |   |   |   |   AbsoluteTrace <= 2183.24: bad (20.0)
|   |   |   |   |   |   |   |   |   |   |   |   |   |   |   |   |   |   |   |   |   |   AbsoluteTrace > 2183.24: good (2.0)
|   |   |   |   |   |   |   |   |   |   |   |   |   |   |   |   |   |   |   |   |   solver > 32110532
|   |   |   |   |   |   |   |   |   |   |   |   |   |   |   |   |   |   |   |   |   |   DiagonalMean <= 0.007447: bad (7.0)
|   |   |   |   |   |   |   |   |   |   |   |   |   |   |   |   |   |   |   |   |   |   DiagonalMean > 0.007447
|   |   |   |   |   |   |   |   |   |   |   |   |   |   |   |   |   |   |   |   |   |   |   solver <= 32197588
|   |   |   |   |   |   |   |   |   |   |   |   |   |   |   |   |   |   |   |   |   |   |   |   AbsoluteNonZeroSum <= 156984: good (5.0)
|   |   |   |   |   |   |   |   |   |   |   |   |   |   |   |   |   |   |   |   |   |   |   |   AbsoluteNonZeroSum > 156984: bad (4.0)
|   |   |   |   |   |   |   |   |   |   |   |   |   |   |   |   |   |   |   |   |   |   |   solver > 32197588
|   |   |   |   |   |   |   |   |   |   |   |   |   |   |   |   |   |   |   |   |   |   |   |   AbsoluteNonZeroSum <= 43752.8: bad (5.0)
|   |   |   |   |   |   |   |   |   |   |   |   |   |   |   |   |   |   |   |   |   |   |   |   AbsoluteNonZeroSum > 43752.8: good (6.0/1.0)
|   |   |   |   |   |   |   |   |   |   |   |   |   |   |   |   |   |   |   |   solver > 33173731: bad (28.0)
|   |   |   |   |   |   |   |   |   |   |   |   |   |   AbsoluteTrace > 3841.51: bad (724.0/7.0)
|   |   |   |   |   |   |   |   |   |   |   DiagonalMean > 399.925
|   |   |   |   |   |   |   |   |   |   |   |   DiagonalMean <= 50831.1
|   |   |   |   |   |   |   |   |   |   |   |   |   AbsoluteNonZeroSum <= 51354.9: bad (58.0/3.0)
|   |   |   |   |   |   |   |   |   |   |   |   |   AbsoluteNonZeroSum > 51354.9
|   |   |   |   |   |   |   |   |   |   |   |   |   |   DiagonalMean <= 768.459: good (44.0/5.0)
|   |   |   |   |   |   |   |   |   |   |   |   |   |   DiagonalMean > 768.459
|   |   |   |   |   |   |   |   |   |   |   |   |   |   |   AbsoluteNonZeroSum <= 607450: bad (33.0)
|   |   |   |   |   |   |   |   |   |   |   |   |   |   |   AbsoluteNonZeroSum > 607450
|   |   |   |   |   |   |   |   |   |   |   |   |   |   |   |   AbsoluteTrace <= 13872500
|   |   |   |   |   |   |   |   |   |   |   |   |   |   |   |   |   FrobeniusNorm <= 784148: good (46.0/13.0)
|   |   |   |   |   |   |   |   |   |   |   |   |   |   |   |   |   FrobeniusNorm > 784148: bad (41.0/4.0)
|   |   |   |   |   |   |   |   |   |   |   |   |   |   |   |   AbsoluteTrace > 13872500
|   |   |   |   |   |   |   |   |   |   |   |   |   |   |   |   |   AbsoluteTrace <= 26020800: good (9.0/1.0)
|   |   |   |   |   |   |   |   |   |   |   |   |   |   |   |   |   AbsoluteTrace > 26020800
|   |   |   |   |   |   |   |   |   |   |   |   |   |   |   |   |   |   solver <= 32110532: good (8.0)
|   |   |   |   |   |   |   |   |   |   |   |   |   |   |   |   |   |   solver > 32110532: bad (7.0)
|   |   |   |   |   |   |   |   |   |   |   |   DiagonalMean > 50831.1
|   |   |   |   |   |   |   |   |   |   |   |   |   FrobeniusNorm <= 1002510000000: bad (225.0/3.0)
|   |   |   |   |   |   |   |   |   |   |   |   |   FrobeniusNorm > 1002510000000
|   |   |   |   |   |   |   |   |   |   |   |   |   |   Dimension <= 729
|   |   |   |   |   |   |   |   |   |   |   |   |   |   |   AbsoluteTrace <= 2.64895E15
|   |   |   |   |   |   |   |   |   |   |   |   |   |   |   |   solver <= 32110532: good (7.0)
|   |   |   |   |   |   |   |   |   |   |   |   |   |   |   |   solver > 32110532
|   |   |   |   |   |   |   |   |   |   |   |   |   |   |   |   |   solver <= 33173731: bad (2.0)
|   |   |   |   |   |   |   |   |   |   |   |   |   |   |   |   |   solver > 33173731: good (2.0)
|   |   |   |   |   |   |   |   |   |   |   |   |   |   |   AbsoluteTrace > 2.64895E15: bad (10.0)
|   |   |   |   |   |   |   |   |   |   |   |   |   |   Dimension > 729: bad (57.0/5.0)
|   |   |   |   |   |   |   |   solver > 36171345
|   |   |   |   |   |   |   |   |   AbsoluteTrace <= 165.75: good (421.0/31.0)
|   |   |   |   |   |   |   |   |   AbsoluteTrace > 165.75
|   |   |   |   |   |   |   |   |   |   Trace <= 42933700
|   |   |   |   |   |   |   |   |   |   |   Trace <= 23376500
|   |   |   |   |   |   |   |   |   |   |   |   Dimension <= 4182
|   |   |   |   |   |   |   |   |   |   |   |   |   Dimension <= 2624
|   |   |   |   |   |   |   |   |   |   |   |   |   |   AbsoluteTrace <= 699.349
|   |   |   |   |   |   |   |   |   |   |   |   |   |   |   solver <= 39942440
|   |   |   |   |   |   |   |   |   |   |   |   |   |   |   |   Dimension <= 207: good (8.0/1.0)
|   |   |   |   |   |   |   |   |   |   |   |   |   |   |   |   Dimension > 207: bad (25.0/1.0)
|   |   |   |   |   |   |   |   |   |   |   |   |   |   |   solver > 39942440
|   |   |   |   |   |   |   |   |   |   |   |   |   |   |   |   solver <= 39942442
|   |   |   |   |   |   |   |   |   |   |   |   |   |   |   |   |   Dimension <= 822
|   |   |   |   |   |   |   |   |   |   |   |   |   |   |   |   |   |   DiagonalMean <= 1.03422: bad (10.0/1.0)
|   |   |   |   |   |   |   |   |   |   |   |   |   |   |   |   |   |   DiagonalMean > 1.03422
|   |   |   |   |   |   |   |   |   |   |   |   |   |   |   |   |   |   |   AbsoluteTrace <= 222.425
|   |   |   |   |   |   |   |   |   |   |   |   |   |   |   |   |   |   |   |   AbsoluteTrace <= 190.68: good (2.0)
|   |   |   |   |   |   |   |   |   |   |   |   |   |   |   |   |   |   |   |   AbsoluteTrace > 190.68: bad (2.0)
|   |   |   |   |   |   |   |   |   |   |   |   |   |   |   |   |   |   |   AbsoluteTrace > 222.425: good (8.0)
|   |   |   |   |   |   |   |   |   |   |   |   |   |   |   |   |   Dimension > 822: good (54.0/4.0)
|   |   |   |   |   |   |   |   |   |   |   |   |   |   |   |   solver > 39942442
|   |   |   |   |   |   |   |   |   |   |   |   |   |   |   |   |   FrobeniusNorm <= 184.907: bad (20.0)
|   |   |   |   |   |   |   |   |   |   |   |   |   |   |   |   |   FrobeniusNorm > 184.907: good (15.0/5.0)
|   |   |   |   |   |   |   |   |   |   |   |   |   |   AbsoluteTrace > 699.349
|   |   |   |   |   |   |   |   |   |   |   |   |   |   |   FrobeniusNorm <= 504982000
|   |   |   |   |   |   |   |   |   |   |   |   |   |   |   |   FrobeniusNorm <= 7928.23
|   |   |   |   |   |   |   |   |   |   |   |   |   |   |   |   |   solver <= 39942441
|   |   |   |   |   |   |   |   |   |   |   |   |   |   |   |   |   |   FrobeniusNorm <= 2065.05
|   |   |   |   |   |   |   |   |   |   |   |   |   |   |   |   |   |   |   AbsoluteNonZeroSum <= 7760
|   |   |   |   |   |   |   |   |   |   |   |   |   |   |   |   |   |   |   |   AbsoluteNonZeroSum <= 2245.84
|   |   |   |   |   |   |   |   |   |   |   |   |   |   |   |   |   |   |   |   |   AbsoluteNonZeroSum <= 2080.8: bad (3.0/1.0)
|   |   |   |   |   |   |   |   |   |   |   |   |   |   |   |   |   |   |   |   |   AbsoluteNonZeroSum > 2080.8: good (2.0)
|   |   |   |   |   |   |   |   |   |   |   |   |   |   |   |   |   |   |   |   AbsoluteNonZeroSum > 2245.84: bad (23.0)
|   |   |   |   |   |   |   |   |   |   |   |   |   |   |   |   |   |   |   AbsoluteNonZeroSum > 7760: good (7.0/2.0)
|   |   |   |   |   |   |   |   |   |   |   |   |   |   |   |   |   |   FrobeniusNorm > 2065.05: bad (46.0)
|   |   |   |   |   |   |   |   |   |   |   |   |   |   |   |   |   solver > 39942441
|   |   |   |   |   |   |   |   |   |   |   |   |   |   |   |   |   |   solver <= 39942442
|   |   |   |   |   |   |   |   |   |   |   |   |   |   |   |   |   |   |   Dimension <= 1700
|   |   |   |   |   |   |   |   |   |   |   |   |   |   |   |   |   |   |   |   DiagonalMean <= 3.25764: bad (13.0)
|   |   |   |   |   |   |   |   |   |   |   |   |   |   |   |   |   |   |   |   DiagonalMean > 3.25764
|   |   |   |   |   |   |   |   |   |   |   |   |   |   |   |   |   |   |   |   |   Trace <= 1566.62: good (5.0)
|   |   |   |   |   |   |   |   |   |   |   |   |   |   |   |   |   |   |   |   |   Trace > 1566.62
|   |   |   |   |   |   |   |   |   |   |   |   |   |   |   |   |   |   |   |   |   |   Dimension <= 1000: bad (12.0/1.0)
|   |   |   |   |   |   |   |   |   |   |   |   |   |   |   |   |   |   |   |   |   |   Dimension > 1000: good (4.0)
|   |   |   |   |   |   |   |   |   |   |   |   |   |   |   |   |   |   |   Dimension > 1700: good (8.0)
|   |   |   |   |   |   |   |   |   |   |   |   |   |   |   |   |   |   solver > 39942442
|   |   |   |   |   |   |   |   |   |   |   |   |   |   |   |   |   |   |   AbsoluteNonZeroSum <= 2245.84: good (2.0)
|   |   |   |   |   |   |   |   |   |   |   |   |   |   |   |   |   |   |   AbsoluteNonZeroSum > 2245.84: bad (34.0/1.0)
|   |   |   |   |   |   |   |   |   |   |   |   |   |   |   |   FrobeniusNorm > 7928.23
|   |   |   |   |   |   |   |   |   |   |   |   |   |   |   |   |   AbsoluteNonZeroSum <= 122281
|   |   |   |   |   |   |   |   |   |   |   |   |   |   |   |   |   |   AbsoluteTrace <= 104515
|   |   |   |   |   |   |   |   |   |   |   |   |   |   |   |   |   |   |   Trace <= -2561.72: good (4.0)
|   |   |   |   |   |   |   |   |   |   |   |   |   |   |   |   |   |   |   Trace > -2561.72
|   |   |   |   |   |   |   |   |   |   |   |   |   |   |   |   |   |   |   |   AbsoluteNonZeroSum <= 63805: bad (11.0/1.0)
|   |   |   |   |   |   |   |   |   |   |   |   |   |   |   |   |   |   |   |   AbsoluteNonZeroSum > 63805
|   |   |   |   |   |   |   |   |   |   |   |   |   |   |   |   |   |   |   |   |   AbsoluteNonZeroSum <= 77368: good (7.0/1.0)
|   |   |   |   |   |   |   |   |   |   |   |   |   |   |   |   |   |   |   |   |   AbsoluteNonZeroSum > 77368: bad (4.0)
|   |   |   |   |   |   |   |   |   |   |   |   |   |   |   |   |   |   AbsoluteTrace > 104515: good (10.0)
|   |   |   |   |   |   |   |   |   |   |   |   |   |   |   |   |   AbsoluteNonZeroSum > 122281
|   |   |   |   |   |   |   |   |   |   |   |   |   |   |   |   |   |   FrobeniusNorm <= 64428.5: bad (27.0)
|   |   |   |   |   |   |   |   |   |   |   |   |   |   |   |   |   |   FrobeniusNorm > 64428.5
|   |   |   |   |   |   |   |   |   |   |   |   |   |   |   |   |   |   |   AbsoluteNonZeroSum <= 354671: good (5.0)
|   |   |   |   |   |   |   |   |   |   |   |   |   |   |   |   |   |   |   AbsoluteNonZeroSum > 354671
|   |   |   |   |   |   |   |   |   |   |   |   |   |   |   |   |   |   |   |   AbsoluteNonZeroSum <= 548456: bad (12.0)
|   |   |   |   |   |   |   |   |   |   |   |   |   |   |   |   |   |   |   |   AbsoluteNonZeroSum > 548456
|   |   |   |   |   |   |   |   |   |   |   |   |   |   |   |   |   |   |   |   |   AbsoluteNonZeroSum <= 1595470: good (16.0/5.0)
|   |   |   |   |   |   |   |   |   |   |   |   |   |   |   |   |   |   |   |   |   AbsoluteNonZeroSum > 1595470: bad (87.0/15.0)
|   |   |   |   |   |   |   |   |   |   |   |   |   |   |   FrobeniusNorm > 504982000
|   |   |   |   |   |   |   |   |   |   |   |   |   |   |   |   AbsoluteTrace <= 2.64895E17
|   |   |   |   |   |   |   |   |   |   |   |   |   |   |   |   |   AbsoluteTrace <= 5616550: good (6.0/1.0)
|   |   |   |   |   |   |   |   |   |   |   |   |   |   |   |   |   AbsoluteTrace > 5616550
|   |   |   |   |   |   |   |   |   |   |   |   |   |   |   |   |   |   AbsoluteTrace <= 90258200: bad (4.0)
|   |   |   |   |   |   |   |   |   |   |   |   |   |   |   |   |   |   AbsoluteTrace > 90258200: good (13.0/1.0)
|   |   |   |   |   |   |   |   |   |   |   |   |   |   |   |   AbsoluteTrace > 2.64895E17: bad (7.0)
|   |   |   |   |   |   |   |   |   |   |   |   |   Dimension > 2624
|   |   |   |   |   |   |   |   |   |   |   |   |   |   Dimension <= 2880: good (46.0)
|   |   |   |   |   |   |   |   |   |   |   |   |   |   Dimension > 2880
|   |   |   |   |   |   |   |   |   |   |   |   |   |   |   Dimension <= 3969
|   |   |   |   |   |   |   |   |   |   |   |   |   |   |   |   AbsoluteTrace <= 2981.82
|   |   |   |   |   |   |   |   |   |   |   |   |   |   |   |   |   DiagonalMean <= 0.314604
|   |   |   |   |   |   |   |   |   |   |   |   |   |   |   |   |   |   DiagonalMean <= 0.018374
|   |   |   |   |   |   |   |   |   |   |   |   |   |   |   |   |   |   |   Trace <= -1954.32: bad (4.0)
|   |   |   |   |   |   |   |   |   |   |   |   |   |   |   |   |   |   |   Trace > -1954.32
|   |   |   |   |   |   |   |   |   |   |   |   |   |   |   |   |   |   |   |   solver <= 39942441: bad (3.0/1.0)
|   |   |   |   |   |   |   |   |   |   |   |   |   |   |   |   |   |   |   |   solver > 39942441: good (4.0)
|   |   |   |   |   |   |   |   |   |   |   |   |   |   |   |   |   |   DiagonalMean > 0.018374: bad (12.0)
|   |   |   |   |   |   |   |   |   |   |   |   |   |   |   |   |   DiagonalMean > 0.314604: good (11.0/1.0)
|   |   |   |   |   |   |   |   |   |   |   |   |   |   |   |   AbsoluteTrace > 2981.82: bad (30.0/2.0)
|   |   |   |   |   |   |   |   |   |   |   |   |   |   |   Dimension > 3969
|   |   |   |   |   |   |   |   |   |   |   |   |   |   |   |   Trace <= 26451.6: good (15.0/1.0)
|   |   |   |   |   |   |   |   |   |   |   |   |   |   |   |   Trace > 26451.6: bad (4.0)
|   |   |   |   |   |   |   |   |   |   |   |   Dimension > 4182
|   |   |   |   |   |   |   |   |   |   |   |   |   Trace <= 11819: bad (41.0)
|   |   |   |   |   |   |   |   |   |   |   |   |   Trace > 11819
|   |   |   |   |   |   |   |   |   |   |   |   |   |   solver <= 39942441
|   |   |   |   |   |   |   |   |   |   |   |   |   |   |   FrobeniusNorm <= 40139.5: bad (21.0)
|   |   |   |   |   |   |   |   |   |   |   |   |   |   |   FrobeniusNorm > 40139.5
|   |   |   |   |   |   |   |   |   |   |   |   |   |   |   |   AbsoluteTrace <= 225435: good (2.0)
|   |   |   |   |   |   |   |   |   |   |   |   |   |   |   |   AbsoluteTrace > 225435: bad (2.0)
|   |   |   |   |   |   |   |   |   |   |   |   |   |   solver > 39942441
|   |   |   |   |   |   |   |   |   |   |   |   |   |   |   solver <= 39942442
|   |   |   |   |   |   |   |   |   |   |   |   |   |   |   |   Dimension <= 4563: good (7.0)
|   |   |   |   |   |   |   |   |   |   |   |   |   |   |   |   Dimension > 4563: bad (4.0/1.0)
|   |   |   |   |   |   |   |   |   |   |   |   |   |   |   solver > 39942442: bad (11.0/1.0)
|   |   |   |   |   |   |   |   |   |   |   Trace > 23376500: good (28.0/3.0)
|   |   |   |   |   |   |   |   |   |   Trace > 42933700
|   |   |   |   |   |   |   |   |   |   |   AbsoluteNonZeroSum <= 2.63063E14: bad (82.0/1.0)
|   |   |   |   |   |   |   |   |   |   |   AbsoluteNonZeroSum > 2.63063E14
|   |   |   |   |   |   |   |   |   |   |   |   AbsoluteTrace <= 2.64895E15: good (4.0)
|   |   |   |   |   |   |   |   |   |   |   |   AbsoluteTrace > 2.64895E15: bad (5.0)
|   |   |   |   |   |   |   solver > 39942443
|   |   |   |   |   |   |   |   AbsoluteTrace <= 222.373: bad (1426.0/4.0)
|   |   |   |   |   |   |   |   AbsoluteTrace > 222.373
|   |   |   |   |   |   |   |   |   Dimension <= 1015
|   |   |   |   |   |   |   |   |   |   AbsoluteNonZeroSum <= 1226.36
|   |   |   |   |   |   |   |   |   |   |   FrobeniusNorm <= 176.054: bad (25.0)
|   |   |   |   |   |   |   |   |   |   |   FrobeniusNorm > 176.054
|   |   |   |   |   |   |   |   |   |   |   |   solver <= 47483213
|   |   |   |   |   |   |   |   |   |   |   |   |   AbsoluteTrace <= 454.876: bad (2.0)
|   |   |   |   |   |   |   |   |   |   |   |   |   AbsoluteTrace > 454.876: good (27.0)
|   |   |   |   |   |   |   |   |   |   |   |   solver > 47483213
|   |   |   |   |   |   |   |   |   |   |   |   |   solver <= 47942866: bad (9.0)
|   |   |   |   |   |   |   |   |   |   |   |   |   solver > 47942866
|   |   |   |   |   |   |   |   |   |   |   |   |   |   AbsoluteTrace <= 639.667
|   |   |   |   |   |   |   |   |   |   |   |   |   |   |   solver <= 47942867: bad (2.0)
|   |   |   |   |   |   |   |   |   |   |   |   |   |   |   solver > 47942867: good (3.0/1.0)
|   |   |   |   |   |   |   |   |   |   |   |   |   |   AbsoluteTrace > 639.667: good (2.0)
|   |   |   |   |   |   |   |   |   |   AbsoluteNonZeroSum > 1226.36
|   |   |   |   |   |   |   |   |   |   |   Dimension <= 14
|   |   |   |   |   |   |   |   |   |   |   |   solver <= 44673503: good (5.0)
|   |   |   |   |   |   |   |   |   |   |   |   solver > 44673503
|   |   |   |   |   |   |   |   |   |   |   |   |   solver <= 45850728: bad (8.0)
|   |   |   |   |   |   |   |   |   |   |   |   |   solver > 45850728
|   |   |   |   |   |   |   |   |   |   |   |   |   |   solver <= 47483213: good (6.0)
|   |   |   |   |   |   |   |   |   |   |   |   |   |   solver > 47483213
|   |   |   |   |   |   |   |   |   |   |   |   |   |   |   solver <= 47942867: bad (8.0)
|   |   |   |   |   |   |   |   |   |   |   |   |   |   |   solver > 47942867: good (2.0)
|   |   |   |   |   |   |   |   |   |   |   Dimension > 14
|   |   |   |   |   |   |   |   |   |   |   |   solver <= 47355262
|   |   |   |   |   |   |   |   |   |   |   |   |   DiagonalMean <= 303.532
|   |   |   |   |   |   |   |   |   |   |   |   |   |   AbsoluteTrace <= 363739000
|   |   |   |   |   |   |   |   |   |   |   |   |   |   |   AbsoluteNonZeroSum <= 11297.4
|   |   |   |   |   |   |   |   |   |   |   |   |   |   |   |   Trace <= -3291.9: good (12.0/2.0)
|   |   |   |   |   |   |   |   |   |   |   |   |   |   |   |   Trace > -3291.9
|   |   |   |   |   |   |   |   |   |   |   |   |   |   |   |   |   FrobeniusNorm <= 401.253
|   |   |   |   |   |   |   |   |   |   |   |   |   |   |   |   |   |   AbsoluteTrace <= 835.2: bad (6.0)
|   |   |   |   |   |   |   |   |   |   |   |   |   |   |   |   |   |   AbsoluteTrace > 835.2
|   |   |   |   |   |   |   |   |   |   |   |   |   |   |   |   |   |   |   solver <= 45850726: bad (7.0/2.0)
|   |   |   |   |   |   |   |   |   |   |   |   |   |   |   |   |   |   |   solver > 45850726: good (7.0/1.0)
|   |   |   |   |   |   |   |   |   |   |   |   |   |   |   |   |   FrobeniusNorm > 401.253
|   |   |   |   |   |   |   |   |   |   |   |   |   |   |   |   |   |   AbsoluteNonZeroSum <= 8534.51: bad (172.0/1.0)
|   |   |   |   |   |   |   |   |   |   |   |   |   |   |   |   |   |   AbsoluteNonZeroSum > 8534.51
|   |   |   |   |   |   |   |   |   |   |   |   |   |   |   |   |   |   |   solver <= 45850726: bad (11.0)
|   |   |   |   |   |   |   |   |   |   |   |   |   |   |   |   |   |   |   solver > 45850726
|   |   |   |   |   |   |   |   |   |   |   |   |   |   |   |   |   |   |   |   solver <= 45869638
|   |   |   |   |   |   |   |   |   |   |   |   |   |   |   |   |   |   |   |   |   AbsoluteTrace <= 3778.88: good (4.0)
|   |   |   |   |   |   |   |   |   |   |   |   |   |   |   |   |   |   |   |   |   AbsoluteTrace > 3778.88: bad (3.0/1.0)
|   |   |   |   |   |   |   |   |   |   |   |   |   |   |   |   |   |   |   |   solver > 45869638: bad (5.0)
|   |   |   |   |   |   |   |   |   |   |   |   |   |   |   AbsoluteNonZeroSum > 11297.4: bad (297.0)
|   |   |   |   |   |   |   |   |   |   |   |   |   |   AbsoluteTrace > 363739000
|   |   |   |   |   |   |   |   |   |   |   |   |   |   |   AbsoluteTrace <= 2.64895E17
|   |   |   |   |   |   |   |   |   |   |   |   |   |   |   |   solver <= 44791169: bad (6.0/1.0)
|   |   |   |   |   |   |   |   |   |   |   |   |   |   |   |   solver > 44791169: good (16.0/2.0)
|   |   |   |   |   |   |   |   |   |   |   |   |   |   |   AbsoluteTrace > 2.64895E17: bad (24.0)
|   |   |   |   |   |   |   |   |   |   |   |   |   DiagonalMean > 303.532
|   |   |   |   |   |   |   |   |   |   |   |   |   |   FrobeniusNorm <= 784148
|   |   |   |   |   |   |   |   |   |   |   |   |   |   |   AbsoluteNonZeroSum <= 7178.61: bad (21.0)
|   |   |   |   |   |   |   |   |   |   |   |   |   |   |   AbsoluteNonZeroSum > 7178.61
|   |   |   |   |   |   |   |   |   |   |   |   |   |   |   |   Dimension <= 148: bad (32.0/2.0)
|   |   |   |   |   |   |   |   |   |   |   |   |   |   |   |   Dimension > 148
|   |   |   |   |   |   |   |   |   |   |   |   |   |   |   |   |   FrobeniusNorm <= 4979.52
|   |   |   |   |   |   |   |   |   |   |   |   |   |   |   |   |   |   solver <= 45850728: bad (11.0)
|   |   |   |   |   |   |   |   |   |   |   |   |   |   |   |   |   |   solver > 45850728
|   |   |   |   |   |   |   |   |   |   |   |   |   |   |   |   |   |   |   solver <= 45869638: good (2.0)
|   |   |   |   |   |   |   |   |   |   |   |   |   |   |   |   |   |   |   solver > 45869638: bad (3.0/1.0)
|   |   |   |   |   |   |   |   |   |   |   |   |   |   |   |   |   FrobeniusNorm > 4979.52
|   |   |   |   |   |   |   |   |   |   |   |   |   |   |   |   |   |   Dimension <= 512
|   |   |   |   |   |   |   |   |   |   |   |   |   |   |   |   |   |   |   solver <= 45869638
|   |   |   |   |   |   |   |   |   |   |   |   |   |   |   |   |   |   |   |   AbsoluteTrace <= 108613
|   |   |   |   |   |   |   |   |   |   |   |   |   |   |   |   |   |   |   |   |   solver <= 44526267: good (5.0/1.0)
|   |   |   |   |   |   |   |   |   |   |   |   |   |   |   |   |   |   |   |   |   solver > 44526267: bad (12.0/1.0)
|   |   |   |   |   |   |   |   |   |   |   |   |   |   |   |   |   |   |   |   AbsoluteTrace > 108613
|   |   |   |   |   |   |   |   |   |   |   |   |   |   |   |   |   |   |   |   |   Dimension <= 199: good (6.0)
|   |   |   |   |   |   |   |   |   |   |   |   |   |   |   |   |   |   |   |   |   Dimension > 199
|   |   |   |   |   |   |   |   |   |   |   |   |   |   |   |   |   |   |   |   |   |   DiagonalMean <= 689.478
|   |   |   |   |   |   |   |   |   |   |   |   |   |   |   |   |   |   |   |   |   |   |   AbsoluteTrace <= 183542
|   |   |   |   |   |   |   |   |   |   |   |   |   |   |   |   |   |   |   |   |   |   |   |   solver <= 45850726: good (4.0)
|   |   |   |   |   |   |   |   |   |   |   |   |   |   |   |   |   |   |   |   |   |   |   |   solver > 45850726: bad (3.0/1.0)
|   |   |   |   |   |   |   |   |   |   |   |   |   |   |   |   |   |   |   |   |   |   |   AbsoluteTrace > 183542: bad (10.0/3.0)
|   |   |   |   |   |   |   |   |   |   |   |   |   |   |   |   |   |   |   |   |   |   DiagonalMean > 689.478: good (18.0/5.0)
|   |   |   |   |   |   |   |   |   |   |   |   |   |   |   |   |   |   |   solver > 45869638: good (18.0/2.0)
|   |   |   |   |   |   |   |   |   |   |   |   |   |   |   |   |   |   Dimension > 512
|   |   |   |   |   |   |   |   |   |   |   |   |   |   |   |   |   |   |   AbsoluteNonZeroSum <= 847507: bad (14.0)
|   |   |   |   |   |   |   |   |   |   |   |   |   |   |   |   |   |   |   AbsoluteNonZeroSum > 847507
|   |   |   |   |   |   |   |   |   |   |   |   |   |   |   |   |   |   |   |   AbsoluteTrace <= 1226720
|   |   |   |   |   |   |   |   |   |   |   |   |   |   |   |   |   |   |   |   |   solver <= 45850726: bad (5.0)
|   |   |   |   |   |   |   |   |   |   |   |   |   |   |   |   |   |   |   |   |   solver > 45850726
|   |   |   |   |   |   |   |   |   |   |   |   |   |   |   |   |   |   |   |   |   |   solver <= 45869638: good (3.0)
|   |   |   |   |   |   |   |   |   |   |   |   |   |   |   |   |   |   |   |   |   |   solver > 45869638: bad (3.0)
|   |   |   |   |   |   |   |   |   |   |   |   |   |   |   |   |   |   |   |   AbsoluteTrace > 1226720
|   |   |   |   |   |   |   |   |   |   |   |   |   |   |   |   |   |   |   |   |   solver <= 45850725: good (5.0)
|   |   |   |   |   |   |   |   |   |   |   |   |   |   |   |   |   |   |   |   |   solver > 45850725
|   |   |   |   |   |   |   |   |   |   |   |   |   |   |   |   |   |   |   |   |   |   solver <= 45869638: bad (4.0)
|   |   |   |   |   |   |   |   |   |   |   |   |   |   |   |   |   |   |   |   |   |   solver > 45869638: good (3.0)
|   |   |   |   |   |   |   |   |   |   |   |   |   |   FrobeniusNorm > 784148
|   |   |   |   |   |   |   |   |   |   |   |   |   |   |   FrobeniusNorm <= 1.39936E14: bad (263.0/7.0)
|   |   |   |   |   |   |   |   |   |   |   |   |   |   |   FrobeniusNorm > 1.39936E14
|   |   |   |   |   |   |   |   |   |   |   |   |   |   |   |   AbsoluteTrace <= 2.64895E15
|   |   |   |   |   |   |   |   |   |   |   |   |   |   |   |   |   solver <= 44791169
|   |   |   |   |   |   |   |   |   |   |   |   |   |   |   |   |   |   solver <= 44526267: good (2.0)
|   |   |   |   |   |   |   |   |   |   |   |   |   |   |   |   |   |   solver > 44526267: bad (2.0)
|   |   |   |   |   |   |   |   |   |   |   |   |   |   |   |   |   solver > 44791169: good (6.0)
|   |   |   |   |   |   |   |   |   |   |   |   |   |   |   |   AbsoluteTrace > 2.64895E15: bad (21.0)
|   |   |   |   |   |   |   |   |   |   |   |   solver > 47355262: bad (374.0/15.0)
|   |   |   |   |   |   |   |   |   Dimension > 1015
|   |   |   |   |   |   |   |   |   |   Trace <= -1020.54: bad (384.0)
|   |   |   |   |   |   |   |   |   |   Trace > -1020.54
|   |   |   |   |   |   |   |   |   |   |   Dimension <= 2000
|   |   |   |   |   |   |   |   |   |   |   |   Dimension <= 1922: bad (337.0/8.0)
|   |   |   |   |   |   |   |   |   |   |   |   Dimension > 1922: good (14.0/3.0)
|   |   |   |   |   |   |   |   |   |   |   Dimension > 2000
|   |   |   |   |   |   |   |   |   |   |   |   FrobeniusNorm <= 724.431
|   |   |   |   |   |   |   |   |   |   |   |   |   DiagonalMean <= 0.400322: bad (56.0)
|   |   |   |   |   |   |   |   |   |   |   |   |   DiagonalMean > 0.400322: good (17.0/3.0)
|   |   |   |   |   |   |   |   |   |   |   |   FrobeniusNorm > 724.431
|   |   |   |   |   |   |   |   |   |   |   |   |   solver <= 44673503: bad (244.0)
|   |   |   |   |   |   |   |   |   |   |   |   |   solver > 44673503
|   |   |   |   |   |   |   |   |   |   |   |   |   |   solver <= 44791169
