=== Model information ===

Filename:     RS1nnz>10000labelsonly_MOOSE.model
Scheme:weka.classifiers.trees.J48 -C 0.25 -M 2
Relation:RS1_train_nnz>10000labelsonly_MOOSE
Attributes:   9
              DiagonalNonZeros
              AbsoluteTrace
              OneNorm
              Trace
              Dimension
              SymmetricInfinityNorm
              DiagonalMean
              solver
              class

=== Classifier model ===

J48 pruned tree
------------------

solver = 89565283: bad (0.0)
solver = 8793455: bad (0.0)
solver = 90197667: bad (1760.0)
solver = 49598909: bad (0.0)
solver = 91036839: bad (0.0)
solver = 45869639: bad (0.0)
solver = 45869638: bad (0.0)
solver = 45869637: bad (0.0)
solver = 47942867: bad (0.0)
solver = 89269802: bad (22.0)
solver = 89269803: bad (0.0)
solver = 89269801: bad (0.0)
solver = 89269804: bad (0.0)
solver = 59072883: bad (0.0)
solver = 59072882: bad (1868.0)
solver = 59072881: bad (1821.0)
solver = 7285381: bad (0.0)
solver = 7285384: bad (0.0)
solver = 59072884: bad (0.0)
solver = 49598911: bad (0.0)
solver = 49598910: bad (0.0)
solver = 49598912: bad (0.0)
solver = 30870721: bad (0.0)
solver = 36025723: bad (0.0)
solver = 36025722: bad (1815.0/17.0)
solver = 53302993: bad (1245.0/2.0)
solver = 30870720: bad (0.0)
solver = 64278029: bad (0.0)
solver = 36025724: bad (0.0)
solver = 44526267: bad (1774.0)
solver = 8793454: bad (0.0)
solver = 8793456: bad (0.0)
solver = 8793453: bad (1357.0)
solver = 17734818: bad (0.0)
solver = 32168839: bad (1899.0/16.0)
solver = 32168838: bad (1818.0/14.0)
solver = 57331597: bad (0.0)
solver = 95762352: bad (0.0)
solver = 57331599: bad (0.0)
solver = 57331598: bad (0.0)
solver = 32168837: bad (0.0)
solver = 88865078: bad (0.0)
solver = 88865079: bad (0.0)
solver = 49834417: bad (0.0)
solver = 49834419: bad (1795.0)
solver = 49834418: bad (0.0)
solver = 88865076: bad (0.0)
solver = 88865077: bad (0.0)
solver = 11256942: bad (0.0)
solver = 11256943: bad (0.0)
solver = 11256941: bad (0.0)
solver = 42851841: bad (0.0)
solver = 11256944: bad (0.0)
solver = 31459546: bad (0.0)
solver = 17887723: bad (0.0)
solver = 91845162: bad (0.0)
solver = 53362206: bad (0.0)
solver = 95762355: bad (0.0)
solver = 12321508: bad (0.0)
solver = 75830644: bad (0.0)
solver = 57331600: bad (0.0)
solver = 43373444: bad (0.0)
solver = 95762353: bad (0.0)
solver = 43373441: bad (0.0)
solver = 43373442: bad (1435.0)
solver = 43373443: bad (0.0)
solver = 91068411: bad (0.0)
solver = 91068410: bad (0.0)
solver = 5890861: bad (0.0)
solver = 85483012: bad (0.0)
solver = 5890863: bad (0.0)
solver = 5890862: bad (1829.0)
solver = 18868444: bad (0.0)
solver = 18868441: bad (0.0)
solver = 18868443: bad (0.0)
solver = 18868442: bad (0.0)
solver = 91068408: bad (0.0)
solver = 47942864: bad (0.0)
solver = 47942865: bad (0.0)
solver = 47942866: bad (0.0)
solver = 91068409: bad (0.0)
solver = 8520536: bad (0.0)
solver = 5890860: bad (0.0)
solver = 82456576: bad (0.0)
solver = 29030069: bad (0.0)
solver = 95762354: bad (0.0)
solver = 90783920: bad (0.0)
solver = 99720138: bad (0.0)
solver = 29030071: bad (0.0)
solver = 29030070
|   DiagonalNonZeros <= 12001.2
|   |   AbsoluteTrace <= 544054
|   |   |   OneNorm <= 107: bad (17.0)
|   |   |   OneNorm > 107: good (66.0/4.0)
|   |   AbsoluteTrace > 544054
|   |   |   DiagonalNonZeros <= 11334.5: bad (101.0)
|   |   |   DiagonalNonZeros > 11334.5
|   |   |   |   AbsoluteTrace <= 906048: good (7.0/1.0)
|   |   |   |   AbsoluteTrace > 906048: bad (6.0)
|   DiagonalNonZeros > 12001.2
|   |   Dimension <= 51005
|   |   |   SymmetricInfinityNorm <= 463: bad (1439.0/1.0)
|   |   |   SymmetricInfinityNorm > 463
|   |   |   |   DiagonalNonZeros <= 34666.7: bad (106.0/1.0)
|   |   |   |   DiagonalNonZeros > 34666.7: good (6.0)
|   |   Dimension > 51005
|   |   |   Dimension <= 67200: good (29.0/8.0)
|   |   |   Dimension > 67200: bad (19.0)
solver = 29030072: bad (0.0)
solver = 85490469: bad (0.0)
solver = 30870723: bad (0.0)
solver = 30870722: bad (0.0)
solver = 26415435: bad (0.0)
solver = 26415434
|   Dimension <= 20002
|   |   DiagonalNonZeros <= 20001: bad (386.0)
|   |   DiagonalNonZeros > 20001
|   |   |   OneNorm <= 9100000: good (1102.0/334.0)
|   |   |   OneNorm > 9100000: bad (97.0)
|   Dimension > 20002: bad (454.0)
solver = 26415433: bad (0.0)
solver = 26415432
|   Dimension <= 20002
|   |   DiagonalNonZeros <= 20001: bad (376.0/1.0)
|   |   DiagonalNonZeros > 20001
|   |   |   OneNorm <= 9100000: good (1074.0/313.0)
|   |   |   OneNorm > 9100000: bad (98.0)
|   Dimension > 20002: bad (489.0/2.0)
solver = 13323659: bad (1765.0/2.0)
solver = 45869640
|   Dimension <= 20002
|   |   Dimension <= 20001: bad (213.0/25.0)
|   |   Dimension > 20001: good (1182.0/80.0)
|   Dimension > 20002: bad (490.0/5.0)
solver = 36564233: bad (0.0)
solver = 68908713: bad (0.0)
solver = 7285382: bad (0.0)
solver = 36564232: bad (0.0)
solver = 7285383: bad (0.0)
solver = 75830645: good (2110.0/451.0)
solver = 36564234: bad (0.0)
solver = 81986705: bad (1854.0)
solver = 29553941: bad (0.0)
solver = 29553943: bad (0.0)
solver = 29553942: bad (1794.0)
solver = 69654761: bad (1781.0)
solver = 29553944: bad (0.0)
solver = 69654763: bad (0.0)
solver = 69654762: bad (0.0)
solver = 32874609: bad (1391.0)
solver = 32168840: bad (0.0)
solver = 90197664: bad (0.0)
solver = 90197665: bad (1823.0)
solver = 90197666: bad (0.0)
solver = 69654760: bad (0.0)
solver = 37052870: bad (0.0)
solver = 37052871: bad (0.0)
solver = 19932321: bad (0.0)
solver = 19932323: bad (0.0)
solver = 19932322: bad (0.0)
solver = 19932324: bad (1767.0)
solver = 80361466: bad (1809.0)
solver = 80361467: bad (1793.0)
solver = 80361464: bad (0.0)
solver = 80361465: bad (0.0)
solver = 49834420: bad (0.0)
solver = 1216556: bad (1833.0)
solver = 38678404: bad (0.0)
solver = 38678401: bad (0.0)
solver = 38678402: bad (0.0)
solver = 38678403: bad (0.0)
solver = 32874611: bad (0.0)
solver = 32874610: bad (0.0)
solver = 32874612: bad (0.0)
solver = 44114477: bad (0.0)
solver = 44114476: bad (0.0)
solver = 44114479: bad (0.0)
solver = 44114478: bad (0.0)
solver = 36564235: bad (0.0)
solver = 36025721: bad (0.0)
solver = 75830647: good (2167.0/453.0)
solver = 75830646: bad (0.0)
solver = 85490471: bad (0.0)
solver = 85490470: bad (80.0)
solver = 85490472: bad (0.0)
solver = 18524981: bad (0.0)
solver = 37052869: bad (0.0)
solver = 37052868: bad (0.0)

Number of Leaves  : 	171

Size of the tree : 	189


=== Re-evaluation on test set ===

User supplied test set
Relation:     RS1_test_nnz>10000labelsonly_MOOSE
Instances:     unknown (yet). Reading incrementally
Attributes:   9

=== Summary ===

Total Number of Instances                0     
Ignored Class Unknown Instances              12540     

=== Detailed Accuracy By Class ===

               TP Rate   FP Rate   Precision   Recall  F-Measure   ROC Area  Class
                 0         0          0         0         0          ?        good
                 0         0          0         0         0          ?        bad
Weighted Avg.  NaN       NaN        NaN       NaN       NaN        NaN    

=== Confusion Matrix ===

 a b   <-- classified as
 0 0 | a = good
 0 0 | b = bad


=== Re-evaluation on test set ===

User supplied test set
Relation:     RS1_test_nnz>10000labelsonly_MOOSE
Instances:     unknown (yet). Reading incrementally
Attributes:   9

=== Predictions on test set ===

inst#,    actual, predicted, error, probability distribution
     1          ?      2:bad      +   0     *1    
     2          ?     1:good      +  *0.791  0.209
     3          ?      2:bad      +   0     *1    
     4          ?      2:bad      +   0     *1    
     5          ?      2:bad      +   0     *1    
     6          ?      2:bad      +   0     *1    
     7          ?      2:bad      +   0     *1    
     8          ?      2:bad      +   0     *1    
     9          ?      2:bad      +   0.001 *0.999
    10          ?      2:bad      +   0.001 *0.999
    11          ?      2:bad      +   0     *1    
    12          ?      2:bad      +   0.002 *0.998
    13          ?     1:good      +  *0.786  0.214
    14          ?      2:bad      +   0     *1    
    15          ?      2:bad      +   0     *1    
    16          ?      2:bad      +   0.009 *0.991
    17          ?      2:bad      +   0     *1    
    18          ?     1:good      +  *0.932  0.068
    19          ?      2:bad      +   0     *1    
    20          ?      2:bad      +   0.008 *0.992
    21          ?      2:bad      +   0.001 *0.999
    22          ?     1:good      +  *0.709  0.291
    23          ?     1:good      +  *0.709  0.291
    24          ?      2:bad      +   0     *1    
    25          ?      2:bad      +   0.002 *0.998
    26          ?      2:bad      +   0     *1    
    27          ?     1:good      +  *0.791  0.209
    28          ?      2:bad      +   0.008 *0.992
    29          ?      2:bad      +   0.003 *0.997
    30          ?      2:bad      +   0     *1    
    31          ?      2:bad      +   0.008 *0.992
    32          ?      2:bad      +   0     *1    
    33          ?      2:bad      +   0.001 *0.999
    34          ?     1:good      +  *0.709  0.291
    35          ?      2:bad      +   0     *1    
    36          ?      2:bad      +   0     *1    
    37          ?      2:bad      +   0     *1    
    38          ?     1:good      +  *0.791  0.209
    39          ?      2:bad      +   0     *1    
    40          ?      2:bad      +   0.001 *0.999
    41          ?     1:good      +  *0.697  0.303
    42          ?      2:bad      +   0.001 *0.999
    43          ?     1:good      +  *0.786  0.214
    44          ?      2:bad      +   0.002 *0.998
    45          ?      2:bad      +   0     *1    
    46          ?      2:bad      +   0.001 *0.999
    47          ?      2:bad      +   0     *1    
    48          ?      2:bad      +   0     *1    
    49          ?      2:bad      +   0     *1    
    50          ?      2:bad      +   0.001 *0.999
    51          ?     1:good      +  *0.709  0.291
    52          ?      2:bad      +   0     *1    
    53          ?      2:bad      +   0     *1    
    54          ?      2:bad      +   0     *1    
    55          ?      2:bad      +   0     *1    
    56          ?      2:bad      +   0     *1    
    57          ?      2:bad      +   0.008 *0.992
    58          ?      2:bad      +   0.008 *0.992
    59          ?      2:bad      +   0     *1    
    60          ?      2:bad      +   0     *1    
    61          ?      2:bad      +   0     *1    
    62          ?      2:bad      +   0     *1    
    63          ?      2:bad      +   0.008 *0.992
    64          ?      2:bad      +   0     *1    
    65          ?      2:bad      +   0.001 *0.999
    66          ?      2:bad      +   0     *1    
    67          ?      2:bad      +   0     *1    
    68          ?      2:bad      +   0     *1    
    69          ?      2:bad      +   0     *1    
    70          ?      2:bad      +   0     *1    
    71          ?      2:bad      +   0     *1    
    72          ?      2:bad      +   0     *1    
    73          ?      2:bad      +   0     *1    
    74          ?      2:bad      +   0     *1    
    75          ?      2:bad      +   0.002 *0.998
    76          ?      2:bad      +   0     *1    
    77          ?      2:bad      +   0     *1    
    78          ?      2:bad      +   0.009 *0.991
    79          ?      2:bad      +   0     *1    
    80          ?      2:bad      +   0.008 *0.992
    81          ?      2:bad      +   0     *1    
    82          ?      2:bad      +   0.004 *0.996
    83          ?      2:bad      +   0     *1    
    84          ?     1:good      +  *0.791  0.209
    85          ?      2:bad      +   0.009 *0.991
    86          ?      2:bad      +   0     *1    
    87          ?      2:bad      +   0     *1    
    88          ?      2:bad      +   0     *1    
    89          ?      2:bad      +   0     *1    
    90          ?      2:bad      +   0     *1    
    91          ?      2:bad      +   0     *1    
    92          ?      2:bad      +   0.008 *0.992
    93          ?      2:bad      +   0     *1    
    94          ?      2:bad      +   0     *1    
    95          ?      2:bad      +   0     *1    
    96          ?      2:bad      +   0.002 *0.998
    97          ?      2:bad      +   0.001 *0.999
    98          ?     1:good      +  *0.697  0.303
    99          ?      2:bad      +   0     *1    
   100          ?      2:bad      +   0     *1    
   101          ?      2:bad      +   0     *1    
   102          ?      2:bad      +   0     *1    
   103          ?      2:bad      +   0.008 *0.992
   104          ?      2:bad      +   0     *1    
   105          ?      2:bad      +   0     *1    
   106          ?     1:good      +  *0.932  0.068
   107          ?      2:bad      +   0     *1    
   108          ?     1:good      +  *0.791  0.209
   109          ?      2:bad      +   0     *1    
   110          ?      2:bad      +   0     *1    
   111          ?      2:bad      +   0     *1    
   112          ?      2:bad      +   0.008 *0.992
   113          ?      2:bad      +   0     *1    
   114          ?      2:bad      +   0.001 *0.999
   115          ?     1:good      +  *0.932  0.068
   116          ?      2:bad      +   0     *1    
   117          ?      2:bad      +   0     *1    
   118          ?      2:bad      +   0     *1    
   119          ?      2:bad      +   0.008 *0.992
   120          ?      2:bad      +   0     *1    
   121          ?      2:bad      +   0.001 *0.999
   122          ?     1:good      +  *0.709  0.291
   123          ?      2:bad      +   0     *1    
   124          ?      2:bad      +   0.009 *0.991
   125          ?      2:bad      +   0.002 *0.998
   126          ?      2:bad      +   0     *1    
   127          ?      2:bad      +   0     *1    
   128          ?      2:bad      +   0.002 *0.998
   129          ?      2:bad      +   0     *1    
   130          ?      2:bad      +   0.009 *0.991
   131          ?      2:bad      +   0.001 *0.999
   132          ?      2:bad      +   0     *1    
   133          ?     1:good      +  *0.791  0.209
   134          ?      2:bad      +   0.002 *0.998
   135          ?      2:bad      +   0     *1    
   136          ?     1:good      +  *0.697  0.303
   137          ?      2:bad      +   0     *1    
   138          ?      2:bad      +   0     *1    
   139          ?      2:bad      +   0.008 *0.992
   140          ?      2:bad      +   0     *1    
   141          ?      2:bad      +   0.001 *0.999
   142          ?     1:good      +  *0.932  0.068
   143          ?      2:bad      +   0     *1    
   144          ?      2:bad      +   0     *1    
   145          ?      2:bad      +   0     *1    
   146          ?      2:bad      +   0     *1    
   147          ?      2:bad      +   0.008 *0.992
   148          ?     1:good      +  *0.932  0.068
   149          ?      2:bad      +   0     *1    
   150          ?      2:bad      +   0     *1    
   151          ?      2:bad      +   0     *1    
   152          ?     1:good      +  *0.791  0.209
   153          ?      2:bad      +   0     *1    
   154          ?      2:bad      +   0.009 *0.991
   155          ?     1:good      +  *0.697  0.303
   156          ?     1:good      +  *0.932  0.068
   157          ?      2:bad      +   0     *1    
   158          ?      2:bad      +   0     *1    
   159          ?      2:bad      +   0.002 *0.998
   160          ?      2:bad      +   0     *1    
   161          ?      2:bad      +   0     *1    
   162          ?      2:bad      +   0.001 *0.999
   163          ?     1:good      +  *0.932  0.068
   164          ?     1:good      +  *0.786  0.214
   165          ?      2:bad      +   0     *1    
   166          ?      2:bad      +   0     *1    
   167          ?     1:good      +  *0.791  0.209
   168          ?     1:good      +  *0.786  0.214
   169          ?      2:bad      +   0     *1    
   170          ?      2:bad      +   0.008 *0.992
   171          ?      2:bad      +   0.001 *0.999
   172          ?      2:bad      +   0     *1    
   173          ?      2:bad      +   0     *1    
   174          ?      2:bad      +   0.001 *0.999
   175          ?      2:bad      +   0.001 *0.999
   176          ?      2:bad      +   0     *1    
   177          ?      2:bad      +   0     *1    
   178          ?      2:bad      +   0     *1    
   179          ?      2:bad      +   0.009 *0.991
   180          ?     1:good      +  *0.932  0.068
   181          ?      2:bad      +   0     *1    
   182          ?      2:bad      +   0.002 *0.998
   183          ?      2:bad      +   0     *1    
   184          ?      2:bad      +   0     *1    
   185          ?      2:bad      +   0     *1    
   186          ?      2:bad      +   0     *1    
   187          ?     1:good      +  *0.697  0.303
   188          ?     1:good      +  *0.709  0.291
   189          ?      2:bad      +   0     *1    
   190          ?      2:bad      +   0     *1    
   191          ?      2:bad      +   0.001 *0.999
   192          ?     1:good      +  *0.786  0.214
   193          ?      2:bad      +   0     *1    
   194          ?     1:good      +  *0.791  0.209
   195          ?      2:bad      +   0     *1    
   196          ?      2:bad      +   0     *1    
   197          ?      2:bad      +   0     *1    
   198          ?      2:bad      +   0.008 *0.992
   199          ?      2:bad      +   0.01  *0.99 
   200          ?      2:bad      +   0     *1    
   201          ?      2:bad      +   0     *1    
   202          ?      2:bad      +   0.001 *0.999
   203          ?      2:bad      +   0     *1    
   204          ?     1:good      +  *0.791  0.209
   205          ?      2:bad      +   0     *1    
   206          ?      2:bad      +   0.009 *0.991
   207          ?      2:bad      +   0.002 *0.998
   208          ?      2:bad      +   0     *1    
   209          ?      2:bad      +   0     *1    
   210          ?      2:bad      +   0     *1    
   211          ?     1:good      +  *0.791  0.209
   212          ?      2:bad      +   0     *1    
   213          ?      2:bad      +   0.008 *0.992
   214          ?      2:bad      +   0     *1    
   215          ?      2:bad      +   0.001 *0.999
   216          ?     1:good      +  *0.709  0.291
   217          ?      2:bad      +   0     *1    
   218          ?      2:bad      +   0     *1    
   219          ?      2:bad      +   0     *1    
   220          ?      2:bad      +   0     *1    
   221          ?      2:bad      +   0     *1    
   222          ?      2:bad      +   0     *1    
   223          ?      2:bad      +   0.002 *0.998
   224          ?      2:bad      +   0.008 *0.992
   225          ?      2:bad      +   0     *1    
   226          ?     1:good      +  *0.697  0.303
   227          ?      2:bad      +   0     *1    
   228          ?      2:bad      +   0     *1    
   229          ?      2:bad      +   0     *1    
   230          ?      2:bad      +   0     *1    
   231          ?      2:bad      +   0.009 *0.991
   232          ?      2:bad      +   0     *1    
   233          ?      2:bad      +   0.008 *0.992
   234          ?      2:bad      +   0     *1    
   235          ?      2:bad      +   0     *1    
   236          ?      2:bad      +   0     *1    
   237          ?      2:bad      +   0     *1    
   238          ?      2:bad      +   0     *1    
   239          ?      2:bad      +   0     *1    
   240          ?      2:bad      +   0     *1    
   241          ?      2:bad      +   0     *1    
   242          ?      2:bad      +   0     *1    
   243          ?      2:bad      +   0     *1    
   244          ?      2:bad      +   0     *1    
   245          ?      2:bad      +   0.009 *0.991
   246          ?      2:bad      +   0.008 *0.992
   247          ?      2:bad      +   0.001 *0.999
   248          ?      2:bad      +   0.001 *0.999
   249          ?      2:bad      +   0     *1    
   250          ?      2:bad      +   0.008 *0.992
   251          ?      2:bad      +   0     *1    
   252          ?     1:good      +  *0.697  0.303
   253          ?     1:good      +  *0.932  0.068
   254          ?      2:bad      +   0     *1    
   255          ?      2:bad      +   0     *1    
   256          ?     1:good      +  *0.791  0.209
   257          ?      2:bad      +   0     *1    
   258          ?      2:bad      +   0.008 *0.992
   259          ?      2:bad      +   0     *1    
   260          ?      2:bad      +   0     *1    
   261          ?      2:bad      +   0     *1    
   262          ?      2:bad      +   0.009 *0.991
   263          ?      2:bad      +   0.002 *0.998
   264          ?      2:bad      +   0     *1    
   265          ?     1:good      +  *0.709  0.291
   266          ?      2:bad      +   0     *1    
   267          ?      2:bad      +   0     *1    
   268          ?      2:bad      +   0     *1    
   269          ?      2:bad      +   0.002 *0.998
   270          ?      2:bad      +   0     *1    
   271          ?      2:bad      +   0     *1    
   272          ?      2:bad      +   0     *1    
   273          ?      2:bad      +   0.009 *0.991
   274          ?      2:bad      +   0     *1    
   275          ?      2:bad      +   0.001 *0.999
   276          ?     1:good      +  *0.709  0.291
   277          ?      2:bad      +   0     *1    
   278          ?      2:bad      +   0     *1    
   279          ?      2:bad      +   0.009 *0.991
   280          ?      2:bad      +   0     *1    
   281          ?      2:bad      +   0     *1    
   282          ?      2:bad      +   0     *1    
   283          ?      2:bad      +   0.008 *0.992
   284          ?     1:good      +  *0.786  0.214
   285          ?      2:bad      +   0     *1    
   286          ?      2:bad      +   0     *1    
   287          ?      2:bad      +   0.009 *0.991
   288          ?      2:bad      +   0     *1    
   289          ?      2:bad      +   0     *1    
   290          ?      2:bad      +   0     *1    
   291          ?      2:bad      +   0     *1    
   292          ?     1:good      +  *0.791  0.209
   293          ?      2:bad      +   0     *1    
   294          ?      2:bad      +   0     *1    
   295          ?      2:bad      +   0.001 *0.999
   296          ?     1:good      +  *0.786  0.214
   297          ?      2:bad      +   0     *1    
   298          ?      2:bad      +   0     *1    
   299          ?      2:bad      +   0     *1    
   300          ?      2:bad      +   0     *1    
   301          ?      2:bad      +   0.008 *0.992
   302          ?      2:bad      +   0     *1    
   303          ?      2:bad      +   0     *1    
   304          ?     1:good      +  *0.709  0.291
   305          ?      2:bad      +   0     *1    
   306          ?      2:bad      +   0     *1    
   307          ?      2:bad      +   0     *1    
   308          ?      2:bad      +   0     *1    
   309          ?      2:bad      +   0.001 *0.999
   310          ?      2:bad      +   0.001 *0.999
   311          ?      2:bad      +   0     *1    
   312          ?      2:bad      +   0.009 *0.991
   313          ?      2:bad      +   0     *1    
   314          ?      2:bad      +   0.001 *0.999
   315          ?      2:bad      +   0     *1    
   316          ?      2:bad      +   0     *1    
   317          ?      2:bad      +   0.009 *0.991
   318          ?      2:bad      +   0     *1    
   319          ?      2:bad      +   0     *1    
   320          ?     1:good      +  *0.932  0.068
   321          ?      2:bad      +   0     *1    
   322          ?      2:bad      +   0     *1    
   323          ?     1:good      +  *0.786  0.214
   324          ?      2:bad      +   0     *1    
   325          ?      2:bad      +   0     *1    
   326          ?      2:bad      +   0     *1    
   327          ?      2:bad      +   0     *1    
   328          ?      2:bad      +   0     *1    
   329          ?      2:bad      +   0     *1    
   330          ?      2:bad      +   0.008 *0.992
   331          ?      2:bad      +   0     *1    
   332          ?      2:bad      +   0     *1    
   333          ?      2:bad      +   0     *1    
   334          ?      2:bad      +   0     *1    
   335          ?      2:bad      +   0     *1    
   336          ?      2:bad      +   0.001 *0.999
   337          ?      2:bad      +   0     *1    
   338          ?      2:bad      +   0     *1    
   339          ?      2:bad      +   0     *1    
   340          ?      2:bad      +   0.008 *0.992
   341          ?      2:bad      +   0     *1    
   342          ?      2:bad      +   0     *1    
   343          ?      2:bad      +   0     *1    
   344          ?     1:good      +  *0.697  0.303
   345          ?     1:good      +  *0.709  0.291
   346          ?      2:bad      +   0     *1    
   347          ?      2:bad      +   0     *1    
   348          ?      2:bad      +   0     *1    
   349          ?      2:bad      +   0     *1    
   350          ?      2:bad      +   0     *1    
   351          ?      2:bad      +   0.008 *0.992
   352          ?      2:bad      +   0     *1    
   353          ?      2:bad      +   0     *1    
   354          ?      2:bad      +   0     *1    
   355          ?      2:bad      +   0     *1    
   356          ?      2:bad      +   0.008 *0.992
   357          ?     1:good      +  *0.697  0.303
   358          ?      2:bad      +   0.001 *0.999
   359          ?      2:bad      +   0     *1    
   360          ?      2:bad      +   0     *1    
   361          ?     1:good      +  *0.791  0.209
   362          ?      2:bad      +   0     *1    
   363          ?      2:bad      +   0     *1    
   364          ?      2:bad      +   0.001 *0.999
   365          ?      2:bad      +   0     *1    
   366          ?     1:good      +  *0.791  0.209
   367          ?      2:bad      +   0     *1    
   368          ?      2:bad      +   0     *1    
   369          ?      2:bad      +   0.008 *0.992
   370          ?      2:bad      +   0.001 *0.999
   371          ?      2:bad      +   0     *1    
   372          ?      2:bad      +   0.009 *0.991
   373          ?      2:bad      +   0     *1    
   374          ?     1:good      +  *0.932  0.068
   375          ?      2:bad      +   0     *1    
   376          ?      2:bad      +   0.009 *0.991
   377          ?      2:bad      +   0     *1    
   378          ?     1:good      +  *0.786  0.214
   379          ?      2:bad      +   0     *1    
   380          ?      2:bad      +   0     *1    
   381          ?      2:bad      +   0     *1    
   382          ?      2:bad      +   0     *1    
   383          ?      2:bad      +   0     *1    
   384          ?      2:bad      +   0     *1    
   385          ?     1:good      +  *0.932  0.068
   386          ?      2:bad      +   0     *1    
   387          ?      2:bad      +   0     *1    
   388          ?      2:bad      +   0     *1    
   389          ?      2:bad      +   0     *1    
   390          ?      2:bad      +   0.001 *0.999
   391          ?     1:good      +  *0.786  0.214
   392          ?      2:bad      +   0     *1    
   393          ?      2:bad      +   0     *1    
   394          ?      2:bad      +   0     *1    
   395          ?      2:bad      +   0     *1    
   396          ?      2:bad      +   0.009 *0.991
   397          ?      2:bad      +   0     *1    
   398          ?      2:bad      +   0.008 *0.992
   399          ?      2:bad      +   0     *1    
   400          ?      2:bad      +   0.003 *0.997
   401          ?     1:good      +  *0.786  0.214
   402          ?      2:bad      +   0     *1    
   403          ?      2:bad      +   0     *1    
   404          ?      2:bad      +   0     *1    
   405          ?      2:bad      +   0.008 *0.992
   406          ?      2:bad      +   0     *1    
   407          ?      2:bad      +   0.001 *0.999
   408          ?      2:bad      +   0.004 *0.996
   409          ?      2:bad      +   0.001 *0.999
   410          ?     1:good      +  *0.786  0.214
   411          ?      2:bad      +   0     *1    
   412          ?     1:good      +  *0.791  0.209
   413          ?      2:bad      +   0     *1    
   414          ?      2:bad      +   0.009 *0.991
   415          ?      2:bad      +   0     *1    
   416          ?      2:bad      +   0     *1    
   417          ?      2:bad      +   0     *1    
   418          ?      2:bad      +   0.009 *0.991
   419          ?      2:bad      +   0.008 *0.992
   420          ?      2:bad      +   0.008 *0.992
   421          ?      2:bad      +   0     *1    
   422          ?     1:good      +  *0.786  0.214
   423          ?      2:bad      +   0     *1    
   424          ?      2:bad      +   0     *1    
   425          ?      2:bad      +   0     *1    
   426          ?      2:bad      +   0     *1    
   427          ?      2:bad      +   0     *1    
   428          ?      2:bad      +   0     *1    
   429          ?      2:bad      +   0     *1    
   430          ?      2:bad      +   0.008 *0.992
   431          ?      2:bad      +   0     *1    
   432          ?      2:bad      +   0     *1    
   433          ?      2:bad      +   0     *1    
   434          ?      2:bad      +   0.002 *0.998
   435          ?      2:bad      +   0     *1    
   436          ?      2:bad      +   0.001 *0.999
   437          ?      2:bad      +   0     *1    
   438          ?      2:bad      +   0     *1    
   439          ?     1:good      +  *0.791  0.209
   440          ?      2:bad      +   0     *1    
   441          ?      2:bad      +   0.009 *0.991
   442          ?      2:bad      +   0     *1    
   443          ?      2:bad      +   0     *1    
   444          ?      2:bad      +   0     *1    
   445          ?      2:bad      +   0     *1    
   446          ?     1:good      +  *0.791  0.209
   447          ?      2:bad      +   0     *1    
   448          ?      2:bad      +   0.002 *0.998
   449          ?     1:good      +  *0.932  0.068
   450          ?     1:good      +  *0.786  0.214
   451          ?      2:bad      +   0     *1    
   452          ?      2:bad      +   0     *1    
   453          ?      2:bad      +   0     *1    
   454          ?      2:bad      +   0.002 *0.998
   455          ?      2:bad      +   0.008 *0.992
   456          ?     1:good      +  *0.697  0.303
   457          ?     1:good      +  *0.932  0.068
   458          ?     1:good      +  *0.932  0.068
   459          ?      2:bad      +   0     *1    
   460          ?      2:bad      +   0     *1    
   461          ?      2:bad      +   0     *1    
   462          ?     1:good      +  *0.932  0.068
   463          ?      2:bad      +   0     *1    
   464          ?      2:bad      +   0     *1    
   465          ?     1:good      +  *0.932  0.068
   466          ?     1:good      +  *0.786  0.214
   467          ?      2:bad      +   0     *1    
   468          ?      2:bad      +   0     *1    
   469          ?      2:bad      +   0     *1    
   470          ?      2:bad      +   0.002 *0.998
   471          ?      2:bad      +   0     *1    
   472          ?     1:good      +  *0.786  0.214
   473          ?      2:bad      +   0     *1    
   474          ?      2:bad      +   0     *1    
   475          ?      2:bad      +   0     *1    
   476          ?      2:bad      +   0.009 *0.991
   477          ?      2:bad      +   0.002 *0.998
   478          ?      2:bad      +   0     *1    
   479          ?      2:bad      +   0     *1    
   480          ?      2:bad      +   0     *1    
   481          ?      2:bad      +   0     *1    
   482          ?      2:bad      +   0     *1    
   483          ?     1:good      +  *0.697  0.303
   484          ?      2:bad      +   0.002 *0.998
   485          ?      2:bad      +   0.008 *0.992
   486          ?      2:bad      +   0.008 *0.992
   487          ?      2:bad      +   0.001 *0.999
   488          ?     1:good      +  *0.709  0.291
   489          ?      2:bad      +   0     *1    
   490          ?      2:bad      +   0     *1    
   491          ?     1:good      +  *0.791  0.209
   492          ?      2:bad      +   0.002 *0.998
   493          ?      2:bad      +   0.008 *0.992
   494          ?      2:bad      +   0.001 *0.999
   495          ?      2:bad      +   0     *1    
   496          ?      2:bad      +   0     *1    
   497          ?      2:bad      +   0     *1    
   498          ?      2:bad      +   0.002 *0.998
   499          ?      2:bad      +   0.008 *0.992
   500          ?      2:bad      +   0     *1    
   501          ?      2:bad      +   0     *1    
   502          ?      2:bad      +   0     *1    
   503          ?     1:good      +  *0.697  0.303
   504          ?     1:good      +  *0.709  0.291
   505          ?     1:good      +  *0.932  0.068
   506          ?     1:good      +  *0.791  0.209
   507          ?      2:bad      +   0     *1    
   508          ?      2:bad      +   0.001 *0.999
   509          ?      2:bad      +   0     *1    
   510          ?      2:bad      +   0     *1    
   511          ?      2:bad      +   0     *1    
   512          ?      2:bad      +   0     *1    
   513          ?     1:good      +  *0.932  0.068
   514          ?      2:bad      +   0     *1    
   515          ?      2:bad      +   0     *1    
   516          ?      2:bad      +   0.009 *0.991
   517          ?      2:bad      +   0.002 *0.998
   518          ?      2:bad      +   0     *1    
   519          ?      2:bad      +   0     *1    
   520          ?      2:bad      +   0     *1    
   521          ?      2:bad      +   0     *1    
   522          ?      2:bad      +   0     *1    
   523          ?      2:bad      +   0.004 *0.996
   524          ?      2:bad      +   0     *1    
   525          ?      2:bad      +   0     *1    
   526          ?      2:bad      +   0     *1    
   527          ?      2:bad      +   0.008 *0.992
   528          ?      2:bad      +   0.001 *0.999
   529          ?     1:good      +  *0.709  0.291
   530          ?     1:good      +  *0.786  0.214
   531          ?      2:bad      +   0     *1    
   532          ?      2:bad      +   0     *1    
   533          ?      2:bad      +   0.008 *0.992
   534          ?     1:good      +  *0.786  0.214
   535          ?      2:bad      +   0     *1    
   536          ?      2:bad      +   0     *1    
   537          ?      2:bad      +   0     *1    
   538          ?      2:bad      +   0.002 *0.998
   539          ?      2:bad      +   0     *1    
   540          ?      2:bad      +   0.001 *0.999
   541          ?      2:bad      +   0     *1    
   542          ?      2:bad      +   0     *1    
   543          ?      2:bad      +   0     *1    
   544          ?      2:bad      +   0     *1    
   545          ?      2:bad      +   0     *1    
   546          ?      2:bad      +   0.008 *0.992
   547          ?      2:bad      +   0.001 *0.999
   548          ?     1:good      +  *0.932  0.068
   549          ?      2:bad      +   0.009 *0.991
   550          ?      2:bad      +   0     *1    
   551          ?      2:bad      +   0     *1    
   552          ?      2:bad      +   0     *1    
   553          ?      2:bad      +   0.001 *0.999
   554          ?     1:good      +  *0.697  0.303
   555          ?      2:bad      +   0     *1    
   556          ?      2:bad      +   0     *1    
   557          ?      2:bad      +   0     *1    
   558          ?      2:bad      +   0     *1    
   559          ?      2:bad      +   0     *1    
   560          ?      2:bad      +   0     *1    
   561          ?      2:bad      +   0     *1    
   562          ?     1:good      +  *0.791  0.209
   563          ?      2:bad      +   0.009 *0.991
   564          ?      2:bad      +   0     *1    
   565          ?      2:bad      +   0     *1    
   566          ?     1:good      +  *0.791  0.209
   567          ?      2:bad      +   0     *1    
   568          ?      2:bad      +   0     *1    
   569          ?      2:bad      +   0     *1    
   570          ?      2:bad      +   0     *1    
   571          ?     1:good      +  *0.791  0.209
   572          ?      2:bad      +   0.008 *0.992
   573          ?      2:bad      +   0     *1    
   574          ?     1:good      +  *0.697  0.303
   575          ?     1:good      +  *0.786  0.214
   576          ?      2:bad      +   0     *1    
   577          ?      2:bad      +   0     *1    
   578          ?      2:bad      +   0.009 *0.991
   579          ?      2:bad      +   0.01  *0.99 
   580          ?      2:bad      +   0     *1    
   581          ?      2:bad      +   0     *1    
   582          ?     1:good      +  *0.791  0.209
   583          ?      2:bad      +   0     *1    
   584          ?      2:bad      +   0     *1    
   585          ?      2:bad      +   0     *1    
   586          ?      2:bad      +   0     *1    
   587          ?      2:bad      +   0.001 *0.999
   588          ?      2:bad      +   0     *1    
   589          ?      2:bad      +   0     *1    
   590          ?      2:bad      +   0.001 *0.999
   591          ?      2:bad      +   0     *1    
   592          ?      2:bad      +   0     *1    
   593          ?      2:bad      +   0     *1    
   594          ?      2:bad      +   0     *1    
   595          ?      2:bad      +   0     *1    
   596          ?      2:bad      +   0.009 *0.991
   597          ?      2:bad      +   0     *1    
   598          ?     1:good      +  *0.932  0.068
   599          ?      2:bad      +   0     *1    
   600          ?      2:bad      +   0     *1    
   601          ?      2:bad      +   0     *1    
   602          ?     1:good      +  *0.791  0.209
   603          ?      2:bad      +   0     *1    
   604          ?      2:bad      +   0.009 *0.991
   605          ?      2:bad      +   0.002 *0.998
   606          ?      2:bad      +   0     *1    
   607          ?      2:bad      +   0     *1    
   608          ?      2:bad      +   0     *1    
   609          ?     1:good      +  *0.709  0.291
   610          ?      2:bad      +   0     *1    
   611          ?      2:bad      +   0     *1    
   612          ?     1:good      +  *0.791  0.209
   613          ?      2:bad      +   0.008 *0.992
   614          ?      2:bad      +   0     *1    
   615          ?     1:good      +  *0.709  0.291
   616          ?      2:bad      +   0     *1    
   617          ?      2:bad      +   0     *1    
   618          ?     1:good      +  *0.697  0.303
   619          ?      2:bad      +   0.001 *0.999
   620          ?      2:bad      +   0     *1    
   621          ?      2:bad      +   0     *1    
   622          ?      2:bad      +   0     *1    
   623          ?      2:bad      +   0.008 *0.992
   624          ?      2:bad      +   0     *1    
   625          ?      2:bad      +   0     *1    
   626          ?     1:good      +  *0.724  0.276
   627          ?      2:bad      +   0     *1    
   628          ?     1:good      +  *0.791  0.209
   629          ?      2:bad      +   0.009 *0.991
   630          ?      2:bad      +   0.002 *0.998
   631          ?     1:good      +  *0.709  0.291
   632          ?     1:good      +  *0.932  0.068
   633          ?      2:bad      +   0     *1    
   634          ?      2:bad      +   0     *1    
   635          ?      2:bad      +   0     *1    
   636          ?      2:bad      +   0.01  *0.99 
   637          ?      2:bad      +   0     *1    
   638          ?      2:bad      +   0     *1    
   639          ?      2:bad      +   0     *1    
   640          ?      2:bad      +   0.001 *0.999
   641          ?     1:good      +  *0.697  0.303
   642          ?      2:bad      +   0     *1    
   643          ?      2:bad      +   0     *1    
   644          ?      2:bad      +   0     *1    
   645          ?      2:bad      +   0     *1    
   646          ?      2:bad      +   0.002 *0.998
   647          ?      2:bad      +   0     *1    
   648          ?      2:bad      +   0.001 *0.999
   649          ?      2:bad      +   0     *1    
   650          ?      2:bad      +   0     *1    
   651          ?      2:bad      +   0     *1    
   652          ?      2:bad      +   0     *1    
   653          ?      2:bad      +   0.001 *0.999
   654          ?     1:good      +  *0.709  0.291
   655          ?      2:bad      +   0     *1    
   656          ?     1:good      +  *0.786  0.214
   657          ?      2:bad      +   0     *1    
   658          ?      2:bad      +   0     *1    
   659          ?      2:bad      +   0     *1    
   660          ?      2:bad      +   0     *1    
   661          ?      2:bad      +   0     *1    
   662          ?      2:bad      +   0     *1    
   663          ?     1:good      +  *0.697  0.303
   664          ?     1:good      +  *0.932  0.068
   665          ?     1:good      +  *0.786  0.214
   666          ?      2:bad      +   0     *1    
   667          ?      2:bad      +   0     *1    
   668          ?      2:bad      +   0     *1    
   669          ?      2:bad      +   0     *1    
   670          ?     1:good      +  *0.697  0.303
   671          ?     1:good      +  *0.709  0.291
   672          ?     1:good      +  *0.786  0.214
   673          ?      2:bad      +   0     *1    
   674          ?      2:bad      +   0     *1    
   675          ?      2:bad      +   0     *1    
   676          ?      2:bad      +   0.009 *0.991
   677          ?      2:bad      +   0     *1    
   678          ?      2:bad      +   0     *1    
   679          ?      2:bad      +   0     *1    
   680          ?      2:bad      +   0     *1    
   681          ?      2:bad      +   0     *1    
   682          ?      2:bad      +   0     *1    
   683          ?      2:bad      +   0     *1    
   684          ?      2:bad      +   0     *1    
   685          ?      2:bad      +   0.009 *0.991
   686          ?     1:good      +  *0.932  0.068
   687          ?     1:good      +  *0.786  0.214
   688          ?      2:bad      +   0     *1    
   689          ?     1:good      +  *0.791  0.209
   690          ?      2:bad      +   0     *1    
   691          ?      2:bad      +   0.009 *0.991
   692          ?      2:bad      +   0.002 *0.998
   693          ?      2:bad      +   0     *1    
   694          ?      2:bad      +   0     *1    
   695          ?      2:bad      +   0     *1    
   696          ?      2:bad      +   0.009 *0.991
   697          ?      2:bad      +   0     *1    
   698          ?      2:bad      +   0.008 *0.992
   699          ?      2:bad      +   0     *1    
   700          ?      2:bad      +   0     *1    
   701          ?      2:bad      +   0     *1    
   702          ?      2:bad      +   0     *1    
   703          ?     1:good      +  *0.791  0.209
   704          ?      2:bad      +   0     *1    
   705          ?     1:good      +  *0.709  0.291
   706          ?      2:bad      +   0     *1    
   707          ?      2:bad      +   0     *1    
   708          ?     1:good      +  *0.709  0.291
   709          ?      2:bad      +   0.001 *0.999
   710          ?     1:good      +  *0.932  0.068
   711          ?     1:good      +  *0.786  0.214
   712          ?     1:good      +  *0.791  0.209
   713          ?      2:bad      +   0     *1    
   714          ?      2:bad      +   0     *1    
   715          ?      2:bad      +   0.001 *0.999
   716          ?     1:good      +  *0.932  0.068
   717          ?      2:bad      +   0     *1    
   718          ?      2:bad      +   0     *1    
   719          ?      2:bad      +   0     *1    
   720          ?      2:bad      +   0.009 *0.991
   721          ?      2:bad      +   0     *1    
   722          ?      2:bad      +   0     *1    
   723          ?      2:bad      +   0     *1    
   724          ?      2:bad      +   0.008 *0.992
   725          ?      2:bad      +   0     *1    
   726          ?      2:bad      +   0     *1    
   727          ?      2:bad      +   0     *1    
   728          ?      2:bad      +   0     *1    
   729          ?      2:bad      +   0     *1    
   730          ?      2:bad      +   0     *1    
   731          ?      2:bad      +   0     *1    
   732          ?      2:bad      +   0.008 *0.992
   733          ?      2:bad      +   0     *1    
   734          ?     1:good      +  *0.932  0.068
   735          ?      2:bad      +   0     *1    
   736          ?      2:bad      +   0     *1    
   737          ?      2:bad      +   0     *1    
   738          ?     1:good      +  *0.791  0.209
   739          ?      2:bad      +   0.009 *0.991
   740          ?      2:bad      +   0     *1    
   741          ?      2:bad      +   0     *1    
   742          ?      2:bad      +   0     *1    
   743          ?      2:bad      +   0     *1    
   744          ?      2:bad      +   0     *1    
   745          ?      2:bad      +   0     *1    
   746          ?      2:bad      +   0     *1    
   747          ?      2:bad      +   0     *1    
   748          ?     1:good      +  *0.697  0.303
   749          ?      2:bad      +   0     *1    
   750          ?      2:bad      +   0     *1    
   751          ?      2:bad      +   0.008 *0.992
   752          ?      2:bad      +   0     *1    
   753          ?      2:bad      +   0     *1    
   754          ?      2:bad      +   0     *1    
   755          ?      2:bad      +   0     *1    
   756          ?      2:bad      +   0     *1    
   757          ?      2:bad      +   0     *1    
   758          ?      2:bad      +   0     *1    
   759          ?      2:bad      +   0     *1    
   760          ?      2:bad      +   0     *1    
   761          ?      2:bad      +   0     *1    
   762          ?      2:bad      +   0     *1    
   763          ?      2:bad      +   0     *1    
   764          ?      2:bad      +   0     *1    
   765          ?      2:bad      +   0.009 *0.991
   766          ?      2:bad      +   0.002 *0.998
   767          ?      2:bad      +   0.008 *0.992
   768          ?      2:bad      +   0     *1    
   769          ?      2:bad      +   0     *1    
   770          ?      2:bad      +   0     *1    
   771          ?      2:bad      +   0     *1    
   772          ?      2:bad      +   0     *1    
   773          ?      2:bad      +   0     *1    
   774          ?      2:bad      +   0     *1    
   775          ?      2:bad      +   0.009 *0.991
   776          ?      2:bad      +   0.008 *0.992
   777          ?     1:good      +  *0.697  0.303
   778          ?      2:bad      +   0     *1    
   779          ?      2:bad      +   0     *1    
   780          ?      2:bad      +   0     *1    
   781          ?      2:bad      +   0     *1    
   782          ?      2:bad      +   0     *1    
   783          ?      2:bad      +   0     *1    
   784          ?     1:good      +  *0.791  0.209
   785          ?      2:bad      +   0.002 *0.998
   786          ?      2:bad      +   0     *1    
   787          ?      2:bad      +   0.001 *0.999
   788          ?     1:good      +  *0.709  0.291
   789          ?     1:good      +  *0.786  0.214
   790          ?      2:bad      +   0     *1    
   791          ?      2:bad      +   0     *1    
   792          ?     1:good      +  *0.791  0.209
   793          ?      2:bad      +   0.008 *0.992
   794          ?      2:bad      +   0     *1    
   795          ?      2:bad      +   0     *1    
   796          ?      2:bad      +   0     *1    
   797          ?      2:bad      +   0.009 *0.991
   798          ?      2:bad      +   0     *1    
   799          ?      2:bad      +   0     *1    
   800          ?      2:bad      +   0     *1    
   801          ?      2:bad      +   0     *1    
   802          ?      2:bad      +   0.002 *0.998
   803          ?      2:bad      +   0.001 *0.999
   804          ?      2:bad      +   0     *1    
   805          ?      2:bad      +   0     *1    
   806          ?      2:bad      +   0     *1    
   807          ?      2:bad      +   0.001 *0.999
   808          ?      2:bad      +   0.01  *0.99 
   809          ?     1:good      +  *0.786  0.214
   810          ?      2:bad      +   0.009 *0.991
   811          ?      2:bad      +   0     *1    
   812          ?     1:good      +  *0.709  0.291
   813          ?      2:bad      +   0     *1    
   814          ?      2:bad      +   0     *1    
   815          ?     1:good      +  *0.791  0.209
   816          ?     1:good      +  *0.709  0.291
   817          ?     1:good      +  *0.791  0.209
   818          ?      2:bad      +   0     *1    
   819          ?      2:bad      +   0.008 *0.992
   820          ?      2:bad      +   0     *1    
   821          ?      2:bad      +   0     *1    
   822          ?      2:bad      +   0     *1    
   823          ?      2:bad      +   0     *1    
   824          ?      2:bad      +   0     *1    
   825          ?      2:bad      +   0     *1    
   826          ?      2:bad      +   0     *1    
   827          ?      2:bad      +   0.008 *0.992
   828          ?      2:bad      +   0     *1    
   829          ?      2:bad      +   0.003 *0.997
   830          ?      2:bad      +   0     *1    
   831          ?      2:bad      +   0.002 *0.998
   832          ?      2:bad      +   0     *1    
   833          ?      2:bad      +   0.008 *0.992
   834          ?      2:bad      +   0     *1    
   835          ?      2:bad      +   0     *1    
   836          ?     1:good      +  *0.791  0.209
   837          ?      2:bad      +   0     *1    
   838          ?      2:bad      +   0.009 *0.991
   839          ?      2:bad      +   0.001 *0.999
   840          ?      2:bad      +   0     *1    
   841          ?      2:bad      +   0     *1    
   842          ?      2:bad      +   0     *1    
   843          ?     1:good      +  *0.697  0.303
   844          ?      2:bad      +   0.001 *0.999
   845          ?     1:good      +  *0.786  0.214
   846          ?      2:bad      +   0     *1    
   847          ?      2:bad      +   0     *1    
   848          ?      2:bad      +   0     *1    
   849          ?      2:bad      +   0.009 *0.991
   850          ?      2:bad      +   0.008 *0.992
   851          ?      2:bad      +   0.008 *0.992
   852          ?     1:good      +  *0.932  0.068
   853          ?      2:bad      +   0.009 *0.991
   854          ?      2:bad      +   0.002 *0.998
   855          ?      2:bad      +   0     *1    
   856          ?      2:bad      +   0     *1    
   857          ?     1:good      +  *0.932  0.068
   858          ?      2:bad      +   0     *1    
   859          ?      2:bad      +   0     *1    
   860          ?      2:bad      +   0     *1    
   861          ?      2:bad      +   0     *1    
   862          ?     1:good      +  *0.791  0.209
   863          ?      2:bad      +   0.002 *0.998
   864          ?      2:bad      +   0     *1    
   865          ?      2:bad      +   0.008 *0.992
   866          ?     1:good      +  *0.932  0.068
   867          ?      2:bad      +   0     *1    
   868          ?      2:bad      +   0     *1    
   869          ?      2:bad      +   0     *1    
   870          ?      2:bad      +   0     *1    
   871          ?      2:bad      +   0.001 *0.999
   872          ?      2:bad      +   0     *1    
   873          ?      2:bad      +   0     *1    
   874          ?      2:bad      +   0     *1    
   875          ?     1:good      +  *0.791  0.209
   876          ?      2:bad      +   0     *1    
   877          ?      2:bad      +   0.002 *0.998
   878          ?     1:good      +  *0.697  0.303
   879          ?     1:good      +  *0.786  0.214
   880          ?      2:bad      +   0     *1    
   881          ?      2:bad      +   0     *1    
   882          ?      2:bad      +   0     *1    
   883          ?      2:bad      +   0     *1    
   884          ?      2:bad      +   0.117 *0.883
   885          ?      2:bad      +   0     *1    
   886          ?      2:bad      +   0     *1    
   887          ?      2:bad      +   0     *1    
   888          ?      2:bad      +   0     *1    
   889          ?      2:bad      +   0.001 *0.999
   890          ?     1:good      +  *0.709  0.291
   891          ?      2:bad      +   0     *1    
   892          ?      2:bad      +   0.001 *0.999
   893          ?      2:bad      +   0.008 *0.992
   894          ?      2:bad      +   0     *1    
   895          ?     1:good      +  *0.709  0.291
   896          ?      2:bad      +   0     *1    
   897          ?      2:bad      +   0     *1    
   898          ?     1:good      +  *0.697  0.303
   899          ?     1:good      +  *0.709  0.291
   900          ?      2:bad      +   0.001 *0.999
   901          ?      2:bad      +   0     *1    
   902          ?      2:bad      +   0     *1    
   903          ?      2:bad      +   0     *1    
   904          ?      2:bad      +   0     *1    
   905          ?     1:good      +  *0.786  0.214
   906          ?      2:bad      +   0     *1    
   907          ?      2:bad      +   0     *1    
   908          ?      2:bad      +   0     *1    
   909          ?      2:bad      +   0     *1    
   910          ?      2:bad      +   0     *1    
   911          ?      2:bad      +   0     *1    
   912          ?      2:bad      +   0     *1    
   913          ?      2:bad      +   0     *1    
   914          ?      2:bad      +   0.008 *0.992
   915          ?      2:bad      +   0     *1    
   916          ?      2:bad      +   0.001 *0.999
   917          ?      2:bad      +   0.001 *0.999
   918          ?     1:good      +  *0.786  0.214
   919          ?      2:bad      +   0     *1    
   920          ?      2:bad      +   0     *1    
   921          ?      2:bad      +   0.008 *0.992
   922          ?      2:bad      +   0     *1    
   923          ?     1:good      +  *0.697  0.303
   924          ?     1:good      +  *0.786  0.214
   925          ?      2:bad      +   0.009 *0.991
   926          ?      2:bad      +   0.008 *0.992
   927          ?      2:bad      +   0.001 *0.999
   928          ?      2:bad      +   0     *1    
   929          ?      2:bad      +   0     *1    
   930          ?      2:bad      +   0     *1    
   931          ?      2:bad      +   0.008 *0.992
   932          ?     1:good      +  *0.932  0.068
   933          ?      2:bad      +   0     *1    
   934          ?      2:bad      +   0     *1    
   935          ?      2:bad      +   0.008 *0.992
   936          ?     1:good      +  *0.932  0.068
   937          ?      2:bad      +   0     *1    
   938          ?      2:bad      +   0     *1    
   939          ?      2:bad      +   0.002 *0.998
   940          ?      2:bad      +   0     *1    
   941          ?      2:bad      +   0     *1    
   942          ?      2:bad      +   0.001 *0.999
   943          ?     1:good      +  *0.709  0.291
   944          ?      2:bad      +   0     *1    
   945          ?      2:bad      +   0     *1    
   946          ?      2:bad      +   0     *1    
   947          ?      2:bad      +   0.002 *0.998
   948          ?      2:bad      +   0     *1    
   949          ?     1:good      +  *0.697  0.303
   950          ?     1:good      +  *0.709  0.291
   951          ?      2:bad      +   0     *1    
   952          ?      2:bad      +   0     *1    
   953          ?      2:bad      +   0     *1    
   954          ?      2:bad      +   0     *1    
   955          ?      2:bad      +   0     *1    
   956          ?      2:bad      +   0     *1    
   957          ?      2:bad      +   0     *1    
   958          ?      2:bad      +   0     *1    
   959          ?     1:good      +  *0.791  0.209
   960          ?      2:bad      +   0     *1    
   961          ?      2:bad      +   0.009 *0.991
   962          ?      2:bad      +   0     *1    
   963          ?      2:bad      +   0.001 *0.999
   964          ?      2:bad      +   0     *1    
   965          ?      2:bad      +   0     *1    
   966          ?      2:bad      +   0     *1    
   967          ?      2:bad      +   0.009 *0.991
   968          ?      2:bad      +   0.009 *0.991
   969          ?      2:bad      +   0     *1    
   970          ?      2:bad      +   0     *1    
   971          ?      2:bad      +   0.002 *0.998
   972          ?      2:bad      +   0     *1    
   973          ?      2:bad      +   0.008 *0.992
   974          ?     1:good      +  *0.709  0.291
   975          ?      2:bad      +   0     *1    
   976          ?      2:bad      +   0     *1    
   977          ?      2:bad      +   0     *1    
   978          ?      2:bad      +   0     *1    
   979          ?      2:bad      +   0     *1    
   980          ?      2:bad      +   0     *1    
   981          ?      2:bad      +   0     *1    
   982          ?      2:bad      +   0     *1    
   983          ?      2:bad      +   0.008 *0.992
   984          ?      2:bad      +   0.004 *0.996
   985          ?      2:bad      +   0.01  *0.99 
   986          ?      2:bad      +   0     *1    
   987          ?     1:good      +  *0.791  0.209
   988          ?      2:bad      +   0     *1    
   989          ?      2:bad      +   0     *1    
   990          ?      2:bad      +   0     *1    
   991          ?      2:bad      +   0     *1    
   992          ?      2:bad      +   0.001 *0.999
   993          ?     1:good      +  *0.697  0.303
   994          ?      2:bad      +   0     *1    
   995          ?      2:bad      +   0.002 *0.998
   996          ?      2:bad      +   0.008 *0.992
   997          ?      2:bad      +   0     *1    
   998          ?      2:bad      +   0.001 *0.999
   999          ?      2:bad      +   0     *1    
  1000          ?      2:bad      +   0.009 *0.991
  1001          ?      2:bad      +   0     *1    
  1002          ?      2:bad      +   0     *1    
  1003          ?      2:bad      +   0.009 *0.991
  1004          ?      2:bad      +   0     *1    
  1005          ?      2:bad      +   0.008 *0.992
  1006          ?      2:bad      +   0     *1    
  1007          ?      2:bad      +   0.001 *0.999
  1008          ?     1:good      +  *0.709  0.291
  1009          ?      2:bad      +   0     *1    
  1010          ?      2:bad      +   0     *1    
  1011          ?      2:bad      +   0.002 *0.998
  1012          ?      2:bad      +   0     *1    
  1013          ?      2:bad      +   0.008 *0.992
  1014          ?      2:bad      +   0     *1    
  1015          ?     1:good      +  *0.791  0.209
  1016          ?      2:bad      +   0     *1    
  1017          ?      2:bad      +   0.002 *0.998
  1018          ?      2:bad      +   0     *1    
  1019          ?      2:bad      +   0.008 *0.992
  1020          ?      2:bad      +   0     *1    
  1021          ?      2:bad      +   0.001 *0.999
  1022          ?     1:good      +  *0.932  0.068
  1023          ?      2:bad      +   0.002 *0.998
  1024          ?      2:bad      +   0     *1    
  1025          ?     1:good      +  *0.786  0.214
  1026          ?      2:bad      +   0     *1    
  1027          ?      2:bad      +   0     *1    
  1028          ?      2:bad      +   0     *1    
  1029          ?      2:bad      +   0     *1    
  1030          ?      2:bad      +   0     *1    
  1031          ?      2:bad      +   0     *1    
  1032          ?      2:bad      +   0     *1    
  1033          ?      2:bad      +   0.001 *0.999
  1034          ?     1:good      +  *0.791  0.209
  1035          ?      2:bad      +   0     *1    
  1036          ?      2:bad      +   0     *1    
  1037          ?     1:good      +  *0.709  0.291
  1038          ?     1:good      +  *0.791  0.209
  1039          ?     1:good      +  *0.786  0.214
  1040          ?     1:good      +  *0.791  0.209
  1041          ?      2:bad      +   0     *1    
  1042          ?      2:bad      +   0.008 *0.992
  1043          ?      2:bad      +   0.008 *0.992
  1044          ?     1:good      +  *0.697  0.303
  1045          ?     1:good      +  *0.709  0.291
  1046          ?     1:good      +  *0.786  0.214
  1047          ?      2:bad      +   0     *1    
  1048          ?      2:bad      +   0     *1    
  1049          ?      2:bad      +   0     *1    
  1050          ?      2:bad      +   0     *1    
  1051          ?     1:good      +  *0.786  0.214
  1052          ?      2:bad      +   0     *1    
  1053          ?      2:bad      +   0.002 *0.998
  1054          ?     1:good      +  *0.697  0.303
  1055          ?     1:good      +  *0.709  0.291
  1056          ?      2:bad      +   0.001 *0.999
  1057          ?      2:bad      +   0     *1    
  1058          ?      2:bad      +   0     *1    
  1059          ?      2:bad      +   0     *1    
  1060          ?     1:good      +  *0.786  0.214
  1061          ?      2:bad      +   0     *1    
  1062          ?      2:bad      +   0     *1    
  1063          ?      2:bad      +   0     *1    
  1064          ?      2:bad      +   0.008 *0.992
  1065          ?      2:bad      +   0.001 *0.999
  1066          ?      2:bad      +   0     *1    
  1067          ?      2:bad      +   0.008 *0.992
  1068          ?      2:bad      +   0     *1    
  1069          ?     1:good      +  *0.791  0.209
  1070          ?      2:bad      +   0.001 *0.999
  1071          ?      2:bad      +   0     *1    
  1072          ?      2:bad      +   0     *1    
  1073          ?     1:good      +  *0.791  0.209
  1074          ?      2:bad      +   0     *1    
  1075          ?      2:bad      +   0     *1    
  1076          ?      2:bad      +   0     *1    
  1077          ?      2:bad      +   0     *1    
  1078          ?      2:bad      +   0     *1    
  1079          ?      2:bad      +   0     *1    
  1080          ?      2:bad      +   0     *1    
  1081          ?     1:good      +  *0.697  0.303
  1082          ?     1:good      +  *0.932  0.068
  1083          ?     1:good      +  *0.786  0.214
  1084          ?      2:bad      +   0     *1    
  1085          ?      2:bad      +   0     *1    
  1086          ?      2:bad      +   0     *1    
  1087          ?      2:bad      +   0     *1    
  1088          ?      2:bad      +   0     *1    
  1089          ?      2:bad      +   0     *1    
  1090          ?      2:bad      +   0     *1    
  1091          ?      2:bad      +   0.001 *0.999
  1092          ?      2:bad      +   0     *1    
  1093          ?      2:bad      +   0     *1    
  1094          ?      2:bad      +   0     *1    
  1095          ?     1:good      +  *0.791  0.209
  1096          ?      2:bad      +   0.002 *0.998
  1097          ?      2:bad      +   0     *1    
  1098          ?      2:bad      +   0     *1    
  1099          ?      2:bad      +   0     *1    
  1100          ?     1:good      +  *0.791  0.209
  1101          ?      2:bad      +   0     *1    
  1102          ?      2:bad      +   0.008 *0.992
  1103          ?     1:good      +  *0.786  0.214
  1104          ?      2:bad      +   0     *1    
  1105          ?      2:bad      +   0     *1    
  1106          ?      2:bad      +   0     *1    
  1107          ?      2:bad      +   0     *1    
  1108          ?      2:bad      +   0     *1    
  1109          ?      2:bad      +   0     *1    
  1110          ?      2:bad      +   0     *1    
  1111          ?      2:bad      +   0.001 *0.999
  1112          ?      2:bad      +   0.001 *0.999
  1113          ?      2:bad      +   0     *1    
  1114          ?      2:bad      +   0     *1    
  1115          ?      2:bad      +   0     *1    
  1116          ?      2:bad      +   0.008 *0.992
  1117          ?      2:bad      +   0     *1    
  1118          ?     1:good      +  *0.932  0.068
  1119          ?      2:bad      +   0     *1    
  1120          ?      2:bad      +   0     *1    
  1121          ?      2:bad      +   0.001 *0.999
  1122          ?      2:bad      +   0     *1    
  1123          ?      2:bad      +   0     *1    
  1124          ?      2:bad      +   0.009 *0.991
  1125          ?      2:bad      +   0.008 *0.992
  1126          ?      2:bad      +   0.001 *0.999
  1127          ?     1:good      +  *0.786  0.214
  1128          ?      2:bad      +   0     *1    
  1129          ?      2:bad      +   0     *1    
  1130          ?      2:bad      +   0     *1    
  1131          ?      2:bad      +   0.008 *0.992
  1132          ?      2:bad      +   0.001 *0.999
  1133          ?     1:good      +  *0.932  0.068
  1134          ?      2:bad      +   0     *1    
  1135          ?      2:bad      +   0.002 *0.998
  1136          ?      2:bad      +   0     *1    
  1137          ?      2:bad      +   0     *1    
  1138          ?     1:good      +  *0.791  0.209
  1139          ?      2:bad      +   0     *1    
  1140          ?      2:bad      +   0.001 *0.999
  1141          ?     1:good      +  *0.709  0.291
  1142          ?      2:bad      +   0     *1    
  1143          ?      2:bad      +   0.008 *0.992
  1144          ?      2:bad      +   0     *1    
  1145          ?     1:good      +  *0.709  0.291
  1146          ?      2:bad      +   0     *1    
  1147          ?      2:bad      +   0     *1    
  1148          ?      2:bad      +   0.009 *0.991
  1149          ?      2:bad      +   0.008 *0.992
  1150          ?      2:bad      +   0.01  *0.99 
  1151          ?      2:bad      +   0     *1    
  1152          ?     1:good      +  *0.791  0.209
  1153          ?      2:bad      +   0     *1    
  1154          ?      2:bad      +   0     *1    
  1155          ?      2:bad      +   0.008 *0.992
  1156          ?     1:good      +  *0.932  0.068
  1157          ?     1:good      +  *0.786  0.214
  1158          ?      2:bad      +   0     *1    
  1159          ?      2:bad      +   0.001 *0.999
  1160          ?      2:bad      +   0     *1    
  1161          ?      2:bad      +   0     *1    
  1162          ?      2:bad      +   0     *1    
  1163          ?      2:bad      +   0     *1    
  1164          ?      2:bad      +   0     *1    
  1165          ?     1:good      +  *0.709  0.291
  1166          ?      2:bad      +   0     *1    
  1167          ?      2:bad      +   0     *1    
  1168          ?      2:bad      +   0     *1    
  1169          ?      2:bad      +   0     *1    
  1170          ?      2:bad      +   0     *1    
  1171          ?     1:good      +  *0.791  0.209
  1172          ?      2:bad      +   0     *1    
  1173          ?      2:bad      +   0.002 *0.998
  1174          ?      2:bad      +   0     *1    
  1175          ?     1:good      +  *0.709  0.291
  1176          ?     1:good      +  *0.932  0.068
  1177          ?      2:bad      +   0     *1    
  1178          ?      2:bad      +   0     *1    
  1179          ?      2:bad      +   0     *1    
  1180          ?      2:bad      +   0     *1    
  1181          ?      2:bad      +   0.001 *0.999
  1182          ?      2:bad      +   0     *1    
  1183          ?      2:bad      +   0     *1    
  1184          ?      2:bad      +   0     *1    
  1185          ?      2:bad      +   0     *1    
  1186          ?      2:bad      +   0     *1    
  1187          ?      2:bad      +   0.009 *0.991
  1188          ?      2:bad      +   0     *1    
  1189          ?      2:bad      +   0.008 *0.992
  1190          ?     1:good      +  *0.786  0.214
  1191          ?      2:bad      +   0     *1    
  1192          ?      2:bad      +   0     *1    
  1193          ?      2:bad      +   0     *1    
  1194          ?      2:bad      +   0     *1    
  1195          ?      2:bad      +   0.009 *0.991
  1196          ?     1:good      +  *0.709  0.291
  1197          ?      2:bad      +   0.001 *0.999
  1198          ?     1:good      +  *0.932  0.068
  1199          ?      2:bad      +   0     *1    
  1200          ?      2:bad      +   0     *1    
  1201          ?      2:bad      +   0.002 *0.998
  1202          ?      2:bad      +   0     *1    
  1203          ?      2:bad      +   0     *1    
  1204          ?      2:bad      +   0     *1    
  1205          ?      2:bad      +   0.009 *0.991
  1206          ?      2:bad      +   0     *1    
  1207          ?      2:bad      +   0     *1    
  1208          ?      2:bad      +   0     *1    
  1209          ?      2:bad      +   0     *1    
  1210          ?     1:good      +  *0.791  0.209
  1211          ?      2:bad      +   0     *1    
  1212          ?      2:bad      +   0     *1    
  1213          ?      2:bad      +   0     *1    
  1214          ?     1:good      +  *0.932  0.068
  1215          ?      2:bad      +   0     *1    
  1216          ?      2:bad      +   0     *1    
  1217          ?      2:bad      +   0     *1    
  1218          ?      2:bad      +   0.01  *0.99 
  1219          ?      2:bad      +   0     *1    
  1220          ?      2:bad      +   0     *1    
  1221          ?     1:good      +  *0.697  0.303
  1222          ?      2:bad      +   0     *1    
  1223          ?      2:bad      +   0.009 *0.991
  1224          ?      2:bad      +   0.008 *0.992
  1225          ?      2:bad      +   0     *1    
  1226          ?      2:bad      +   0     *1    
  1227          ?      2:bad      +   0     *1    
  1228          ?      2:bad      +   0     *1    
  1229          ?      2:bad      +   0     *1    
  1230          ?      2:bad      +   0     *1    
  1231          ?      2:bad      +   0     *1    
  1232          ?      2:bad      +   0.009 *0.991
  1233          ?      2:bad      +   0     *1    
  1234          ?      2:bad      +   0     *1    
  1235          ?      2:bad      +   0     *1    
  1236          ?      2:bad      +   0     *1    
  1237          ?      2:bad      +   0     *1    
  1238          ?      2:bad      +   0     *1    
  1239          ?     1:good      +  *0.786  0.214
  1240          ?      2:bad      +   0     *1    
  1241          ?      2:bad      +   0     *1    
  1242          ?      2:bad      +   0     *1    
  1243          ?      2:bad      +   0     *1    
  1244          ?     1:good      +  *0.932  0.068
  1245          ?      2:bad      +   0     *1    
  1246          ?      2:bad      +   0     *1    
  1247          ?     1:good      +  *0.791  0.209
  1248          ?      2:bad      +   0     *1    
  1249          ?      2:bad      +   0.008 *0.992
  1250          ?      2:bad      +   0.01  *0.99 
  1251          ?      2:bad      +   0     *1    
  1252          ?      2:bad      +   0     *1    
  1253          ?      2:bad      +   0     *1    
  1254          ?      2:bad      +   0.008 *0.992
  1255          ?      2:bad      +   0     *1    
  1256          ?      2:bad      +   0     *1    
  1257          ?      2:bad      +   0.001 *0.999
  1258          ?      2:bad      +   0.01  *0.99 
  1259          ?      2:bad      +   0     *1    
  1260          ?      2:bad      +   0     *1    
  1261          ?      2:bad      +   0     *1    
  1262          ?     1:good      +  *0.709  0.291
  1263          ?      2:bad      +   0.001 *0.999
  1264          ?      2:bad      +   0     *1    
  1265          ?      2:bad      +   0     *1    
  1266          ?      2:bad      +   0     *1    
  1267          ?      2:bad      +   0     *1    
  1268          ?      2:bad      +   0     *1    
  1269          ?      2:bad      +   0     *1    
  1270          ?     1:good      +  *0.709  0.291
  1271          ?      2:bad      +   0.001 *0.999
  1272          ?      2:bad      +   0     *1    
  1273          ?      2:bad      +   0     *1    
  1274          ?      2:bad      +   0     *1    
  1275          ?     1:good      +  *0.932  0.068
  1276          ?      2:bad      +   0     *1    
  1277          ?      2:bad      +   0     *1    
  1278          ?      2:bad      +   0     *1    
  1279          ?     1:good      +  *0.786  0.214
  1280          ?      2:bad      +   0     *1    
  1281          ?      2:bad      +   0     *1    
  1282          ?      2:bad      +   0     *1    
  1283          ?      2:bad      +   0.008 *0.992
  1284          ?      2:bad      +   0     *1    
  1285          ?      2:bad      +   0     *1    
  1286          ?      2:bad      +   0     *1    
  1287          ?      2:bad      +   0     *1    
  1288          ?      2:bad      +   0     *1    
  1289          ?      2:bad      +   0     *1    
  1290          ?      2:bad      +   0     *1    
  1291          ?      2:bad      +   0     *1    
  1292          ?      2:bad      +   0.001 *0.999
  1293          ?      2:bad      +   0     *1    
  1294          ?      2:bad      +   0     *1    
  1295          ?      2:bad      +   0     *1    
  1296          ?      2:bad      +   0.002 *0.998
  1297          ?      2:bad      +   0     *1    
  1298          ?      2:bad      +   0     *1    
  1299          ?     1:good      +  *0.709  0.291
  1300          ?      2:bad      +   0.001 *0.999
  1301          ?      2:bad      +   0     *1    
  1302          ?      2:bad      +   0     *1    
  1303          ?      2:bad      +   0     *1    
  1304          ?      2:bad      +   0     *1    
  1305          ?     1:good      +  *0.932  0.068
  1306          ?      2:bad      +   0     *1    
  1307          ?      2:bad      +   0     *1    
  1308          ?      2:bad      +   0     *1    
  1309          ?     1:good      +  *0.932  0.068
  1310          ?      2:bad      +   0     *1    
  1311          ?      2:bad      +   0.008 *0.992
  1312          ?      2:bad      +   0.117 *0.883
  1313          ?      2:bad      +   0.009 *0.991
  1314          ?      2:bad      +   0.002 *0.998
  1315          ?      2:bad      +   0     *1    
  1316          ?      2:bad      +   0     *1    
  1317          ?      2:bad      +   0     *1    
  1318          ?      2:bad      +   0     *1    
  1319          ?      2:bad      +   0     *1    
  1320          ?      2:bad      +   0.008 *0.992
  1321          ?      2:bad      +   0     *1    
  1322          ?      2:bad      +   0.001 *0.999
  1323          ?     1:good      +  *0.786  0.214
  1324          ?      2:bad      +   0     *1    
  1325          ?     1:good      +  *0.791  0.209
  1326          ?      2:bad      +   0     *1    
  1327          ?      2:bad      +   0.001 *0.999
  1328          ?     1:good      +  *0.709  0.291
  1329          ?     1:good      +  *0.932  0.068
  1330          ?      2:bad      +   0     *1    
  1331          ?     1:good      +  *0.791  0.209
  1332          ?      2:bad      +   0     *1    
  1333          ?      2:bad      +   0     *1    
  1334          ?      2:bad      +   0.002 *0.998
  1335          ?      2:bad      +   0     *1    
  1336          ?     1:good      +  *0.932  0.068
  1337          ?      2:bad      +   0     *1    
  1338          ?      2:bad      +   0     *1    
  1339          ?      2:bad      +   0     *1    
  1340          ?      2:bad      +   0     *1    
  1341          ?      2:bad      +   0     *1    
  1342          ?      2:bad      +   0.008 *0.992
  1343          ?      2:bad      +   0     *1    
  1344          ?      2:bad      +   0     *1    
  1345          ?      2:bad      +   0     *1    
  1346          ?      2:bad      +   0     *1    
  1347          ?      2:bad      +   0     *1    
  1348          ?      2:bad      +   0     *1    
  1349          ?      2:bad      +   0     *1    
  1350          ?      2:bad      +   0.001 *0.999
  1351          ?      2:bad      +   0     *1    
  1352          ?      2:bad      +   0     *1    
  1353          ?      2:bad      +   0     *1    
  1354          ?      2:bad      +   0     *1    
  1355          ?      2:bad      +   0.008 *0.992
  1356          ?      2:bad      +   0     *1    
  1357          ?      2:bad      +   0.001 *0.999
  1358          ?      2:bad      +   0     *1    
  1359          ?      2:bad      +   0     *1    
  1360          ?      2:bad      +   0     *1    
  1361          ?     1:good      +  *0.697  0.303
  1362          ?      2:bad      +   0     *1    
  1363          ?      2:bad      +   0     *1    
  1364          ?      2:bad      +   0.009 *0.991
  1365          ?     1:good      +  *0.786  0.214
  1366          ?      2:bad      +   0     *1    
  1367          ?      2:bad      +   0     *1    
  1368          ?      2:bad      +   0     *1    
  1369          ?      2:bad      +   0.009 *0.991
  1370          ?      2:bad      +   0     *1    
  1371          ?      2:bad      +   0.001 *0.999
  1372          ?     1:good      +  *0.791  0.209
  1373          ?      2:bad      +   0     *1    
  1374          ?      2:bad      +   0     *1    
  1375          ?      2:bad      +   0     *1    
  1376          ?     1:good      +  *0.709  0.291
  1377          ?      2:bad      +   0     *1    
  1378          ?      2:bad      +   0.008 *0.992
  1379          ?      2:bad      +   0     *1    
  1380          ?      2:bad      +   0.001 *0.999
  1381          ?     1:good      +  *0.932  0.068
  1382          ?     1:good      +  *0.786  0.214
  1383          ?      2:bad      +   0     *1    
  1384          ?     1:good      +  *0.791  0.209
  1385          ?      2:bad      +   0     *1    
  1386          ?      2:bad      +   0.009 *0.991
  1387          ?      2:bad      +   0     *1    
  1388          ?      2:bad      +   0     *1    
  1389          ?      2:bad      +   0.001 *0.999
  1390          ?     1:good      +  *0.786  0.214
  1391          ?      2:bad      +   0     *1    
  1392          ?      2:bad      +   0     *1    
  1393          ?     1:good      +  *0.791  0.209
  1394          ?      2:bad      +   0     *1    
  1395          ?      2:bad      +   0.009 *0.991
  1396          ?      2:bad      +   0.008 *0.992
  1397          ?      2:bad      +   0.001 *0.999
  1398          ?      2:bad      +   0     *1    
  1399          ?      2:bad      +   0.008 *0.992
  1400          ?      2:bad      +   0.001 *0.999
  1401          ?     1:good      +  *0.709  0.291
  1402          ?     1:good      +  *0.932  0.068
  1403          ?      2:bad      +   0     *1    
  1404          ?      2:bad      +   0     *1    
  1405          ?      2:bad      +   0     *1    
  1406          ?      2:bad      +   0.008 *0.992
  1407          ?      2:bad      +   0.008 *0.992
  1408          ?      2:bad      +   0     *1    
  1409          ?      2:bad      +   0     *1    
  1410          ?      2:bad      +   0     *1    
  1411          ?      2:bad      +   0     *1    
  1412          ?     1:good      +  *0.791  0.209
  1413          ?      2:bad      +   0     *1    
  1414          ?      2:bad      +   0.001 *0.999
  1415          ?     1:good      +  *0.786  0.214
  1416          ?      2:bad      +   0     *1    
  1417          ?      2:bad      +   0     *1    
  1418          ?      2:bad      +   0     *1    
  1419          ?      2:bad      +   0     *1    
  1420          ?      2:bad      +   0.009 *0.991
  1421          ?      2:bad      +   0     *1    
  1422          ?      2:bad      +   0     *1    
  1423          ?      2:bad      +   0     *1    
  1424          ?      2:bad      +   0     *1    
  1425          ?      2:bad      +   0.001 *0.999
  1426          ?      2:bad      +   0     *1    
  1427          ?      2:bad      +   0     *1    
  1428          ?      2:bad      +   0     *1    
  1429          ?      2:bad      +   0.008 *0.992
  1430          ?      2:bad      +   0.001 *0.999
  1431          ?      2:bad      +   0.003 *0.997
  1432          ?      2:bad      +   0     *1    
  1433          ?      2:bad      +   0     *1    
  1434          ?      2:bad      +   0     *1    
  1435          ?     1:good      +  *0.791  0.209
  1436          ?      2:bad      +   0     *1    
  1437          ?      2:bad      +   0.002 *0.998
  1438          ?      2:bad      +   0     *1    
  1439          ?      2:bad      +   0     *1    
  1440          ?      2:bad      +   0.001 *0.999
  1441          ?      2:bad      +   0.001 *0.999
  1442          ?      2:bad      +   0     *1    
  1443          ?      2:bad      +   0     *1    
  1444          ?      2:bad      +   0     *1    
  1445          ?      2:bad      +   0.008 *0.992
  1446          ?      2:bad      +   0.004 *0.996
  1447          ?      2:bad      +   0     *1    
  1448          ?      2:bad      +   0     *1    
  1449          ?      2:bad      +   0.009 *0.991
  1450          ?      2:bad      +   0     *1    
  1451          ?     1:good      +  *0.932  0.068
  1452          ?      2:bad      +   0     *1    
  1453          ?      2:bad      +   0     *1    
  1454          ?      2:bad      +   0     *1    
  1455          ?      2:bad      +   0     *1    
  1456          ?      2:bad      +   0     *1    
  1457          ?      2:bad      +   0     *1    
  1458          ?      2:bad      +   0     *1    
  1459          ?      2:bad      +   0.001 *0.999
  1460          ?     1:good      +  *0.932  0.068
  1461          ?     1:good      +  *0.786  0.214
  1462          ?      2:bad      +   0     *1    
  1463          ?     1:good      +  *0.791  0.209
  1464          ?      2:bad      +   0.009 *0.991
  1465          ?      2:bad      +   0.001 *0.999
  1466          ?      2:bad      +   0     *1    
  1467          ?      2:bad      +   0.009 *0.991
  1468          ?      2:bad      +   0     *1    
  1469          ?      2:bad      +   0     *1    
  1470          ?      2:bad      +   0     *1    
  1471          ?     1:good      +  *0.791  0.209
  1472          ?      2:bad      +   0     *1    
  1473          ?      2:bad      +   0     *1    
  1474          ?      2:bad      +   0     *1    
  1475          ?      2:bad      +   0     *1    
  1476          ?      2:bad      +   0     *1    
  1477          ?      2:bad      +   0     *1    
  1478          ?      2:bad      +   0     *1    
  1479          ?      2:bad      +   0     *1    
  1480          ?      2:bad      +   0     *1    
  1481          ?      2:bad      +   0.008 *0.992
  1482          ?      2:bad      +   0     *1    
  1483          ?      2:bad      +   0     *1    
  1484          ?      2:bad      +   0.001 *0.999
  1485          ?     1:good      +  *0.932  0.068
  1486          ?      2:bad      +   0     *1    
  1487          ?      2:bad      +   0     *1    
  1488          ?      2:bad      +   0     *1    
  1489          ?     1:good      +  *0.791  0.209
  1490          ?      2:bad      +   0     *1    
  1491          ?      2:bad      +   0.008 *0.992
  1492          ?     1:good      +  *0.932  0.068
  1493          ?      2:bad      +   0     *1    
  1494          ?      2:bad      +   0     *1    
  1495          ?      2:bad      +   0     *1    
  1496          ?      2:bad      +   0.009 *0.991
  1497          ?     1:good      +  *0.786  0.214
  1498          ?      2:bad      +   0     *1    
  1499          ?      2:bad      +   0.002 *0.998
  1500          ?      2:bad      +   0     *1    
  1501          ?      2:bad      +   0     *1    
  1502          ?      2:bad      +   0     *1    
  1503          ?      2:bad      +   0     *1    
  1504          ?     1:good      +  *0.791  0.209
  1505          ?      2:bad      +   0.009 *0.991
  1506          ?      2:bad      +   0     *1    
  1507          ?      2:bad      +   0     *1    
  1508          ?      2:bad      +   0     *1    
  1509          ?     1:good      +  *0.697  0.303
  1510          ?     1:good      +  *0.709  0.291
  1511          ?     1:good      +  *0.932  0.068
  1512          ?      2:bad      +   0     *1    
  1513          ?      2:bad      +   0     *1    
  1514          ?      2:bad      +   0     *1    
  1515          ?      2:bad      +   0     *1    
  1516          ?      2:bad      +   0     *1    
  1517          ?      2:bad      +   0     *1    
  1518          ?      2:bad      +   0     *1    
  1519          ?      2:bad      +   0.001 *0.999
  1520          ?      2:bad      +   0     *1    
  1521          ?      2:bad      +   0.009 *0.991
  1522          ?      2:bad      +   0.008 *0.992
  1523          ?      2:bad      +   0.008 *0.992
  1524          ?      2:bad      +   0     *1    
  1525          ?      2:bad      +   0     *1    
  1526          ?      2:bad      +   0     *1    
  1527          ?     1:good      +  *0.791  0.209
  1528          ?      2:bad      +   0.009 *0.991
  1529          ?      2:bad      +   0.002 *0.998
  1530          ?      2:bad      +   0.001 *0.999
  1531          ?      2:bad      +   0     *1    
  1532          ?      2:bad      +   0     *1    
  1533          ?      2:bad      +   0     *1    
  1534          ?      2:bad      +   0     *1    
  1535          ?      2:bad      +   0     *1    
  1536          ?      2:bad      +   0     *1    
  1537          ?      2:bad      +   0     *1    
  1538          ?      2:bad      +   0     *1    
  1539          ?      2:bad      +   0.009 *0.991
  1540          ?      2:bad      +   0.002 *0.998
  1541          ?      2:bad      +   0     *1    
  1542          ?      2:bad      +   0     *1    
  1543          ?      2:bad      +   0     *1    
  1544          ?      2:bad      +   0     *1    
  1545          ?     1:good      +  *0.709  0.291
  1546          ?      2:bad      +   0     *1    
  1547          ?      2:bad      +   0     *1    
  1548          ?      2:bad      +   0     *1    
  1549          ?      2:bad      +   0     *1    
  1550          ?      2:bad      +   0     *1    
  1551          ?      2:bad      +   0.001 *0.999
  1552          ?     1:good      +  *0.786  0.214
  1553          ?      2:bad      +   0     *1    
  1554          ?      2:bad      +   0     *1    
  1555          ?      2:bad      +   0.009 *0.991
  1556          ?      2:bad      +   0     *1    
  1557          ?      2:bad      +   0.001 *0.999
  1558          ?     1:good      +  *0.786  0.214
  1559          ?      2:bad      +   0     *1    
  1560          ?      2:bad      +   0     *1    
  1561          ?      2:bad      +   0     *1    
  1562          ?      2:bad      +   0     *1    
  1563          ?     1:good      +  *0.932  0.068
  1564          ?      2:bad      +   0     *1    
  1565          ?      2:bad      +   0     *1    
  1566          ?      2:bad      +   0     *1    
  1567          ?      2:bad      +   0     *1    
  1568          ?      2:bad      +   0     *1    
  1569          ?      2:bad      +   0     *1    
  1570          ?      2:bad      +   0.009 *0.991
  1571          ?      2:bad      +   0     *1    
  1572          ?      2:bad      +   0     *1    
  1573          ?      2:bad      +   0.001 *0.999
  1574          ?      2:bad      +   0     *1    
  1575          ?      2:bad      +   0     *1    
  1576          ?      2:bad      +   0     *1    
  1577          ?     1:good      +  *0.786  0.214
  1578          ?      2:bad      +   0     *1    
  1579          ?      2:bad      +   0     *1    
  1580          ?      2:bad      +   0     *1    
  1581          ?      2:bad      +   0     *1    
  1582          ?      2:bad      +   0     *1    
  1583          ?      2:bad      +   0.008 *0.992
  1584          ?     1:good      +  *0.786  0.214
  1585          ?      2:bad      +   0     *1    
  1586          ?      2:bad      +   0     *1    
  1587          ?      2:bad      +   0     *1    
  1588          ?      2:bad      +   0.002 *0.998
  1589          ?      2:bad      +   0.008 *0.992
  1590          ?      2:bad      +   0     *1    
  1591          ?      2:bad      +   0     *1    
  1592          ?      2:bad      +   0.001 *0.999
  1593          ?      2:bad      +   0     *1    
  1594          ?     1:good      +  *0.791  0.209
  1595          ?      2:bad      +   0.002 *0.998
  1596          ?      2:bad      +   0     *1    
  1597          ?      2:bad      +   0     *1    
  1598          ?      2:bad      +   0     *1    
  1599          ?      2:bad      +   0     *1    
  1600          ?      2:bad      +   0     *1    
  1601          ?      2:bad      +   0     *1    
  1602          ?      2:bad      +   0.002 *0.998
  1603          ?      2:bad      +   0.008 *0.992
  1604          ?      2:bad      +   0     *1    
  1605          ?      2:bad      +   0     *1    
  1606          ?      2:bad      +   0.004 *0.996
  1607          ?      2:bad      +   0     *1    
  1608          ?      2:bad      +   0     *1    
  1609          ?      2:bad      +   0     *1    
  1610          ?      2:bad      +   0     *1    
  1611          ?      2:bad      +   0     *1    
  1612          ?      2:bad      +   0     *1    
  1613          ?     1:good      +  *0.939  0.061
  1614          ?      2:bad      +   0.001 *0.999
  1615          ?      2:bad      +   0     *1    
  1616          ?      2:bad      +   0     *1    
  1617          ?      2:bad      +   0     *1    
  1618          ?      2:bad      +   0     *1    
  1619          ?     1:good      +  *0.786  0.214
  1620          ?      2:bad      +   0     *1    
  1621          ?      2:bad      +   0     *1    
  1622          ?      2:bad      +   0.002 *0.998
  1623          ?      2:bad      +   0     *1    
  1624          ?      2:bad      +   0     *1    
  1625          ?      2:bad      +   0     *1    
  1626          ?      2:bad      +   0     *1    
  1627          ?      2:bad      +   0     *1    
  1628          ?      2:bad      +   0.009 *0.991
  1629          ?      2:bad      +   0     *1    
  1630          ?     1:good      +  *0.932  0.068
  1631          ?      2:bad      +   0     *1    
  1632          ?      2:bad      +   0     *1    
  1633          ?      2:bad      +   0     *1    
  1634          ?     1:good      +  *0.786  0.214
  1635          ?      2:bad      +   0     *1    
  1636          ?      2:bad      +   0     *1    
  1637          ?      2:bad      +   0.002 *0.998
  1638          ?      2:bad      +   0     *1    
  1639          ?     1:good      +  *0.697  0.303
  1640          ?      2:bad      +   0     *1    
  1641          ?      2:bad      +   0     *1    
  1642          ?      2:bad      +   0     *1    
  1643          ?     1:good      +  *0.786  0.214
  1644          ?     1:good      +  *0.786  0.214
  1645          ?      2:bad      +   0     *1    
  1646          ?      2:bad      +   0     *1    
  1647          ?     1:good      +  *0.791  0.209
  1648          ?      2:bad      +   0     *1    
  1649          ?      2:bad      +   0     *1    
  1650          ?      2:bad      +   0     *1    
  1651          ?      2:bad      +   0     *1    
  1652          ?     1:good      +  *0.786  0.214
  1653          ?      2:bad      +   0     *1    
  1654          ?      2:bad      +   0     *1    
  1655          ?      2:bad      +   0     *1    
  1656          ?      2:bad      +   0.008 *0.992
  1657          ?      2:bad      +   0     *1    
  1658          ?     1:good      +  *0.697  0.303
  1659          ?     1:good      +  *0.709  0.291
  1660          ?      2:bad      +   0     *1    
  1661          ?      2:bad      +   0     *1    
  1662          ?      2:bad      +   0     *1    
  1663          ?      2:bad      +   0     *1    
  1664          ?     1:good      +  *0.791  0.209
  1665          ?      2:bad      +   0     *1    
  1666          ?      2:bad      +   0     *1    
  1667          ?      2:bad      +   0.008 *0.992
  1668          ?      2:bad      +   0.008 *0.992
  1669          ?      2:bad      +   0     *1    
  1670          ?     1:good      +  *0.932  0.068
  1671          ?      2:bad      +   0     *1    
  1672          ?      2:bad      +   0     *1    
  1673          ?      2:bad      +   0     *1    
  1674          ?      2:bad      +   0.008 *0.992
  1675          ?      2:bad      +   0     *1    
  1676          ?      2:bad      +   0     *1    
  1677          ?      2:bad      +   0     *1    
  1678          ?     1:good      +  *0.791  0.209
  1679          ?      2:bad      +   0     *1    
  1680          ?      2:bad      +   0     *1    
  1681          ?      2:bad      +   0.001 *0.999
  1682          ?     1:good      +  *0.932  0.068
  1683          ?     1:good      +  *0.786  0.214
  1684          ?     1:good      +  *0.697  0.303
  1685          ?     1:good      +  *0.709  0.291
  1686          ?      2:bad      +   0     *1    
  1687          ?      2:bad      +   0     *1    
  1688          ?      2:bad      +   0     *1    
  1689          ?      2:bad      +   0     *1    
  1690          ?      2:bad      +   0     *1    
  1691          ?      2:bad      +   0     *1    
  1692          ?      2:bad      +   0     *1    
  1693          ?      2:bad      +   0.009 *0.991
  1694          ?      2:bad      +   0     *1    
  1695          ?      2:bad      +   0.008 *0.992
  1696          ?     1:good      +  *0.786  0.214
  1697          ?      2:bad      +   0     *1    
  1698          ?      2:bad      +   0     *1    
  1699          ?      2:bad      +   0     *1    
  1700          ?      2:bad      +   0     *1    
  1701          ?      2:bad      +   0     *1    
  1702          ?      2:bad      +   0.009 *0.991
  1703          ?      2:bad      +   0.001 *0.999
  1704          ?      2:bad      +   0     *1    
  1705          ?      2:bad      +   0     *1    
  1706          ?      2:bad      +   0     *1    
  1707          ?      2:bad      +   0.008 *0.992
  1708          ?      2:bad      +   0     *1    
  1709          ?      2:bad      +   0.003 *0.997
  1710          ?      2:bad      +   0.001 *0.999
  1711          ?      2:bad      +   0     *1    
  1712          ?      2:bad      +   0.003 *0.997
  1713          ?     1:good      +  *0.786  0.214
  1714          ?      2:bad      +   0     *1    
  1715          ?      2:bad      +   0.002 *0.998
  1716          ?      2:bad      +   0.009 *0.991
  1717          ?      2:bad      +   0     *1    
  1718          ?     1:good      +  *0.786  0.214
  1719          ?      2:bad      +   0.008 *0.992
  1720          ?      2:bad      +   0.009 *0.991
  1721          ?      2:bad      +   0     *1    
  1722          ?      2:bad      +   0     *1    
  1723          ?      2:bad      +   0     *1    
  1724          ?      2:bad      +   0.008 *0.992
  1725          ?     1:good      +  *0.697  0.303
  1726          ?     1:good      +  *0.932  0.068
  1727          ?     1:good      +  *0.786  0.214
  1728          ?      2:bad      +   0     *1    
  1729          ?      2:bad      +   0     *1    
  1730          ?      2:bad      +   0     *1    
  1731          ?      2:bad      +   0     *1    
  1732          ?      2:bad      +   0     *1    
  1733          ?      2:bad      +   0.008 *0.992
  1734          ?     1:good      +  *0.939  0.061
  1735          ?     1:good      +  *0.932  0.068
  1736          ?      2:bad      +   0     *1    
  1737          ?      2:bad      +   0.008 *0.992
  1738          ?      2:bad      +   0     *1    
  1739          ?      2:bad      +   0     *1    
  1740          ?      2:bad      +   0     *1    
  1741          ?      2:bad      +   0     *1    
  1742          ?      2:bad      +   0.008 *0.992
  1743          ?      2:bad      +   0     *1    
  1744          ?      2:bad      +   0     *1    
  1745          ?      2:bad      +   0     *1    
  1746          ?      2:bad      +   0     *1    
  1747          ?      2:bad      +   0     *1    
  1748          ?      2:bad      +   0.008 *0.992
  1749          ?     1:good      +  *0.786  0.214
  1750          ?      2:bad      +   0     *1    
  1751          ?      2:bad      +   0     *1    
  1752          ?     1:good      +  *0.786  0.214
  1753          ?      2:bad      +   0     *1    
  1754          ?      2:bad      +   0.001 *0.999
  1755          ?      2:bad      +   0.001 *0.999
  1756          ?      2:bad      +   0     *1    
  1757          ?      2:bad      +   0     *1    
  1758          ?      2:bad      +   0     *1    
  1759          ?      2:bad      +   0     *1    
  1760          ?      2:bad      +   0     *1    
  1761          ?     1:good      +  *0.932  0.068
  1762          ?      2:bad      +   0     *1    
  1763          ?      2:bad      +   0     *1    
  1764          ?      2:bad      +   0     *1    
  1765          ?      2:bad      +   0.008 *0.992
  1766          ?     1:good      +  *0.709  0.291
  1767          ?      2:bad      +   0     *1    
  1768          ?      2:bad      +   0     *1    
  1769          ?      2:bad      +   0     *1    
  1770          ?      2:bad      +   0.009 *0.991
  1771          ?      2:bad      +   0     *1    
  1772          ?      2:bad      +   0     *1    
  1773          ?      2:bad      +   0     *1    
  1774          ?      2:bad      +   0     *1    
  1775          ?      2:bad      +   0     *1    
  1776          ?      2:bad      +   0.009 *0.991
  1777          ?      2:bad      +   0     *1    
  1778          ?      2:bad      +   0     *1    
  1779          ?      2:bad      +   0.001 *0.999
  1780          ?     1:good      +  *0.932  0.068
  1781          ?      2:bad      +   0.009 *0.991
  1782          ?      2:bad      +   0     *1    
  1783          ?      2:bad      +   0     *1    
  1784          ?      2:bad      +   0.001 *0.999
  1785          ?      2:bad      +   0     *1    
  1786          ?      2:bad      +   0     *1    
  1787          ?      2:bad      +   0     *1    
  1788          ?      2:bad      +   0     *1    
  1789          ?      2:bad      +   0     *1    
  1790          ?      2:bad      +   0     *1    
  1791          ?      2:bad      +   0.009 *0.991
  1792          ?      2:bad      +   0.008 *0.992
  1793          ?      2:bad      +   0.008 *0.992
  1794          ?      2:bad      +   0.001 *0.999
  1795          ?      2:bad      +   0     *1    
  1796          ?      2:bad      +   0     *1    
  1797          ?     1:good      +  *0.791  0.209
  1798          ?      2:bad      +   0     *1    
  1799          ?      2:bad      +   0     *1    
  1800          ?      2:bad      +   0.002 *0.998
  1801          ?      2:bad      +   0.001 *0.999
  1802          ?     1:good      +  *0.709  0.291
  1803          ?      2:bad      +   0     *1    
  1804          ?      2:bad      +   0     *1    
  1805          ?      2:bad      +   0     *1    
  1806          ?      2:bad      +   0     *1    
  1807          ?      2:bad      +   0     *1    
  1808          ?      2:bad      +   0.008 *0.992
  1809          ?      2:bad      +   0     *1    
  1810          ?      2:bad      +   0.001 *0.999
  1811          ?      2:bad      +   0     *1    
  1812          ?      2:bad      +   0     *1    
  1813          ?      2:bad      +   0     *1    
  1814          ?      2:bad      +   0     *1    
